<?xml version="1.0" encoding="US-ASCII"?>


<!--
	Bayesian network in XMLBIF v0.3 (BayesNet Interchange Format)
	Produced by JavaBayes (http://www.cs.cmu.edu/~javabayes/
	Number of nodes:20
	Output created Mon Oct 09 18:59:00 EDT 2006
-->



<BIF VERSION="0.3">
<NETWORK>
<NAME>example10</NAME>
<!-- Variables -->
<VARIABLE TYPE="nature">
    <NAME>node0</NAME>
    <OUTCOME>state0</OUTCOME>
    <OUTCOME>state1</OUTCOME>
    <OUTCOME>state2</OUTCOME>
    <OUTCOME>state3</OUTCOME>
    <PROPERTY>position = (15, 150)</PROPERTY>
</VARIABLE>
<!-- Variables -->
<VARIABLE TYPE="nature">
    <NAME>node1</NAME>
    <OUTCOME>state0</OUTCOME>
    <OUTCOME>state1</OUTCOME>
    <OUTCOME>state2</OUTCOME>
    <OUTCOME>state3</OUTCOME>
    <PROPERTY>position = (44, 270)</PROPERTY>
</VARIABLE>
<!-- Variables -->
<VARIABLE TYPE="nature">
    <NAME>node2</NAME>
    <OUTCOME>state0</OUTCOME>
    <OUTCOME>state1</OUTCOME>
    <OUTCOME>state2</OUTCOME>
    <OUTCOME>state3</OUTCOME>
    <OUTCOME>state4</OUTCOME>
    <PROPERTY>position = (135, 164)</PROPERTY>
</VARIABLE>
<!-- Variables -->
<VARIABLE TYPE="nature">
    <NAME>node3</NAME>
    <OUTCOME>state0</OUTCOME>
    <OUTCOME>state1</OUTCOME>
    <PROPERTY>position = (164, 284)</PROPERTY>
</VARIABLE>
<!-- Variables -->
<VARIABLE TYPE="nature">
    <NAME>node4</NAME>
    <OUTCOME>state0</OUTCOME>
    <OUTCOME>state1</OUTCOME>
    <OUTCOME>state2</OUTCOME>
    <OUTCOME>state3</OUTCOME>
    <OUTCOME>state4</OUTCOME>
    <PROPERTY>position = (255, 150)</PROPERTY>
</VARIABLE>
<!-- Variables -->
<VARIABLE TYPE="nature">
    <NAME>node5</NAME>
    <OUTCOME>state0</OUTCOME>
    <OUTCOME>state1</OUTCOME>
    <PROPERTY>position = (284, 270)</PROPERTY>
</VARIABLE>
<!-- Variables -->
<VARIABLE TYPE="nature">
    <NAME>node6</NAME>
    <OUTCOME>state0</OUTCOME>
    <OUTCOME>state1</OUTCOME>
    <PROPERTY>position = (375, 135)</PROPERTY>
</VARIABLE>
<!-- Variables -->
<VARIABLE TYPE="nature">
    <NAME>node7</NAME>
    <OUTCOME>state0</OUTCOME>
    <OUTCOME>state1</OUTCOME>
    <PROPERTY>position = (45, 30)</PROPERTY>
</VARIABLE>
<!-- Variables -->
<VARIABLE TYPE="nature">
    <NAME>node8</NAME>
    <OUTCOME>state0</OUTCOME>
    <OUTCOME>state1</OUTCOME>
    <OUTCOME>state2</OUTCOME>
    <PROPERTY>position = (404, 255)</PROPERTY>
</VARIABLE>
<!-- Variables -->
<VARIABLE TYPE="nature">
    <NAME>node9</NAME>
    <OUTCOME>state0</OUTCOME>
    <OUTCOME>state1</OUTCOME>
    <OUTCOME>state2</OUTCOME>
    <OUTCOME>state3</OUTCOME>
    <PROPERTY>position = (495, 149)</PROPERTY>
</VARIABLE>
<!-- Variables -->
<VARIABLE TYPE="nature">
    <NAME>node10</NAME>
    <OUTCOME>state0</OUTCOME>
    <OUTCOME>state1</OUTCOME>
    <OUTCOME>state2</OUTCOME>
    <OUTCOME>state3</OUTCOME>
    <PROPERTY>position = (615, 164)</PROPERTY>
</VARIABLE>
<!-- Variables -->
<VARIABLE TYPE="nature">
    <NAME>node11</NAME>
    <OUTCOME>state0</OUTCOME>
    <OUTCOME>state1</OUTCOME>
    <OUTCOME>state2</OUTCOME>
    <OUTCOME>state3</OUTCOME>
    <PROPERTY>position = (165, 44)</PROPERTY>
</VARIABLE>
<!-- Variables -->
<VARIABLE TYPE="nature">
    <NAME>node12</NAME>
    <OUTCOME>state0</OUTCOME>
    <OUTCOME>state1</OUTCOME>
    <PROPERTY>position = (524, 269)</PROPERTY>
</VARIABLE>
<!-- Variables -->
<VARIABLE TYPE="nature">
    <NAME>node13</NAME>
    <OUTCOME>state0</OUTCOME>
    <OUTCOME>state1</OUTCOME>
    <PROPERTY>position = (735, 150)</PROPERTY>
</VARIABLE>
<!-- Variables -->
<VARIABLE TYPE="nature">
    <NAME>node14</NAME>
    <OUTCOME>state0</OUTCOME>
    <OUTCOME>state1</OUTCOME>
    <PROPERTY>position = (15, 390)</PROPERTY>
</VARIABLE>
<!-- Variables -->
<VARIABLE TYPE="nature">
    <NAME>node15</NAME>
    <OUTCOME>state0</OUTCOME>
    <OUTCOME>state1</OUTCOME>
    <OUTCOME>state2</OUTCOME>
    <OUTCOME>state3</OUTCOME>
    <PROPERTY>position = (855, 135)</PROPERTY>
</VARIABLE>
<!-- Variables -->
<VARIABLE TYPE="nature">
    <NAME>node16</NAME>
    <OUTCOME>state0</OUTCOME>
    <OUTCOME>state1</OUTCOME>
    <OUTCOME>state2</OUTCOME>
    <PROPERTY>position = (644, 284)</PROPERTY>
</VARIABLE>
<!-- Variables -->
<VARIABLE TYPE="nature">
    <NAME>node17</NAME>
    <OUTCOME>state0</OUTCOME>
    <OUTCOME>state1</OUTCOME>
    <OUTCOME>state2</OUTCOME>
    <OUTCOME>state3</OUTCOME>
    <PROPERTY>position = (285, 30)</PROPERTY>
</VARIABLE>
<!-- Variables -->
<VARIABLE TYPE="nature">
    <NAME>node18</NAME>
    <OUTCOME>state0</OUTCOME>
    <OUTCOME>state1</OUTCOME>
    <OUTCOME>state2</OUTCOME>
    <PROPERTY>position = (135, 404)</PROPERTY>
</VARIABLE>
<!-- Variables -->
<VARIABLE TYPE="nature">
    <NAME>node19</NAME>
    <OUTCOME>state0</OUTCOME>
    <OUTCOME>state1</OUTCOME>
    <OUTCOME>state2</OUTCOME>
    <OUTCOME>state3</OUTCOME>
    <OUTCOME>state4</OUTCOME>
    <PROPERTY>position = (405, 15)</PROPERTY>
</VARIABLE>
<!-- Probability Distributions -->
 <DEFINITION>
      <FOR>node0</FOR>
      <GIVEN>node2</GIVEN>
     <TABLE>0.047779888 0.042606637 0.4062736 0.5033399 0.6712979 0.11473417 0.12044907 0.0935188 0.22989173 0.23238645 0.008837553 0.52888423 0.19707249 0.015148961 0.76620376 0.021574788 0.42789632 0.007557054 0.18307951 0.38146713 </TABLE>
 </DEFINITION>
 <DEFINITION>
      <FOR>node1</FOR>
      <GIVEN>node6</GIVEN>
      <GIVEN>node11</GIVEN>
     <TABLE>0.5431962 0.026257453 0.082005166 0.34854117 0.13055673 0.6425601 0.064184174 0.16269894 0.20355864 0.28986174 0.2623339 0.24424574 0.40166396 0.0740492 0.3226619 0.20162499 0.2816258 0.0038329586 0.3374259 0.37711537 0.23467854 0.22136304 0.48004857 0.063909866 0.6535281 0.029671576 0.10207753 0.21472283 0.24934049 0.4226184 0.15874963 0.16929147 </TABLE>
 </DEFINITION>
 <DEFINITION>
      <FOR>node2</FOR>
      <GIVEN>node19</GIVEN>
     <TABLE>0.1817542 0.09432197 0.014658352 0.3512754 0.35799006 0.4319405 0.065166935 0.34405753 0.13135153 0.027483433 0.14901125 0.23602039 0.11695472 0.45351532 0.04449834 0.087602794 0.27862728 0.11452496 0.22230549 0.29693943 0.33979678 0.37294552 0.10916916 0.1581439 0.019944603 </TABLE>
 </DEFINITION>
 <DEFINITION>
      <FOR>node3</FOR>
      <GIVEN>node19</GIVEN>
      <GIVEN>node11</GIVEN>
     <TABLE>0.4958146 0.5041854 0.9071754 0.09282458 0.7837344 0.21626565 0.8676989 0.13230109 0.9626404 0.0373596 0.25841877 0.74158126 0.81458545 0.18541455 0.7977799 0.20222008 0.80272037 0.1972796 0.5462308 0.45376918 0.009525306 0.9904747 0.17800266 0.82199734 0.9344289 0.06557111 0.4752562 0.52474374 0.14872669 0.8512733 0.34811792 0.6518821 0.46724337 0.5327567 0.08844214 0.91155785 0.60526776 0.3947322 0.3453239 0.65467614 </TABLE>
 </DEFINITION>
 <DEFINITION>
      <FOR>node4</FOR>
      <GIVEN>node2</GIVEN>
     <TABLE>0.17753083 0.13199711 0.22299345 0.4214728 0.046005823 0.06496223 0.37775525 0.36262098 0.080281794 0.11437975 0.19316363 0.00564899 0.16541636 0.5739708 0.06180027 0.20635326 0.089130804 0.37980175 0.05212085 0.2725933 0.22546944 0.37896463 0.037416574 0.31871197 0.039437428 </TABLE>
 </DEFINITION>
 <DEFINITION>
      <FOR>node5</FOR>
      <GIVEN>node9</GIVEN>
      <GIVEN>node4</GIVEN>
     <TABLE>0.21324192 0.78675807 0.60550994 0.39449012 0.079151005 0.92084897 0.17171605 0.82828397 0.36678898 0.633211 0.9784106 0.021589424 0.26852474 0.73147523 0.7670307 0.23296928 0.7424397 0.2575603 0.7596209 0.2403791 0.9250618 0.07493816 0.9959318 0.004068179 0.2600578 0.73994225 0.7666481 0.23335186 0.59290814 0.4070919 0.43331635 0.5666837 0.25360766 0.74639237 0.337523 0.662477 0.95090276 0.049097262 0.68831754 0.3116825 </TABLE>
 </DEFINITION>
 <DEFINITION>
      <FOR>node6</FOR>
      <GIVEN>node0</GIVEN>
     <TABLE>0.29827586 0.7017242 0.8237141 0.17628594 0.3223042 0.6776958 0.8401541 0.15984589 </TABLE>
 </DEFINITION>
 <DEFINITION>
      <FOR>node7</FOR>
     <TABLE>0.49919063 0.5008094 </TABLE>
 </DEFINITION>
 <DEFINITION>
      <FOR>node8</FOR>
      <GIVEN>node19</GIVEN>
      <GIVEN>node6</GIVEN>
     <TABLE>0.7499025 0.22615772 0.023939718 0.66915 0.27204186 0.0588081 0.3865377 0.40192506 0.21153723 0.42293274 0.4706273 0.10643996 0.27368742 0.5997738 0.1265387 0.59190637 0.034749646 0.37334397 0.4127603 0.34849098 0.23874879 0.3541713 0.23167966 0.41414905 0.43196392 0.32970363 0.2383325 0.43425468 0.29664412 0.26910117 </TABLE>
 </DEFINITION>
 <DEFINITION>
      <FOR>node9</FOR>
      <GIVEN>node12</GIVEN>
     <TABLE>0.045650892 0.18457326 0.76284856 0.0069273463 0.4064795 0.44554162 0.04560877 0.10237009 </TABLE>
 </DEFINITION>
 <DEFINITION>
      <FOR>node10</FOR>
      <GIVEN>node9</GIVEN>
     <TABLE>0.4307465 0.06199517 0.40263546 0.104622886 0.15133679 0.063438915 0.28871742 0.49650684 0.107633375 0.35577887 0.03232032 0.50426745 0.17212506 0.08841874 0.19345993 0.54599625 </TABLE>
 </DEFINITION>
 <DEFINITION>
      <FOR>node11</FOR>
     <TABLE>0.5143746 0.09716807 0.011351639 0.37710568 </TABLE>
 </DEFINITION>
 <DEFINITION>
      <FOR>node12</FOR>
      <GIVEN>node17</GIVEN>
      <GIVEN>node1</GIVEN>
     <TABLE>0.35157073 0.6484293 0.29420584 0.70579416 0.066129796 0.9338702 0.9923029 0.0076971045 0.4848561 0.51514393 0.049840774 0.9501592 0.13957997 0.86042005 0.42478758 0.5752124 0.7789277 0.22107229 0.7883155 0.21168451 0.87296295 0.12703702 0.16714677 0.83285326 0.19355656 0.80644345 0.33835244 0.6616475 0.88842493 0.11157505 0.8852817 0.114718355 </TABLE>
 </DEFINITION>
 <DEFINITION>
      <FOR>node13</FOR>
      <GIVEN>node17</GIVEN>
     <TABLE>0.62988013 0.37011987 0.9521353 0.0478647 0.47798994 0.5220101 0.88338846 0.11661154 </TABLE>
 </DEFINITION>
 <DEFINITION>
      <FOR>node14</FOR>
      <GIVEN>node5</GIVEN>
      <GIVEN>node17</GIVEN>
      <GIVEN>node10</GIVEN>
     <TABLE>0.95788604 0.04211396 0.32724768 0.6727524 0.044967894 0.9550321 0.20109025 0.7989098 0.5605181 0.43948188 0.7982935 0.20170651 0.33021381 0.6697862 0.099880494 0.90011954 0.76088846 0.23911156 0.291533 0.708467 0.33470124 0.66529876 0.95912635 0.040873617 0.7036372 0.29636282 0.42361754 0.5763825 0.4329966 0.56700337 0.15183541 0.84816456 0.11135063 0.8886494 0.008257886 0.9917421 0.27701044 0.72298956 0.72250277 0.27749723 0.5569473 0.44305268 0.49425188 0.50574803 0.43901289 0.5609871 0.8986533 0.10134663 0.14805394 0.85194606 0.6154747 0.38452527 0.87230134 0.12769866 0.25705793 0.74294204 0.5857717 0.41422835 0.2620711 0.73792887 0.3945733 0.60542667 0.23623466 0.7637654 </TABLE>
 </DEFINITION>
 <DEFINITION>
      <FOR>node15</FOR>
      <GIVEN>node16</GIVEN>
     <TABLE>4.5616497E-4 0.10575733 0.25177592 0.64201057 0.0073387004 0.79741734 0.11664417 0.07859981 0.11980341 0.08304668 0.75190413 0.045245685 </TABLE>
 </DEFINITION>
 <DEFINITION>
      <FOR>node16</FOR>
      <GIVEN>node8</GIVEN>
      <GIVEN>node13</GIVEN>
     <TABLE>0.5283301 0.35581568 0.115854286 0.4414737 0.0103103 0.54821604 0.042220354 0.77947074 0.17830895 0.5227864 0.34138393 0.13582969 0.12900811 0.7208612 0.15013069 0.32496348 0.11972428 0.5553122 </TABLE>
 </DEFINITION>
 <DEFINITION>
      <FOR>node17</FOR>
     <TABLE>0.021341875 0.13275984 0.655101 0.19079728 </TABLE>
 </DEFINITION>
 <DEFINITION>
      <FOR>node18</FOR>
      <GIVEN>node10</GIVEN>
      <GIVEN>node7</GIVEN>
      <GIVEN>node3</GIVEN>
     <TABLE>0.91392046 0.07786048 0.0082190195 0.13798647 0.34368712 0.5183264 0.013590655 0.8334415 0.15296781 0.8520728 0.12474232 0.023184901 0.026942018 0.753079 0.219979 0.7437835 0.003158221 0.2530583 0.36888894 0.06554387 0.56556726 0.28006536 0.22925094 0.49068376 0.026669351 0.35850507 0.61482555 0.24197774 0.46924728 0.28877494 0.46704537 0.52510554 0.007849101 0.43332252 0.4981437 0.068533815 0.34302768 0.01870538 0.6382669 0.70617324 0.21262039 0.08120634 0.35389248 0.24062833 0.40547916 0.004488695 0.9167384 0.07877296 </TABLE>
 </DEFINITION>
 <DEFINITION>
      <FOR>node19</FOR>
     <TABLE>0.14343114 0.030812992 0.6957522 0.020569595 0.1094341 </TABLE>
 </DEFINITION>
</NETWORK>
</BIF>
