<?xml version="1.0" encoding="US-ASCII"?>


<!--
	Bayesian network in XMLBIF v0.3 (BayesNet Interchange Format)
	Produced by JavaBayes (http://www.cs.cmu.edu/~javabayes/
	Number of nodes:20
	Output created Mon Oct 09 18:59:00 EDT 2006
-->



<BIF VERSION="0.3">
<NETWORK>
<NAME>example4</NAME>
<!-- Variables -->
<VARIABLE TYPE="nature">
    <NAME>node0</NAME>
    <OUTCOME>state0</OUTCOME>
    <OUTCOME>state1</OUTCOME>
    <OUTCOME>state2</OUTCOME>
    <OUTCOME>state3</OUTCOME>
    <OUTCOME>state4</OUTCOME>
    <PROPERTY>position = (15, 150)</PROPERTY>
</VARIABLE>
<!-- Variables -->
<VARIABLE TYPE="nature">
    <NAME>node1</NAME>
    <OUTCOME>state0</OUTCOME>
    <OUTCOME>state1</OUTCOME>
    <OUTCOME>state2</OUTCOME>
    <PROPERTY>position = (15, 390)</PROPERTY>
</VARIABLE>
<!-- Variables -->
<VARIABLE TYPE="nature">
    <NAME>node2</NAME>
    <OUTCOME>state0</OUTCOME>
    <OUTCOME>state1</OUTCOME>
    <PROPERTY>position = (44, 270)</PROPERTY>
</VARIABLE>
<!-- Variables -->
<VARIABLE TYPE="nature">
    <NAME>node3</NAME>
    <OUTCOME>state0</OUTCOME>
    <OUTCOME>state1</OUTCOME>
    <OUTCOME>state2</OUTCOME>
    <PROPERTY>position = (135, 164)</PROPERTY>
</VARIABLE>
<!-- Variables -->
<VARIABLE TYPE="nature">
    <NAME>node4</NAME>
    <OUTCOME>state0</OUTCOME>
    <OUTCOME>state1</OUTCOME>
    <PROPERTY>position = (135, 404)</PROPERTY>
</VARIABLE>
<!-- Variables -->
<VARIABLE TYPE="nature">
    <NAME>node5</NAME>
    <OUTCOME>state0</OUTCOME>
    <OUTCOME>state1</OUTCOME>
    <OUTCOME>state2</OUTCOME>
    <OUTCOME>state3</OUTCOME>
    <PROPERTY>position = (45, 30)</PROPERTY>
</VARIABLE>
<!-- Variables -->
<VARIABLE TYPE="nature">
    <NAME>node6</NAME>
    <OUTCOME>state0</OUTCOME>
    <OUTCOME>state1</OUTCOME>
    <PROPERTY>position = (165, 44)</PROPERTY>
</VARIABLE>
<!-- Variables -->
<VARIABLE TYPE="nature">
    <NAME>node7</NAME>
    <OUTCOME>state0</OUTCOME>
    <OUTCOME>state1</OUTCOME>
    <OUTCOME>state2</OUTCOME>
    <OUTCOME>state3</OUTCOME>
    <OUTCOME>state4</OUTCOME>
    <PROPERTY>position = (164, 284)</PROPERTY>
</VARIABLE>
<!-- Variables -->
<VARIABLE TYPE="nature">
    <NAME>node8</NAME>
    <OUTCOME>state0</OUTCOME>
    <OUTCOME>state1</OUTCOME>
    <PROPERTY>position = (255, 150)</PROPERTY>
</VARIABLE>
<!-- Variables -->
<VARIABLE TYPE="nature">
    <NAME>node9</NAME>
    <OUTCOME>state0</OUTCOME>
    <OUTCOME>state1</OUTCOME>
    <OUTCOME>state2</OUTCOME>
    <PROPERTY>position = (375, 135)</PROPERTY>
</VARIABLE>
<!-- Variables -->
<VARIABLE TYPE="nature">
    <NAME>node10</NAME>
    <OUTCOME>state0</OUTCOME>
    <OUTCOME>state1</OUTCOME>
    <PROPERTY>position = (285, 30)</PROPERTY>
</VARIABLE>
<!-- Variables -->
<VARIABLE TYPE="nature">
    <NAME>node11</NAME>
    <OUTCOME>state0</OUTCOME>
    <OUTCOME>state1</OUTCOME>
    <OUTCOME>state2</OUTCOME>
    <OUTCOME>state3</OUTCOME>
    <OUTCOME>state4</OUTCOME>
    <PROPERTY>position = (495, 149)</PROPERTY>
</VARIABLE>
<!-- Variables -->
<VARIABLE TYPE="nature">
    <NAME>node12</NAME>
    <OUTCOME>state0</OUTCOME>
    <OUTCOME>state1</OUTCOME>
    <PROPERTY>position = (255, 390)</PROPERTY>
</VARIABLE>
<!-- Variables -->
<VARIABLE TYPE="nature">
    <NAME>node13</NAME>
    <OUTCOME>state0</OUTCOME>
    <OUTCOME>state1</OUTCOME>
    <OUTCOME>state2</OUTCOME>
    <OUTCOME>state3</OUTCOME>
    <PROPERTY>position = (284, 270)</PROPERTY>
</VARIABLE>
<!-- Variables -->
<VARIABLE TYPE="nature">
    <NAME>node14</NAME>
    <OUTCOME>state0</OUTCOME>
    <OUTCOME>state1</OUTCOME>
    <PROPERTY>position = (405, 15)</PROPERTY>
</VARIABLE>
<!-- Variables -->
<VARIABLE TYPE="nature">
    <NAME>node15</NAME>
    <OUTCOME>state0</OUTCOME>
    <OUTCOME>state1</OUTCOME>
    <PROPERTY>position = (404, 255)</PROPERTY>
</VARIABLE>
<!-- Variables -->
<VARIABLE TYPE="nature">
    <NAME>node16</NAME>
    <OUTCOME>state0</OUTCOME>
    <OUTCOME>state1</OUTCOME>
    <OUTCOME>state2</OUTCOME>
    <OUTCOME>state3</OUTCOME>
    <PROPERTY>position = (524, 269)</PROPERTY>
</VARIABLE>
<!-- Variables -->
<VARIABLE TYPE="nature">
    <NAME>node17</NAME>
    <OUTCOME>state0</OUTCOME>
    <OUTCOME>state1</OUTCOME>
    <OUTCOME>state2</OUTCOME>
    <OUTCOME>state3</OUTCOME>
    <PROPERTY>position = (644, 284)</PROPERTY>
</VARIABLE>
<!-- Variables -->
<VARIABLE TYPE="nature">
    <NAME>node18</NAME>
    <OUTCOME>state0</OUTCOME>
    <OUTCOME>state1</OUTCOME>
    <OUTCOME>state2</OUTCOME>
    <PROPERTY>position = (615, 164)</PROPERTY>
</VARIABLE>
<!-- Variables -->
<VARIABLE TYPE="nature">
    <NAME>node19</NAME>
    <OUTCOME>state0</OUTCOME>
    <OUTCOME>state1</OUTCOME>
    <OUTCOME>state2</OUTCOME>
    <OUTCOME>state3</OUTCOME>
    <OUTCOME>state4</OUTCOME>
    <PROPERTY>position = (735, 150)</PROPERTY>
</VARIABLE>
<!-- Probability Distributions -->
 <DEFINITION>
      <FOR>node0</FOR>
      <GIVEN>node8</GIVEN>
     <TABLE>0.08214645 0.18408659 0.22598445 0.14075133 0.36703122 0.096747026 0.21576485 0.07080105 0.5972805 0.01940666 </TABLE>
 </DEFINITION>
 <DEFINITION>
      <FOR>node1</FOR>
      <GIVEN>node2</GIVEN>
      <GIVEN>node8</GIVEN>
      <GIVEN>node0</GIVEN>
     <TABLE>0.0032987567 0.4330189 0.5636824 0.020268837 0.06444488 0.9152863 0.31073362 0.6317174 0.05754909 0.5998919 0.38293484 0.017173259 0.2358215 0.023144245 0.7410342 0.14846821 0.6876171 0.16391465 0.4990131 0.3906507 0.11033628 0.29819477 0.18697967 0.5148256 0.156094 0.46573508 0.37817094 0.3566262 0.21831915 0.42505464 0.11925646 0.5632882 0.31745526 0.019741032 0.9276271 0.052631836 0.4822942 0.50672287 0.010982885 0.4786898 0.07558405 0.44572622 0.046923418 0.9517497 0.0013269023 0.28156012 0.42700157 0.29143837 0.4448465 0.0073782722 0.54777527 0.32781097 0.022703541 0.6494854 0.5102071 0.28012276 0.20967017 0.034804177 0.29452246 0.6706734 </TABLE>
 </DEFINITION>
 <DEFINITION>
      <FOR>node2</FOR>
      <GIVEN>node5</GIVEN>
      <GIVEN>node6</GIVEN>
     <TABLE>0.20807092 0.7919291 0.9270782 0.072921805 0.72212934 0.27787066 0.061689716 0.93831027 0.92328846 0.07671155 0.9016923 0.09830773 0.40060768 0.59939235 0.7223322 0.27766788 </TABLE>
 </DEFINITION>
 <DEFINITION>
      <FOR>node3</FOR>
      <GIVEN>node6</GIVEN>
     <TABLE>0.4311544 0.16110407 0.4077416 0.48049954 0.34077474 0.17872572 </TABLE>
 </DEFINITION>
 <DEFINITION>
      <FOR>node4</FOR>
      <GIVEN>node3</GIVEN>
      <GIVEN>node7</GIVEN>
      <GIVEN>node10</GIVEN>
     <TABLE>0.72417104 0.27582902 0.5019403 0.49805966 0.865809 0.134191 0.6715448 0.32845518 0.70904386 0.2909561 0.95178324 0.048216797 0.5815896 0.4184104 0.65372795 0.34627202 0.595561 0.404439 0.92150193 0.07849805 0.6096578 0.39034215 0.034750935 0.9652491 0.18465728 0.81534266 0.61493564 0.3850644 0.62001705 0.37998295 0.3588834 0.6411166 0.28917506 0.71082497 0.4334462 0.5665538 0.13340771 0.8665923 0.5875864 0.41241354 0.26376578 0.73623425 0.67443913 0.3255609 0.53294045 0.46705955 0.62249196 0.37750804 0.45969546 0.54030454 0.009717876 0.9902822 0.83404124 0.16595879 0.7939571 0.20604284 0.6807435 0.31925645 0.21715908 0.78284097 </TABLE>
 </DEFINITION>
 <DEFINITION>
      <FOR>node5</FOR>
     <TABLE>0.08104285 0.20577039 0.07456558 0.6386212 </TABLE>
 </DEFINITION>
 <DEFINITION>
      <FOR>node6</FOR>
     <TABLE>0.021752525 0.97824746 </TABLE>
 </DEFINITION>
 <DEFINITION>
      <FOR>node7</FOR>
      <GIVEN>node16</GIVEN>
      <GIVEN>node6</GIVEN>
     <TABLE>0.046869174 0.47381103 0.03172697 0.16871578 0.27887702 0.011349133 0.2024303 0.14249428 0.023515915 0.62021035 0.13095243 0.07000449 0.21820489 0.37527457 0.20556359 0.048063114 0.6466745 0.06284474 0.1430225 0.099395126 0.0319396 0.18885882 0.14088948 0.40621075 0.23210137 0.18283199 0.18380737 0.42053047 0.09384095 0.1189893 0.7745253 0.10145598 0.09950518 0.024513459 1.01137495E-7 0.43322542 0.04000938 0.0705694 0.069837414 0.38635832 </TABLE>
 </DEFINITION>
 <DEFINITION>
      <FOR>node8</FOR>
      <GIVEN>node10</GIVEN>
     <TABLE>0.6051304 0.3948696 0.5951902 0.40480977 </TABLE>
 </DEFINITION>
 <DEFINITION>
      <FOR>node9</FOR>
      <GIVEN>node14</GIVEN>
     <TABLE>0.47359833 0.43220222 0.09419946 0.4535687 0.4984417 0.047989704 </TABLE>
 </DEFINITION>
 <DEFINITION>
      <FOR>node10</FOR>
     <TABLE>0.8253614 0.17463863 </TABLE>
 </DEFINITION>
 <DEFINITION>
      <FOR>node11</FOR>
      <GIVEN>node17</GIVEN>
     <TABLE>0.115330786 0.01788574 0.010382872 0.3205734 0.5358272 0.10324696 0.353354 0.15247555 0.05343717 0.33748633 0.064552955 0.19962949 0.39802203 0.15985298 0.1779425 0.28562257 0.31866843 0.11759856 0.029404813 0.24870567 </TABLE>
 </DEFINITION>
 <DEFINITION>
      <FOR>node12</FOR>
      <GIVEN>node5</GIVEN>
      <GIVEN>node13</GIVEN>
      <GIVEN>node3</GIVEN>
     <TABLE>0.46189213 0.5381078 0.7156636 0.28433642 0.95136696 0.04863308 0.4877989 0.51220113 0.51078063 0.48921937 0.26629356 0.7337065 0.43179056 0.56820947 0.38863906 0.61136097 0.7016496 0.29835036 0.23091522 0.7690848 0.0030521536 0.9969478 0.21645643 0.7835436 0.2636788 0.7363212 0.6247598 0.3752402 0.5584712 0.44152883 0.5959488 0.40405118 0.9926557 0.0073443083 0.23708452 0.7629155 0.4344449 0.56555516 0.010903468 0.9890966 0.6294914 0.37050864 0.9586978 0.04130221 0.42696303 0.57303697 0.39776462 0.60223544 0.008929433 0.99107057 0.3394855 0.66051453 0.6575419 0.3424582 0.26222113 0.73777884 0.15354452 0.84645545 0.53061306 0.46938688 0.7708295 0.22917052 0.27316266 0.72683734 0.021334609 0.9786654 0.3193369 0.68066317 0.32493544 0.67506456 0.8142778 0.18572217 0.75669736 0.24330263 0.16025262 0.8397474 0.7645774 0.23542258 0.038381837 0.9616182 0.1379775 0.86202246 0.31523028 0.6847697 0.98930454 0.010695451 0.68160814 0.31839186 0.8188855 0.18111451 0.27882272 0.7211773 0.7114084 0.28859156 0.5365201 0.46347982 </TABLE>
 </DEFINITION>
 <DEFINITION>
      <FOR>node13</FOR>
      <GIVEN>node11</GIVEN>
      <GIVEN>node14</GIVEN>
     <TABLE>0.2587457 0.39469627 0.22195362 0.12460444 0.0049553905 0.35319626 0.142593 0.49925533 0.4131074 0.09522522 0.25761592 0.23405144 0.6080553 0.20490512 0.052051615 0.13498795 0.037745915 0.09741256 0.16432856 0.700513 0.20968427 0.44490534 0.07846701 0.26694337 0.3029163 0.303105 6.0138234E-4 0.39337736 0.4607416 0.01683892 0.5178936 0.00452588 0.15802133 0.4834903 0.17271152 0.18577681 0.5979931 0.11351744 0.0849697 0.20351979 </TABLE>
 </DEFINITION>
 <DEFINITION>
      <FOR>node14</FOR>
     <TABLE>0.7329689 0.2670311 </TABLE>
 </DEFINITION>
 <DEFINITION>
      <FOR>node15</FOR>
      <GIVEN>node10</GIVEN>
      <GIVEN>node5</GIVEN>
     <TABLE>0.6640955 0.33590445 0.4190329 0.5809671 0.30028698 0.69971305 0.091034114 0.9089659 0.95147127 0.048528697 0.6060697 0.3939303 0.15655962 0.8434404 0.1447631 0.85523695 </TABLE>
 </DEFINITION>
 <DEFINITION>
      <FOR>node16</FOR>
      <GIVEN>node11</GIVEN>
      <GIVEN>node18</GIVEN>
     <TABLE>0.3789278 0.38534012 0.06534468 0.17038737 0.13024111 0.09815191 0.58793736 0.18366961 0.40805316 0.011811648 0.12734815 0.45278707 0.038405783 0.06330973 0.8075588 0.0907257 0.050862186 0.066646524 0.6263652 0.25612617 0.5142501 0.30542165 0.16977559 0.010552666 0.595338 0.0069559915 0.18977375 0.20793223 0.024276726 0.44553003 0.08851136 0.4416819 0.3215728 0.08325394 0.29388312 0.30129015 0.32786676 0.10974463 0.26149088 0.30089772 0.5727332 0.23948191 0.04802551 0.13975938 0.14619672 0.082294494 0.020696644 0.7508121 0.17121215 0.5628076 0.015900772 0.2500794 0.17135501 0.41240138 0.21864009 0.19760355 0.41670316 0.116876185 0.20474668 0.26167393 </TABLE>
 </DEFINITION>
 <DEFINITION>
      <FOR>node17</FOR>
      <GIVEN>node14</GIVEN>
      <GIVEN>node15</GIVEN>
     <TABLE>0.08035672 0.071113504 0.7835264 0.06500335 0.21638697 0.74399614 0.015097344 0.024519613 0.012535166 0.17083623 0.43180206 0.38482654 0.32154146 0.07342255 0.4986815 0.10635448 </TABLE>
 </DEFINITION>
 <DEFINITION>
      <FOR>node18</FOR>
      <GIVEN>node19</GIVEN>
     <TABLE>0.1348089 0.064408325 0.8007828 0.22125496 0.18500769 0.5937373 0.7614795 0.08081231 0.15770818 0.20695405 0.49462774 0.29841822 0.33867037 0.5613136 0.100016 </TABLE>
 </DEFINITION>
 <DEFINITION>
      <FOR>node19</FOR>
      <GIVEN>node9</GIVEN>
     <TABLE>0.021852633 0.25357863 0.14217049 0.3820194 0.20037884 0.15264457 0.03845587 0.37878436 0.15991081 0.27020445 0.4354929 0.15048164 0.022999134 0.09002484 0.30100146 </TABLE>
 </DEFINITION>
</NETWORK>
</BIF>
