<?xml version="1.0" encoding="US-ASCII"?>


<!--
	Bayesian network in XMLBIF v0.3 (BayesNet Interchange Format)
	Produced by JavaBayes (http://www.cs.cmu.edu/~javabayes/
	Number of nodes:40
	Output created Thu Aug 07 05:19:25 EDT 2008
-->



<BIF VERSION="0.3">
<NETWORK>
<NAME>b40-51</NAME>
<!-- Variables -->
<VARIABLE TYPE="nature">
    <NAME>node0</NAME>
    <OUTCOME>state0</OUTCOME>
    <OUTCOME>state1</OUTCOME>
    <PROPERTY>position = (15, 150)</PROPERTY>
</VARIABLE>
<!-- Variables -->
<VARIABLE TYPE="nature">
    <NAME>node1</NAME>
    <OUTCOME>state0</OUTCOME>
    <OUTCOME>state1</OUTCOME>
    <PROPERTY>position = (15, 390)</PROPERTY>
</VARIABLE>
<!-- Variables -->
<VARIABLE TYPE="nature">
    <NAME>node2</NAME>
    <OUTCOME>state0</OUTCOME>
    <OUTCOME>state1</OUTCOME>
    <PROPERTY>position = (135, 164)</PROPERTY>
</VARIABLE>
<!-- Variables -->
<VARIABLE TYPE="nature">
    <NAME>node3</NAME>
    <OUTCOME>state0</OUTCOME>
    <OUTCOME>state1</OUTCOME>
    <PROPERTY>position = (44, 270)</PROPERTY>
</VARIABLE>
<!-- Variables -->
<VARIABLE TYPE="nature">
    <NAME>node4</NAME>
    <OUTCOME>state0</OUTCOME>
    <OUTCOME>state1</OUTCOME>
    <PROPERTY>position = (135, 404)</PROPERTY>
</VARIABLE>
<!-- Variables -->
<VARIABLE TYPE="nature">
    <NAME>node5</NAME>
    <OUTCOME>state0</OUTCOME>
    <OUTCOME>state1</OUTCOME>
    <PROPERTY>position = (255, 150)</PROPERTY>
</VARIABLE>
<!-- Variables -->
<VARIABLE TYPE="nature">
    <NAME>node6</NAME>
    <OUTCOME>state0</OUTCOME>
    <OUTCOME>state1</OUTCOME>
    <PROPERTY>position = (44, 510)</PROPERTY>
</VARIABLE>
<!-- Variables -->
<VARIABLE TYPE="nature">
    <NAME>node7</NAME>
    <OUTCOME>state0</OUTCOME>
    <OUTCOME>state1</OUTCOME>
    <PROPERTY>position = (164, 284)</PROPERTY>
</VARIABLE>
<!-- Variables -->
<VARIABLE TYPE="nature">
    <NAME>node8</NAME>
    <OUTCOME>state0</OUTCOME>
    <OUTCOME>state1</OUTCOME>
    <PROPERTY>position = (284, 270)</PROPERTY>
</VARIABLE>
<!-- Variables -->
<VARIABLE TYPE="nature">
    <NAME>node9</NAME>
    <OUTCOME>state0</OUTCOME>
    <OUTCOME>state1</OUTCOME>
    <PROPERTY>position = (404, 255)</PROPERTY>
</VARIABLE>
<!-- Variables -->
<VARIABLE TYPE="nature">
    <NAME>node10</NAME>
    <OUTCOME>state0</OUTCOME>
    <OUTCOME>state1</OUTCOME>
    <PROPERTY>position = (375, 135)</PROPERTY>
</VARIABLE>
<!-- Variables -->
<VARIABLE TYPE="nature">
    <NAME>node11</NAME>
    <OUTCOME>state0</OUTCOME>
    <OUTCOME>state1</OUTCOME>
    <PROPERTY>position = (524, 269)</PROPERTY>
</VARIABLE>
<!-- Variables -->
<VARIABLE TYPE="nature">
    <NAME>node12</NAME>
    <OUTCOME>state0</OUTCOME>
    <OUTCOME>state1</OUTCOME>
    <PROPERTY>position = (495, 149)</PROPERTY>
</VARIABLE>
<!-- Variables -->
<VARIABLE TYPE="nature">
    <NAME>node13</NAME>
    <OUTCOME>state0</OUTCOME>
    <OUTCOME>state1</OUTCOME>
    <PROPERTY>position = (255, 390)</PROPERTY>
</VARIABLE>
<!-- Variables -->
<VARIABLE TYPE="nature">
    <NAME>node14</NAME>
    <OUTCOME>state0</OUTCOME>
    <OUTCOME>state1</OUTCOME>
    <PROPERTY>position = (164, 524)</PROPERTY>
</VARIABLE>
<!-- Variables -->
<VARIABLE TYPE="nature">
    <NAME>node15</NAME>
    <OUTCOME>state0</OUTCOME>
    <OUTCOME>state1</OUTCOME>
    <PROPERTY>position = (375, 375)</PROPERTY>
</VARIABLE>
<!-- Variables -->
<VARIABLE TYPE="nature">
    <NAME>node16</NAME>
    <OUTCOME>state0</OUTCOME>
    <OUTCOME>state1</OUTCOME>
    <PROPERTY>position = (644, 284)</PROPERTY>
</VARIABLE>
<!-- Variables -->
<VARIABLE TYPE="nature">
    <NAME>node17</NAME>
    <OUTCOME>state0</OUTCOME>
    <OUTCOME>state1</OUTCOME>
    <PROPERTY>position = (615, 164)</PROPERTY>
</VARIABLE>
<!-- Variables -->
<VARIABLE TYPE="nature">
    <NAME>node18</NAME>
    <OUTCOME>state0</OUTCOME>
    <OUTCOME>state1</OUTCOME>
    <PROPERTY>position = (284, 510)</PROPERTY>
</VARIABLE>
<!-- Variables -->
<VARIABLE TYPE="nature">
    <NAME>node19</NAME>
    <OUTCOME>state0</OUTCOME>
    <OUTCOME>state1</OUTCOME>
    <PROPERTY>position = (735, 150)</PROPERTY>
</VARIABLE>
<!-- Variables -->
<VARIABLE TYPE="nature">
    <NAME>node20</NAME>
    <OUTCOME>state0</OUTCOME>
    <OUTCOME>state1</OUTCOME>
    <PROPERTY>position = (764, 270)</PROPERTY>
</VARIABLE>
<!-- Variables -->
<VARIABLE TYPE="nature">
    <NAME>node21</NAME>
    <OUTCOME>state0</OUTCOME>
    <OUTCOME>state1</OUTCOME>
    <PROPERTY>position = (15, 630)</PROPERTY>
</VARIABLE>
<!-- Variables -->
<VARIABLE TYPE="nature">
    <NAME>node22</NAME>
    <OUTCOME>state0</OUTCOME>
    <OUTCOME>state1</OUTCOME>
    <PROPERTY>position = (495, 389)</PROPERTY>
</VARIABLE>
<!-- Variables -->
<VARIABLE TYPE="nature">
    <NAME>node23</NAME>
    <OUTCOME>state0</OUTCOME>
    <OUTCOME>state1</OUTCOME>
    <PROPERTY>position = (855, 135)</PROPERTY>
</VARIABLE>
<!-- Variables -->
<VARIABLE TYPE="nature">
    <NAME>node24</NAME>
    <OUTCOME>state0</OUTCOME>
    <OUTCOME>state1</OUTCOME>
    <PROPERTY>position = (615, 404)</PROPERTY>
</VARIABLE>
<!-- Variables -->
<VARIABLE TYPE="nature">
    <NAME>node25</NAME>
    <OUTCOME>state0</OUTCOME>
    <OUTCOME>state1</OUTCOME>
    <PROPERTY>position = (135, 644)</PROPERTY>
</VARIABLE>
<!-- Variables -->
<VARIABLE TYPE="nature">
    <NAME>node26</NAME>
    <OUTCOME>state0</OUTCOME>
    <OUTCOME>state1</OUTCOME>
    <PROPERTY>position = (884, 255)</PROPERTY>
</VARIABLE>
<!-- Variables -->
<VARIABLE TYPE="nature">
    <NAME>node27</NAME>
    <OUTCOME>state0</OUTCOME>
    <OUTCOME>state1</OUTCOME>
    <PROPERTY>position = (975, 149)</PROPERTY>
</VARIABLE>
<!-- Variables -->
<VARIABLE TYPE="nature">
    <NAME>node28</NAME>
    <OUTCOME>state0</OUTCOME>
    <OUTCOME>state1</OUTCOME>
    <PROPERTY>position = (1004, 269)</PROPERTY>
</VARIABLE>
<!-- Variables -->
<VARIABLE TYPE="nature">
    <NAME>node29</NAME>
    <OUTCOME>state0</OUTCOME>
    <OUTCOME>state1</OUTCOME>
    <PROPERTY>position = (45, 30)</PROPERTY>
</VARIABLE>
<!-- Variables -->
<VARIABLE TYPE="nature">
    <NAME>node30</NAME>
    <OUTCOME>state0</OUTCOME>
    <OUTCOME>state1</OUTCOME>
    <PROPERTY>position = (1124, 284)</PROPERTY>
</VARIABLE>
<!-- Variables -->
<VARIABLE TYPE="nature">
    <NAME>node31</NAME>
    <OUTCOME>state0</OUTCOME>
    <OUTCOME>state1</OUTCOME>
    <PROPERTY>position = (735, 390)</PROPERTY>
</VARIABLE>
<!-- Variables -->
<VARIABLE TYPE="nature">
    <NAME>node32</NAME>
    <OUTCOME>state0</OUTCOME>
    <OUTCOME>state1</OUTCOME>
    <PROPERTY>position = (165, 44)</PROPERTY>
</VARIABLE>
<!-- Variables -->
<VARIABLE TYPE="nature">
    <NAME>node33</NAME>
    <OUTCOME>state0</OUTCOME>
    <OUTCOME>state1</OUTCOME>
    <PROPERTY>position = (404, 495)</PROPERTY>
</VARIABLE>
<!-- Variables -->
<VARIABLE TYPE="nature">
    <NAME>node34</NAME>
    <OUTCOME>state0</OUTCOME>
    <OUTCOME>state1</OUTCOME>
    <PROPERTY>position = (524, 509)</PROPERTY>
</VARIABLE>
<!-- Variables -->
<VARIABLE TYPE="nature">
    <NAME>node35</NAME>
    <OUTCOME>state0</OUTCOME>
    <OUTCOME>state1</OUTCOME>
    <PROPERTY>position = (644, 524)</PROPERTY>
</VARIABLE>
<!-- Variables -->
<VARIABLE TYPE="nature">
    <NAME>node36</NAME>
    <OUTCOME>state0</OUTCOME>
    <OUTCOME>state1</OUTCOME>
    <PROPERTY>position = (255, 630)</PROPERTY>
</VARIABLE>
<!-- Variables -->
<VARIABLE TYPE="nature">
    <NAME>node37</NAME>
    <OUTCOME>state0</OUTCOME>
    <OUTCOME>state1</OUTCOME>
    <PROPERTY>position = (855, 375)</PROPERTY>
</VARIABLE>
<!-- Variables -->
<VARIABLE TYPE="nature">
    <NAME>node38</NAME>
    <OUTCOME>state0</OUTCOME>
    <OUTCOME>state1</OUTCOME>
    <PROPERTY>position = (285, 30)</PROPERTY>
</VARIABLE>
<!-- Variables -->
<VARIABLE TYPE="nature">
    <NAME>node39</NAME>
    <OUTCOME>state0</OUTCOME>
    <OUTCOME>state1</OUTCOME>
    <PROPERTY>position = (975, 389)</PROPERTY>
</VARIABLE>
<!-- Probability Distributions -->
 <DEFINITION>
      <FOR>node0</FOR>
      <GIVEN>node10</GIVEN>
     <TABLE>0.020494437 0.9795056 0.12642246 0.8735775 </TABLE>
 </DEFINITION>
 <DEFINITION>
      <FOR>node1</FOR>
      <GIVEN>node8</GIVEN>
      <GIVEN>node31</GIVEN>
      <GIVEN>node24</GIVEN>
     <TABLE>0.9159408 0.08405924 0.4766082 0.5233918 0.7984806 0.20151946 0.6921596 0.30784038 0.30317092 0.696829 0.5515615 0.44843847 0.747834 0.252166 0.5538756 0.44612435 </TABLE>
 </DEFINITION>
 <DEFINITION>
      <FOR>node2</FOR>
      <GIVEN>node23</GIVEN>
     <TABLE>0.2426236 0.75737643 0.487899 0.512101 </TABLE>
 </DEFINITION>
 <DEFINITION>
      <FOR>node3</FOR>
      <GIVEN>node5</GIVEN>
      <GIVEN>node29</GIVEN>
     <TABLE>0.8818079 0.11819208 0.4102854 0.58971465 0.10609084 0.89390916 0.8239611 0.17603888 </TABLE>
 </DEFINITION>
 <DEFINITION>
      <FOR>node4</FOR>
      <GIVEN>node8</GIVEN>
      <GIVEN>node12</GIVEN>
      <GIVEN>node33</GIVEN>
     <TABLE>0.73777026 0.2622298 0.9309293 0.069070674 0.92982423 0.070175774 0.9434021 0.05659785 0.9265561 0.07344386 0.29439193 0.7056081 0.7640969 0.23590305 0.3279458 0.6720542 </TABLE>
 </DEFINITION>
 <DEFINITION>
      <FOR>node5</FOR>
      <GIVEN>node10</GIVEN>
     <TABLE>0.6649699 0.33503008 0.03074038 0.9692596 </TABLE>
 </DEFINITION>
 <DEFINITION>
      <FOR>node6</FOR>
      <GIVEN>node23</GIVEN>
      <GIVEN>node39</GIVEN>
      <GIVEN>node15</GIVEN>
      <GIVEN>node27</GIVEN>
     <TABLE>0.2020551 0.7979449 0.4991387 0.5008613 0.3889112 0.6110888 0.1627452 0.8372548 0.871174 0.12882607 0.45828503 0.54171497 0.08662612 0.91337395 0.55260783 0.44739223 0.13650644 0.86349356 0.80754316 0.19245689 0.59944063 0.40055928 0.072392516 0.92760754 0.21155673 0.78844327 0.6592381 0.34076187 0.27786434 0.72213566 0.43133044 0.56866956 </TABLE>
 </DEFINITION>
 <DEFINITION>
      <FOR>node7</FOR>
      <GIVEN>node16</GIVEN>
      <GIVEN>node11</GIVEN>
     <TABLE>0.57396424 0.42603573 0.34636062 0.6536393 0.8369298 0.16307019 0.3148725 0.6851275 </TABLE>
 </DEFINITION>
 <DEFINITION>
      <FOR>node8</FOR>
      <GIVEN>node32</GIVEN>
      <GIVEN>node17</GIVEN>
     <TABLE>0.41366976 0.5863303 0.25926507 0.740735 0.065253615 0.9347464 0.55584043 0.4441596 </TABLE>
 </DEFINITION>
 <DEFINITION>
      <FOR>node9</FOR>
      <GIVEN>node28</GIVEN>
      <GIVEN>node11</GIVEN>
     <TABLE>0.109262325 0.89073765 0.13961117 0.8603889 0.6134857 0.3865143 0.7621334 0.23786658 </TABLE>
 </DEFINITION>
 <DEFINITION>
      <FOR>node10</FOR>
      <GIVEN>node19</GIVEN>
     <TABLE>0.15534407 0.84465593 0.4083474 0.59165263 </TABLE>
 </DEFINITION>
 <DEFINITION>
      <FOR>node11</FOR>
      <GIVEN>node32</GIVEN>
      <GIVEN>node23</GIVEN>
     <TABLE>0.12865925 0.87134075 0.9569287 0.043071385 0.16252309 0.8374769 0.9220151 0.077984944 </TABLE>
 </DEFINITION>
 <DEFINITION>
      <FOR>node12</FOR>
      <GIVEN>node5</GIVEN>
     <TABLE>0.47234416 0.52765584 0.77863955 0.22136045 </TABLE>
 </DEFINITION>
 <DEFINITION>
      <FOR>node13</FOR>
      <GIVEN>node7</GIVEN>
      <GIVEN>node2</GIVEN>
      <GIVEN>node23</GIVEN>
     <TABLE>0.18016827 0.81983167 0.7977728 0.20222722 0.16501462 0.8349853 0.30732316 0.6926768 0.6476442 0.35235575 0.21490794 0.78509206 0.5183949 0.48160508 0.30116683 0.6988332 </TABLE>
 </DEFINITION>
 <DEFINITION>
      <FOR>node14</FOR>
      <GIVEN>node3</GIVEN>
      <GIVEN>node13</GIVEN>
      <GIVEN>node35</GIVEN>
      <GIVEN>node0</GIVEN>
     <TABLE>0.34800538 0.65199465 0.8028366 0.19716336 0.84127074 0.15872924 0.38752767 0.6124723 0.28764197 0.71235806 0.8369667 0.16303328 0.94009274 0.059907235 0.8114583 0.18854174 0.13548504 0.864515 0.49843702 0.50156295 0.51619005 0.4838099 0.41338766 0.5866123 0.6311282 0.36887178 0.18329594 0.81670403 0.8935606 0.10643944 0.17889604 0.821104 </TABLE>
 </DEFINITION>
 <DEFINITION>
      <FOR>node15</FOR>
      <GIVEN>node37</GIVEN>
      <GIVEN>node32</GIVEN>
      <GIVEN>node12</GIVEN>
     <TABLE>0.45054144 0.5494586 0.6733683 0.32663164 0.37639153 0.62360847 0.9373975 0.062602565 0.6627311 0.33726895 0.9056818 0.09431826 0.3354352 0.6645648 0.6848161 0.31518385 </TABLE>
 </DEFINITION>
 <DEFINITION>
      <FOR>node16</FOR>
      <GIVEN>node12</GIVEN>
      <GIVEN>node27</GIVEN>
     <TABLE>0.08072709 0.91927296 0.5488331 0.4511669 0.41641527 0.5835847 0.63904876 0.36095122 </TABLE>
 </DEFINITION>
 <DEFINITION>
      <FOR>node17</FOR>
      <GIVEN>node20</GIVEN>
     <TABLE>0.9542018 0.045798134 0.92796963 0.072030365 </TABLE>
 </DEFINITION>
 <DEFINITION>
      <FOR>node18</FOR>
      <GIVEN>node7</GIVEN>
      <GIVEN>node19</GIVEN>
      <GIVEN>node17</GIVEN>
      <GIVEN>node3</GIVEN>
     <TABLE>0.46682867 0.5331713 0.12731005 0.8726899 0.5297436 0.4702564 0.6134163 0.38658366 0.4827315 0.5172685 0.040248107 0.9597519 0.29824325 0.7017567 0.8374615 0.16253856 0.5822085 0.41779152 0.7273199 0.27268016 0.4866361 0.51336396 0.8478182 0.15218182 0.08294383 0.9170562 0.48941436 0.51058567 0.15360785 0.84639215 0.49581838 0.5041817 </TABLE>
 </DEFINITION>
 <DEFINITION>
      <FOR>node19</FOR>
      <GIVEN>node29</GIVEN>
     <TABLE>0.07035468 0.9296453 0.8267394 0.17326061 </TABLE>
 </DEFINITION>
 <DEFINITION>
      <FOR>node20</FOR>
      <GIVEN>node12</GIVEN>
      <GIVEN>node38</GIVEN>
     <TABLE>0.029087307 0.9709127 0.41083783 0.5891622 0.15042767 0.84957236 0.78402555 0.21597444 </TABLE>
 </DEFINITION>
 <DEFINITION>
      <FOR>node21</FOR>
      <GIVEN>node15</GIVEN>
      <GIVEN>node39</GIVEN>
      <GIVEN>node0</GIVEN>
      <GIVEN>node9</GIVEN>
      <GIVEN>node29</GIVEN>
     <TABLE>0.37168807 0.62831193 0.05691564 0.94308436 0.21128507 0.78871495 0.61722386 0.38277608 0.46396035 0.5360397 0.09883663 0.90116334 0.0661658 0.9338342 0.12523662 0.8747633 0.5659929 0.43400717 0.28974187 0.7102581 0.26418552 0.73581445 0.83171254 0.16828749 0.8867191 0.11328088 0.50157 0.49842998 0.25913253 0.74086744 0.03187732 0.9681227 0.2248796 0.77512044 0.4618717 0.5381283 0.9333738 0.066626176 0.7954086 0.20459136 0.042391106 0.95760894 0.67898935 0.32101065 0.907249 0.09275098 0.34486654 0.6551334 0.7799104 0.22008964 0.7999923 0.20000768 0.7815844 0.21841562 0.6793649 0.32063508 0.26314333 0.73685664 0.89752924 0.10247076 0.72812307 0.27187693 0.32330006 0.67669994 </TABLE>
 </DEFINITION>
 <DEFINITION>
      <FOR>node22</FOR>
      <GIVEN>node5</GIVEN>
      <GIVEN>node30</GIVEN>
      <GIVEN>node4</GIVEN>
     <TABLE>0.07364877 0.9263512 0.17435172 0.82564825 0.44871905 0.5512809 0.50715846 0.4928415 0.39988565 0.6001144 0.10888681 0.8911132 0.77309734 0.2269027 0.23994298 0.760057 </TABLE>
 </DEFINITION>
 <DEFINITION>
      <FOR>node23</FOR>
      <GIVEN>node26</GIVEN>
     <TABLE>0.27338263 0.72661734 0.3833509 0.6166491 </TABLE>
 </DEFINITION>
 <DEFINITION>
      <FOR>node24</FOR>
      <GIVEN>node0</GIVEN>
      <GIVEN>node32</GIVEN>
      <GIVEN>node38</GIVEN>
     <TABLE>0.118639655 0.88136035 0.6442834 0.35571665 0.20595975 0.79404026 0.3612944 0.6387056 0.5678532 0.43214676 0.64180887 0.35819116 0.22019328 0.77980673 0.57913077 0.4208692 </TABLE>
 </DEFINITION>
 <DEFINITION>
      <FOR>node25</FOR>
      <GIVEN>node9</GIVEN>
      <GIVEN>node4</GIVEN>
      <GIVEN>node20</GIVEN>
      <GIVEN>node7</GIVEN>
      <GIVEN>node2</GIVEN>
     <TABLE>0.86529946 0.13470054 0.81254333 0.18745661 0.19577311 0.8042269 0.6190461 0.38095388 0.37294102 0.627059 0.52775544 0.47224453 0.7540928 0.24590722 0.48821017 0.5117898 0.48626295 0.5137371 0.8202196 0.1797804 0.22112745 0.7788726 0.64075685 0.3592432 0.15152617 0.84847385 0.042499814 0.95750016 0.6259192 0.3740808 0.46220183 0.53779817 0.5671378 0.4328622 0.22028361 0.77971643 0.40368322 0.5963168 0.98329604 0.016703926 0.8264202 0.17357984 0.5982368 0.4017632 0.6554307 0.34456936 0.112091444 0.8879085 0.7742652 0.22573471 0.30208555 0.6979144 0.77644384 0.22355619 0.5120025 0.48799747 0.14168914 0.85831094 0.85133964 0.14866033 0.92398006 0.076019965 0.0025016537 0.99749833 </TABLE>
 </DEFINITION>
 <DEFINITION>
      <FOR>node26</FOR>
      <GIVEN>node0</GIVEN>
      <GIVEN>node38</GIVEN>
     <TABLE>0.67503947 0.32496056 0.8192787 0.18072131 0.8938125 0.106187485 0.2933539 0.70664614 </TABLE>
 </DEFINITION>
 <DEFINITION>
      <FOR>node27</FOR>
      <GIVEN>node26</GIVEN>
     <TABLE>0.31351244 0.68648756 0.7403488 0.25965112 </TABLE>
 </DEFINITION>
 <DEFINITION>
      <FOR>node28</FOR>
      <GIVEN>node24</GIVEN>
      <GIVEN>node30</GIVEN>
     <TABLE>0.85386187 0.14613812 0.7719401 0.22805986 0.5297836 0.47021642 0.74372077 0.2562792 </TABLE>
 </DEFINITION>
 <DEFINITION>
      <FOR>node29</FOR>
     <TABLE>0.146388 0.853612 </TABLE>
 </DEFINITION>
 <DEFINITION>
      <FOR>node30</FOR>
      <GIVEN>node18</GIVEN>
      <GIVEN>node2</GIVEN>
     <TABLE>0.6078699 0.39213005 0.8536651 0.14633487 0.9541264 0.045873627 0.8022798 0.19772018 </TABLE>
 </DEFINITION>
 <DEFINITION>
      <FOR>node31</FOR>
      <GIVEN>node27</GIVEN>
      <GIVEN>node16</GIVEN>
      <GIVEN>node17</GIVEN>
     <TABLE>0.7968601 0.20313993 0.6217689 0.37823114 0.7409632 0.25903678 0.080744095 0.9192559 0.48582527 0.51417476 0.102380656 0.8976193 0.86955255 0.13044746 0.61016184 0.38983813 </TABLE>
 </DEFINITION>
 <DEFINITION>
      <FOR>node32</FOR>
     <TABLE>0.011701044 0.988299 </TABLE>
 </DEFINITION>
 <DEFINITION>
      <FOR>node33</FOR>
      <GIVEN>node16</GIVEN>
      <GIVEN>node1</GIVEN>
      <GIVEN>node9</GIVEN>
      <GIVEN>node29</GIVEN>
     <TABLE>0.40865344 0.59134656 0.46144754 0.53855246 0.019310964 0.98068905 0.010946241 0.9890538 0.67596394 0.32403606 0.18920772 0.8107923 0.9960656 0.003934365 0.50999624 0.4900038 0.27338886 0.72661114 0.8972026 0.1027974 0.29581234 0.7041877 0.6920029 0.3079971 0.716826 0.28317395 0.024107607 0.97589236 0.72425395 0.27574602 0.83385104 0.16614892 </TABLE>
 </DEFINITION>
 <DEFINITION>
      <FOR>node34</FOR>
      <GIVEN>node19</GIVEN>
      <GIVEN>node6</GIVEN>
      <GIVEN>node3</GIVEN>
      <GIVEN>node14</GIVEN>
     <TABLE>0.67364246 0.32635748 0.5441401 0.45585996 0.4757828 0.52421725 0.20018862 0.7998114 0.94591236 0.054087687 0.05397074 0.9460293 0.2633393 0.7366607 0.1779799 0.8220201 0.90098464 0.09901534 0.43210942 0.5678905 0.20005439 0.7999456 0.46427965 0.5357203 0.76492614 0.23507391 0.5879819 0.41201812 0.49387115 0.50612885 0.9264455 0.073554456 </TABLE>
 </DEFINITION>
 <DEFINITION>
      <FOR>node35</FOR>
      <GIVEN>node17</GIVEN>
      <GIVEN>node31</GIVEN>
      <GIVEN>node22</GIVEN>
      <GIVEN>node10</GIVEN>
     <TABLE>0.6667879 0.33321208 0.94034773 0.059652254 0.24323674 0.7567633 0.989188 0.010812005 0.1593116 0.8406884 0.6262489 0.37375116 0.16329962 0.8367004 0.017796995 0.98220295 0.2909128 0.7090872 0.5807256 0.41927442 0.92458344 0.07541654 0.3543291 0.6456709 0.3989274 0.60107255 0.8292213 0.1707787 0.16368335 0.8363166 0.23238869 0.7676113 </TABLE>
 </DEFINITION>
 <DEFINITION>
      <FOR>node36</FOR>
      <GIVEN>node8</GIVEN>
      <GIVEN>node32</GIVEN>
      <GIVEN>node34</GIVEN>
      <GIVEN>node1</GIVEN>
      <GIVEN>node30</GIVEN>
     <TABLE>0.8333725 0.16662747 0.18548496 0.814515 0.9635764 0.0364236 0.9649882 0.035011835 0.84654236 0.15345769 0.9871195 0.012880473 0.24129887 0.75870115 0.6869552 0.3130448 0.5794935 0.42050654 0.39246428 0.6075357 0.38733163 0.6126684 0.11896104 0.88103896 0.6288979 0.37110206 0.5795783 0.42042166 0.39930075 0.6006992 0.82639265 0.17360733 0.7471798 0.25282016 0.8767198 0.12328029 0.10997631 0.89002365 0.46609554 0.53390443 0.680762 0.31923795 0.9551373 0.04486269 0.23495102 0.765049 0.20062837 0.79937166 0.6679051 0.33209488 0.7331168 0.2668832 0.75208867 0.24791135 0.90908235 0.090917654 0.23708884 0.7629112 0.965554 0.034446027 0.05387395 0.94612604 0.46242696 0.53757304 </TABLE>
 </DEFINITION>
 <DEFINITION>
      <FOR>node37</FOR>
      <GIVEN>node29</GIVEN>
      <GIVEN>node11</GIVEN>
      <GIVEN>node27</GIVEN>
     <TABLE>0.95011383 0.049886167 0.5156115 0.4843884 0.5218448 0.4781552 0.60725945 0.39274055 0.76174104 0.23825899 0.6217639 0.37823611 0.045067742 0.9549322 0.313372 0.68662804 </TABLE>
 </DEFINITION>
 <DEFINITION>
      <FOR>node38</FOR>
     <TABLE>0.27123353 0.72876644 </TABLE>
 </DEFINITION>
 <DEFINITION>
      <FOR>node39</FOR>
      <GIVEN>node22</GIVEN>
      <GIVEN>node10</GIVEN>
      <GIVEN>node38</GIVEN>
     <TABLE>0.057647977 0.942352 0.100722656 0.8992773 0.13771048 0.86228955 0.69188297 0.30811703 0.6880377 0.31196234 0.44188827 0.5581117 0.74690753 0.25309247 0.029223071 0.9707769 </TABLE>
 </DEFINITION>
</NETWORK>
</BIF>
