<?xml version="1.0" encoding="US-ASCII"?>


<!--
	Bayesian network in XMLBIF v0.3 (BayesNet Interchange Format)
	Produced by JavaBayes (http://www.cs.cmu.edu/~javabayes/
	Number of nodes:20
	Output created Mon Oct 09 18:59:00 EDT 2006
-->



<BIF VERSION="0.3">
<NETWORK>
<NAME>example9</NAME>
<!-- Variables -->
<VARIABLE TYPE="nature">
    <NAME>node0</NAME>
    <OUTCOME>state0</OUTCOME>
    <OUTCOME>state1</OUTCOME>
    <OUTCOME>state2</OUTCOME>
    <PROPERTY>position = (44, 270)</PROPERTY>
</VARIABLE>
<!-- Variables -->
<VARIABLE TYPE="nature">
    <NAME>node1</NAME>
    <OUTCOME>state0</OUTCOME>
    <OUTCOME>state1</OUTCOME>
    <PROPERTY>position = (15, 150)</PROPERTY>
</VARIABLE>
<!-- Variables -->
<VARIABLE TYPE="nature">
    <NAME>node2</NAME>
    <OUTCOME>state0</OUTCOME>
    <OUTCOME>state1</OUTCOME>
    <OUTCOME>state2</OUTCOME>
    <OUTCOME>state3</OUTCOME>
    <PROPERTY>position = (135, 164)</PROPERTY>
</VARIABLE>
<!-- Variables -->
<VARIABLE TYPE="nature">
    <NAME>node3</NAME>
    <OUTCOME>state0</OUTCOME>
    <OUTCOME>state1</OUTCOME>
    <PROPERTY>position = (164, 284)</PROPERTY>
</VARIABLE>
<!-- Variables -->
<VARIABLE TYPE="nature">
    <NAME>node4</NAME>
    <OUTCOME>state0</OUTCOME>
    <OUTCOME>state1</OUTCOME>
    <PROPERTY>position = (15, 390)</PROPERTY>
</VARIABLE>
<!-- Variables -->
<VARIABLE TYPE="nature">
    <NAME>node5</NAME>
    <OUTCOME>state0</OUTCOME>
    <OUTCOME>state1</OUTCOME>
    <PROPERTY>position = (45, 30)</PROPERTY>
</VARIABLE>
<!-- Variables -->
<VARIABLE TYPE="nature">
    <NAME>node6</NAME>
    <OUTCOME>state0</OUTCOME>
    <OUTCOME>state1</OUTCOME>
    <PROPERTY>position = (284, 270)</PROPERTY>
</VARIABLE>
<!-- Variables -->
<VARIABLE TYPE="nature">
    <NAME>node7</NAME>
    <OUTCOME>state0</OUTCOME>
    <OUTCOME>state1</OUTCOME>
    <OUTCOME>state2</OUTCOME>
    <OUTCOME>state3</OUTCOME>
    <OUTCOME>state4</OUTCOME>
    <PROPERTY>position = (404, 255)</PROPERTY>
</VARIABLE>
<!-- Variables -->
<VARIABLE TYPE="nature">
    <NAME>node8</NAME>
    <OUTCOME>state0</OUTCOME>
    <OUTCOME>state1</OUTCOME>
    <OUTCOME>state2</OUTCOME>
    <PROPERTY>position = (165, 44)</PROPERTY>
</VARIABLE>
<!-- Variables -->
<VARIABLE TYPE="nature">
    <NAME>node9</NAME>
    <OUTCOME>state0</OUTCOME>
    <OUTCOME>state1</OUTCOME>
    <OUTCOME>state2</OUTCOME>
    <OUTCOME>state3</OUTCOME>
    <OUTCOME>state4</OUTCOME>
    <PROPERTY>position = (255, 150)</PROPERTY>
</VARIABLE>
<!-- Variables -->
<VARIABLE TYPE="nature">
    <NAME>node10</NAME>
    <OUTCOME>state0</OUTCOME>
    <OUTCOME>state1</OUTCOME>
    <OUTCOME>state2</OUTCOME>
    <PROPERTY>position = (375, 135)</PROPERTY>
</VARIABLE>
<!-- Variables -->
<VARIABLE TYPE="nature">
    <NAME>node11</NAME>
    <OUTCOME>state0</OUTCOME>
    <OUTCOME>state1</OUTCOME>
    <OUTCOME>state2</OUTCOME>
    <OUTCOME>state3</OUTCOME>
    <PROPERTY>position = (524, 269)</PROPERTY>
</VARIABLE>
<!-- Variables -->
<VARIABLE TYPE="nature">
    <NAME>node12</NAME>
    <OUTCOME>state0</OUTCOME>
    <OUTCOME>state1</OUTCOME>
    <OUTCOME>state2</OUTCOME>
    <OUTCOME>state3</OUTCOME>
    <OUTCOME>state4</OUTCOME>
    <PROPERTY>position = (644, 284)</PROPERTY>
</VARIABLE>
<!-- Variables -->
<VARIABLE TYPE="nature">
    <NAME>node13</NAME>
    <OUTCOME>state0</OUTCOME>
    <OUTCOME>state1</OUTCOME>
    <PROPERTY>position = (285, 30)</PROPERTY>
</VARIABLE>
<!-- Variables -->
<VARIABLE TYPE="nature">
    <NAME>node14</NAME>
    <OUTCOME>state0</OUTCOME>
    <OUTCOME>state1</OUTCOME>
    <OUTCOME>state2</OUTCOME>
    <OUTCOME>state3</OUTCOME>
    <OUTCOME>state4</OUTCOME>
    <PROPERTY>position = (495, 149)</PROPERTY>
</VARIABLE>
<!-- Variables -->
<VARIABLE TYPE="nature">
    <NAME>node15</NAME>
    <OUTCOME>state0</OUTCOME>
    <OUTCOME>state1</OUTCOME>
    <OUTCOME>state2</OUTCOME>
    <OUTCOME>state3</OUTCOME>
    <OUTCOME>state4</OUTCOME>
    <PROPERTY>position = (615, 164)</PROPERTY>
</VARIABLE>
<!-- Variables -->
<VARIABLE TYPE="nature">
    <NAME>node16</NAME>
    <OUTCOME>state0</OUTCOME>
    <OUTCOME>state1</OUTCOME>
    <PROPERTY>position = (735, 150)</PROPERTY>
</VARIABLE>
<!-- Variables -->
<VARIABLE TYPE="nature">
    <NAME>node17</NAME>
    <OUTCOME>state0</OUTCOME>
    <OUTCOME>state1</OUTCOME>
    <PROPERTY>position = (855, 135)</PROPERTY>
</VARIABLE>
<!-- Variables -->
<VARIABLE TYPE="nature">
    <NAME>node18</NAME>
    <OUTCOME>state0</OUTCOME>
    <OUTCOME>state1</OUTCOME>
    <OUTCOME>state2</OUTCOME>
    <OUTCOME>state3</OUTCOME>
    <OUTCOME>state4</OUTCOME>
    <PROPERTY>position = (975, 149)</PROPERTY>
</VARIABLE>
<!-- Variables -->
<VARIABLE TYPE="nature">
    <NAME>node19</NAME>
    <OUTCOME>state0</OUTCOME>
    <OUTCOME>state1</OUTCOME>
    <OUTCOME>state2</OUTCOME>
    <OUTCOME>state3</OUTCOME>
    <PROPERTY>position = (405, 15)</PROPERTY>
</VARIABLE>
<!-- Probability Distributions -->
 <DEFINITION>
      <FOR>node0</FOR>
      <GIVEN>node5</GIVEN>
      <GIVEN>node18</GIVEN>
     <TABLE>0.16347598 0.7397341 0.096789986 0.68890184 0.12609246 0.18500575 0.12409718 0.7824625 0.093440354 0.6064366 0.22200187 0.17156146 0.5939113 0.13730256 0.26878613 0.23263073 0.21056394 0.5568053 0.42525205 0.53943175 0.035316214 0.23458616 0.09805338 0.6673605 0.04404172 0.65192896 0.30402932 0.4854138 0.05237679 0.46220943 </TABLE>
 </DEFINITION>
 <DEFINITION>
      <FOR>node1</FOR>
      <GIVEN>node10</GIVEN>
     <TABLE>0.95651776 0.0434823 0.5460391 0.45396087 0.0944845 0.9055155 </TABLE>
 </DEFINITION>
 <DEFINITION>
      <FOR>node2</FOR>
      <GIVEN>node17</GIVEN>
     <TABLE>0.18913466 0.47464642 0.053630155 0.28258878 0.22605506 0.13335736 0.5138864 0.1267012 </TABLE>
 </DEFINITION>
 <DEFINITION>
      <FOR>node3</FOR>
      <GIVEN>node14</GIVEN>
      <GIVEN>node16</GIVEN>
     <TABLE>0.8452265 0.15477343 0.9068868 0.09311318 0.5350942 0.46490583 0.39335787 0.6066422 0.39735648 0.60264355 0.55917776 0.44082224 0.6106948 0.38930517 0.034248836 0.9657512 0.4114196 0.5885804 0.83991146 0.16008852 </TABLE>
 </DEFINITION>
 <DEFINITION>
      <FOR>node4</FOR>
      <GIVEN>node7</GIVEN>
      <GIVEN>node17</GIVEN>
      <GIVEN>node2</GIVEN>
     <TABLE>0.1434527 0.85654736 0.1466486 0.8533514 0.98226374 0.017736195 0.9667651 0.033234943 0.53957355 0.46042642 0.89783794 0.10216203 0.71242034 0.28757966 0.28683206 0.71316797 0.9122347 0.087765306 0.63232917 0.3676708 0.8543725 0.14562744 0.307278 0.692722 0.9955098 0.0044901804 0.6614782 0.33852175 0.7523893 0.24761069 0.8601426 0.13985737 0.34742266 0.65257734 0.6506293 0.34937063 0.6697981 0.33020186 0.089244425 0.9107556 0.13686328 0.86313665 0.36880887 0.63119113 0.6570895 0.34291053 0.7315546 0.26844537 0.7816494 0.2183506 0.88496965 0.11503037 0.6174704 0.3825296 0.3897322 0.61026776 0.9975808 0.002419187 0.6836876 0.31631237 0.5326335 0.46736652 0.65370274 0.34629723 0.4298503 0.5701497 0.9355376 0.06446243 0.133517 0.866483 0.97734916 0.022650817 0.4288242 0.5711758 0.2157144 0.7842856 0.6840928 0.31590718 0.88194174 0.11805825 </TABLE>
 </DEFINITION>
 <DEFINITION>
      <FOR>node5</FOR>
     <TABLE>0.35954896 0.6404511 </TABLE>
 </DEFINITION>
 <DEFINITION>
      <FOR>node6</FOR>
      <GIVEN>node3</GIVEN>
      <GIVEN>node0</GIVEN>
     <TABLE>0.7197736 0.28022647 0.49351767 0.50648236 0.12820333 0.8717966 0.53228235 0.46771768 0.34630764 0.6536923 0.29499888 0.7050011 </TABLE>
 </DEFINITION>
 <DEFINITION>
      <FOR>node7</FOR>
      <GIVEN>node2</GIVEN>
      <GIVEN>node15</GIVEN>
     <TABLE>0.17704268 0.34260827 0.045243174 0.42052034 0.014585436 0.1968858 0.042660628 0.1503368 0.3742892 0.2358275 0.053283893 0.57825536 0.12026867 0.10942559 0.13876651 0.12849 0.10269896 0.32297796 0.40342823 0.042404834 0.054244176 0.31448814 0.42291272 0.20603281 0.0023221648 0.20018594 0.18457736 0.06859103 0.13683993 0.40980572 0.30123165 0.4833324 0.019105 0.06706807 0.12926285 0.18245888 0.47334173 0.10199254 0.18793498 0.05427194 0.21296255 0.025083719 0.18024354 0.19819687 0.38351342 0.21390297 0.005513133 0.34101754 0.2760358 0.16353053 0.025589755 0.19331847 0.050878968 0.67424506 0.055967774 0.203913 0.16040558 0.10489486 0.16601883 0.3647677 0.082845606 0.15924327 0.28084117 0.014835703 0.46223423 0.20760743 0.14100887 0.32629138 0.08984968 0.23524258 0.10618186 0.042481665 0.14576511 0.17602302 0.5295484 0.0070558405 0.5145356 0.08188165 0.39224023 0.004286766 0.5132863 0.009656695 0.097375825 0.19119784 0.18848336 0.07182857 0.04180809 0.28463942 0.5688948 0.03282912 0.60526097 0.0011420407 0.058213662 0.14210851 0.19327487 0.06637123 0.3873113 0.16197267 0.18108986 0.20325497 </TABLE>
 </DEFINITION>
 <DEFINITION>
      <FOR>node8</FOR>
     <TABLE>0.18871592 0.76276964 0.04851446 </TABLE>
 </DEFINITION>
 <DEFINITION>
      <FOR>node9</FOR>
      <GIVEN>node14</GIVEN>
     <TABLE>0.15979977 0.19243488 0.02220577 0.04744029 0.5781193 0.41422117 0.23623542 0.2447958 0.082511365 0.02223631 0.20900483 0.46154526 0.26084372 0.015447877 0.053158335 0.13120586 0.51382565 0.01299689 0.30123302 0.04073859 0.37258136 0.13513905 0.060148507 0.112338975 0.31979212 </TABLE>
 </DEFINITION>
 <DEFINITION>
      <FOR>node10</FOR>
      <GIVEN>node5</GIVEN>
     <TABLE>0.26498345 0.26404637 0.47097018 0.41120562 0.19899738 0.38979706 </TABLE>
 </DEFINITION>
 <DEFINITION>
      <FOR>node11</FOR>
      <GIVEN>node8</GIVEN>
      <GIVEN>node16</GIVEN>
     <TABLE>0.28626418 0.025909033 0.0061137667 0.68171304 0.324386 0.18536223 0.14844505 0.34180665 0.5569502 0.14107814 0.04404747 0.25792417 0.40048325 0.5375626 0.04842215 0.013531957 0.3031383 0.23168957 0.04517681 0.41999528 0.16959278 0.25375307 0.08395415 0.49270004 </TABLE>
 </DEFINITION>
 <DEFINITION>
      <FOR>node12</FOR>
      <GIVEN>node19</GIVEN>
      <GIVEN>node15</GIVEN>
     <TABLE>0.022689333 0.68040663 0.0073972954 0.055596605 0.2339101 0.3679779 0.03537093 0.107353285 0.4040627 0.085235186 0.15126143 0.3183162 0.0062849224 0.41941944 0.104717985 0.19326757 0.018260144 0.05230361 0.18864092 0.5475278 0.0430248 0.39462107 0.34628102 0.0024605372 0.21361248 0.31804556 0.0806506 0.26664895 0.26775885 0.06689607 0.6371725 0.15794209 0.023801293 0.09561289 0.08547122 0.14070258 0.105734035 0.12923783 0.02236503 0.6019605 0.30100158 0.32849076 0.12361483 0.18262166 0.064271145 0.114265546 0.5075062 0.17216143 0.041583702 0.1644831 0.026471928 0.38279593 0.15047657 0.1673285 0.27292714 0.39060026 0.065271184 0.37620366 0.08850594 0.07941903 0.048589863 0.296385 0.07110293 0.36625895 0.21766323 0.06905804 0.1510994 0.7259609 0.050692596 0.0031891475 0.061542206 0.049118526 0.049607284 0.2672767 0.5724553 0.054815978 0.3636549 0.0048458176 0.10497182 0.4717115 0.15331668 0.18387145 0.2225984 0.10077232 0.33944115 0.044389915 0.26750433 0.3659716 0.2883074 0.033826753 0.1772513 0.51688355 0.03719712 0.16591704 0.102751054 0.2699719 0.29127783 0.18597242 0.033336062 0.21944179 </TABLE>
 </DEFINITION>
 <DEFINITION>
      <FOR>node13</FOR>
     <TABLE>0.71360886 0.28639114 </TABLE>
 </DEFINITION>
 <DEFINITION>
      <FOR>node14</FOR>
      <GIVEN>node8</GIVEN>
     <TABLE>0.34004018 0.1380719 0.07680111 0.32931206 0.1157748 0.20055573 0.051629208 0.40026486 0.12734511 0.22020516 0.039223302 0.08237361 0.19240203 0.34427235 0.34172875 </TABLE>
 </DEFINITION>
 <DEFINITION>
      <FOR>node15</FOR>
      <GIVEN>node11</GIVEN>
     <TABLE>0.15865842 0.33444044 0.13931331 0.010607404 0.35698044 0.08647093 0.13998275 0.06477878 0.23530036 0.47346717 0.123202935 0.019790635 0.13629164 0.43621927 0.2844955 0.35964665 0.36784288 0.026018506 0.07291548 0.17357646 </TABLE>
 </DEFINITION>
 <DEFINITION>
      <FOR>node16</FOR>
      <GIVEN>node5</GIVEN>
     <TABLE>0.40168253 0.59831744 0.10606544 0.89393455 </TABLE>
 </DEFINITION>
 <DEFINITION>
      <FOR>node17</FOR>
      <GIVEN>node13</GIVEN>
     <TABLE>0.62862617 0.37137383 0.4103405 0.5896596 </TABLE>
 </DEFINITION>
 <DEFINITION>
      <FOR>node18</FOR>
      <GIVEN>node13</GIVEN>
     <TABLE>0.3163049 0.07782528 0.28555888 0.057449136 0.26286188 0.1428959 0.13526045 0.5179994 0.11076656 0.093077675 </TABLE>
 </DEFINITION>
 <DEFINITION>
      <FOR>node19</FOR>
     <TABLE>0.34632346 0.2732421 0.2810085 0.09942592 </TABLE>
 </DEFINITION>
</NETWORK>
</BIF>
