<?xml version="1.0" encoding="US-ASCII"?>


<!--
	Bayesian network in XMLBIF v0.3 (BayesNet Interchange Format)
	Produced by JavaBayes (http://www.cs.cmu.edu/~javabayes/
	Number of nodes:20
	Output created Mon Oct 09 18:59:00 EDT 2006
-->



<BIF VERSION="0.3">
<NETWORK>
<NAME>example8</NAME>
<!-- Variables -->
<VARIABLE TYPE="nature">
    <NAME>node0</NAME>
    <OUTCOME>state0</OUTCOME>
    <OUTCOME>state1</OUTCOME>
    <PROPERTY>position = (15, 390)</PROPERTY>
</VARIABLE>
<!-- Variables -->
<VARIABLE TYPE="nature">
    <NAME>node1</NAME>
    <OUTCOME>state0</OUTCOME>
    <OUTCOME>state1</OUTCOME>
    <OUTCOME>state2</OUTCOME>
    <PROPERTY>position = (44, 270)</PROPERTY>
</VARIABLE>
<!-- Variables -->
<VARIABLE TYPE="nature">
    <NAME>node2</NAME>
    <OUTCOME>state0</OUTCOME>
    <OUTCOME>state1</OUTCOME>
    <OUTCOME>state2</OUTCOME>
    <PROPERTY>position = (164, 284)</PROPERTY>
</VARIABLE>
<!-- Variables -->
<VARIABLE TYPE="nature">
    <NAME>node3</NAME>
    <OUTCOME>state0</OUTCOME>
    <OUTCOME>state1</OUTCOME>
    <PROPERTY>position = (45, 30)</PROPERTY>
</VARIABLE>
<!-- Variables -->
<VARIABLE TYPE="nature">
    <NAME>node4</NAME>
    <OUTCOME>state0</OUTCOME>
    <OUTCOME>state1</OUTCOME>
    <OUTCOME>state2</OUTCOME>
    <OUTCOME>state3</OUTCOME>
    <PROPERTY>position = (15, 150)</PROPERTY>
</VARIABLE>
<!-- Variables -->
<VARIABLE TYPE="nature">
    <NAME>node5</NAME>
    <OUTCOME>state0</OUTCOME>
    <OUTCOME>state1</OUTCOME>
    <OUTCOME>state2</OUTCOME>
    <OUTCOME>state3</OUTCOME>
    <PROPERTY>position = (165, 44)</PROPERTY>
</VARIABLE>
<!-- Variables -->
<VARIABLE TYPE="nature">
    <NAME>node6</NAME>
    <OUTCOME>state0</OUTCOME>
    <OUTCOME>state1</OUTCOME>
    <OUTCOME>state2</OUTCOME>
    <PROPERTY>position = (135, 404)</PROPERTY>
</VARIABLE>
<!-- Variables -->
<VARIABLE TYPE="nature">
    <NAME>node7</NAME>
    <OUTCOME>state0</OUTCOME>
    <OUTCOME>state1</OUTCOME>
    <OUTCOME>state2</OUTCOME>
    <PROPERTY>position = (135, 164)</PROPERTY>
</VARIABLE>
<!-- Variables -->
<VARIABLE TYPE="nature">
    <NAME>node8</NAME>
    <OUTCOME>state0</OUTCOME>
    <OUTCOME>state1</OUTCOME>
    <OUTCOME>state2</OUTCOME>
    <OUTCOME>state3</OUTCOME>
    <OUTCOME>state4</OUTCOME>
    <PROPERTY>position = (255, 390)</PROPERTY>
</VARIABLE>
<!-- Variables -->
<VARIABLE TYPE="nature">
    <NAME>node9</NAME>
    <OUTCOME>state0</OUTCOME>
    <OUTCOME>state1</OUTCOME>
    <OUTCOME>state2</OUTCOME>
    <OUTCOME>state3</OUTCOME>
    <PROPERTY>position = (255, 150)</PROPERTY>
</VARIABLE>
<!-- Variables -->
<VARIABLE TYPE="nature">
    <NAME>node10</NAME>
    <OUTCOME>state0</OUTCOME>
    <OUTCOME>state1</OUTCOME>
    <OUTCOME>state2</OUTCOME>
    <PROPERTY>position = (285, 30)</PROPERTY>
</VARIABLE>
<!-- Variables -->
<VARIABLE TYPE="nature">
    <NAME>node11</NAME>
    <OUTCOME>state0</OUTCOME>
    <OUTCOME>state1</OUTCOME>
    <OUTCOME>state2</OUTCOME>
    <OUTCOME>state3</OUTCOME>
    <PROPERTY>position = (375, 375)</PROPERTY>
</VARIABLE>
<!-- Variables -->
<VARIABLE TYPE="nature">
    <NAME>node12</NAME>
    <OUTCOME>state0</OUTCOME>
    <OUTCOME>state1</OUTCOME>
    <OUTCOME>state2</OUTCOME>
    <PROPERTY>position = (405, 15)</PROPERTY>
</VARIABLE>
<!-- Variables -->
<VARIABLE TYPE="nature">
    <NAME>node13</NAME>
    <OUTCOME>state0</OUTCOME>
    <OUTCOME>state1</OUTCOME>
    <OUTCOME>state2</OUTCOME>
    <OUTCOME>state3</OUTCOME>
    <OUTCOME>state4</OUTCOME>
    <PROPERTY>position = (375, 135)</PROPERTY>
</VARIABLE>
<!-- Variables -->
<VARIABLE TYPE="nature">
    <NAME>node14</NAME>
    <OUTCOME>state0</OUTCOME>
    <OUTCOME>state1</OUTCOME>
    <OUTCOME>state2</OUTCOME>
    <OUTCOME>state3</OUTCOME>
    <PROPERTY>position = (284, 270)</PROPERTY>
</VARIABLE>
<!-- Variables -->
<VARIABLE TYPE="nature">
    <NAME>node15</NAME>
    <OUTCOME>state0</OUTCOME>
    <OUTCOME>state1</OUTCOME>
    <PROPERTY>position = (495, 149)</PROPERTY>
</VARIABLE>
<!-- Variables -->
<VARIABLE TYPE="nature">
    <NAME>node16</NAME>
    <OUTCOME>state0</OUTCOME>
    <OUTCOME>state1</OUTCOME>
    <OUTCOME>state2</OUTCOME>
    <PROPERTY>position = (615, 164)</PROPERTY>
</VARIABLE>
<!-- Variables -->
<VARIABLE TYPE="nature">
    <NAME>node17</NAME>
    <OUTCOME>state0</OUTCOME>
    <OUTCOME>state1</OUTCOME>
    <PROPERTY>position = (404, 255)</PROPERTY>
</VARIABLE>
<!-- Variables -->
<VARIABLE TYPE="nature">
    <NAME>node18</NAME>
    <OUTCOME>state0</OUTCOME>
    <OUTCOME>state1</OUTCOME>
    <PROPERTY>position = (525, 29)</PROPERTY>
</VARIABLE>
<!-- Variables -->
<VARIABLE TYPE="nature">
    <NAME>node19</NAME>
    <OUTCOME>state0</OUTCOME>
    <OUTCOME>state1</OUTCOME>
    <PROPERTY>position = (645, 44)</PROPERTY>
</VARIABLE>
<!-- Probability Distributions -->
 <DEFINITION>
      <FOR>node0</FOR>
      <GIVEN>node19</GIVEN>
      <GIVEN>node16</GIVEN>
      <GIVEN>node13</GIVEN>
     <TABLE>0.24206772 0.7579323 0.9312547 0.06874537 0.8777773 0.12222274 0.92790914 0.07209088 0.60652155 0.39347848 0.9665655 0.033434514 0.36217827 0.63782173 0.5213977 0.47860235 0.9837189 0.016281115 0.7107527 0.28924724 0.11474302 0.88525695 0.8729165 0.12708347 0.75945604 0.24054399 0.5576717 0.44232824 0.47650278 0.5234972 0.11045826 0.88954175 0.012337728 0.98766226 0.8015289 0.19847113 0.9745838 0.025416145 0.8412181 0.15878187 0.69127005 0.30872992 0.4859313 0.51406866 0.5030234 0.4969766 0.80538 0.19461997 0.19341455 0.80658543 0.51781034 0.48218971 0.654482 0.34551802 0.30740392 0.6925961 0.86378455 0.13621546 0.46577588 0.53422415 </TABLE>
 </DEFINITION>
 <DEFINITION>
      <FOR>node1</FOR>
      <GIVEN>node5</GIVEN>
      <GIVEN>node13</GIVEN>
     <TABLE>0.5729074 0.17925638 0.24783617 0.018567072 0.257115 0.72431797 0.4364263 0.46682242 0.09675128 0.08149862 0.6987348 0.21976653 0.0033161168 0.9127719 0.083912045 0.0054773437 0.6379351 0.35658753 0.39039502 0.25425738 0.35534757 0.8899811 0.021784583 0.088234276 0.29044378 0.669675 0.03988122 0.63686466 0.12250935 0.24062598 0.1562718 0.5646448 0.2790834 0.7840323 0.0037512132 0.21221656 0.36618197 0.25977936 0.37403867 0.93049294 0.047566418 0.021940688 0.6456833 0.26476184 0.08955493 0.5841791 0.1081121 0.30770877 0.7405887 0.12412154 0.13528968 0.06756832 0.005501831 0.92692983 0.35826793 0.07478629 0.5669458 0.54178846 0.37924778 0.07896377 </TABLE>
 </DEFINITION>
 <DEFINITION>
      <FOR>node2</FOR>
      <GIVEN>node3</GIVEN>
      <GIVEN>node12</GIVEN>
     <TABLE>0.7677016 0.057233684 0.17506467 0.58205336 0.038901385 0.37904525 0.2842998 0.5374703 0.17822999 0.5839593 0.300941 0.11509985 0.14649203 0.6104531 0.24305485 0.6517609 0.20827338 0.13996564 </TABLE>
 </DEFINITION>
 <DEFINITION>
      <FOR>node3</FOR>
     <TABLE>0.7249082 0.27509183 </TABLE>
 </DEFINITION>
 <DEFINITION>
      <FOR>node4</FOR>
      <GIVEN>node15</GIVEN>
     <TABLE>0.38448876 0.19924106 0.020572506 0.3956977 0.1062597 0.18316703 0.20858021 0.50199306 </TABLE>
 </DEFINITION>
 <DEFINITION>
      <FOR>node5</FOR>
     <TABLE>0.2673123 0.16558371 0.13825074 0.42885327 </TABLE>
 </DEFINITION>
 <DEFINITION>
      <FOR>node6</FOR>
      <GIVEN>node10</GIVEN>
      <GIVEN>node17</GIVEN>
      <GIVEN>node7</GIVEN>
     <TABLE>0.014064727 0.1652072 0.82072806 0.7514001 0.08617884 0.16242109 0.11308071 0.85224324 0.034676023 0.30595133 0.060614653 0.633434 0.8349281 0.06333974 0.101732165 0.24048655 0.616772 0.14274155 0.032390308 0.2919163 0.6756934 0.7615008 0.06767588 0.17082335 0.080292106 0.56714785 0.35256 0.075742364 0.36727837 0.55697924 0.41637152 0.3271506 0.2564779 0.35399088 0.09331898 0.5526902 0.5523782 0.391925 0.05569685 0.5518832 0.44235608 0.005760618 0.6576743 0.1476387 0.19468708 0.5561269 0.24755155 0.19632147 0.24813756 0.21419686 0.53766555 0.05227481 0.9447681 0.00295717 </TABLE>
 </DEFINITION>
 <DEFINITION>
      <FOR>node7</FOR>
      <GIVEN>node10</GIVEN>
     <TABLE>0.2872808 0.55819565 0.1545236 0.8053377 0.18015796 0.014504352 0.64105415 0.2937672 0.065178685 </TABLE>
 </DEFINITION>
 <DEFINITION>
      <FOR>node8</FOR>
      <GIVEN>node7</GIVEN>
      <GIVEN>node9</GIVEN>
      <GIVEN>node5</GIVEN>
     <TABLE>0.053442966 0.12242784 0.19775699 0.41240692 0.21396528 0.24700023 0.2686895 0.42419815 0.0050315033 0.055080637 0.1309827 0.116575 0.04569572 0.20238204 0.5043646 0.28050682 4.5105924E-5 0.14331762 0.20668963 0.36944082 0.04503035 0.110324904 0.10630282 0.12629439 0.61204755 0.44019794 0.018013613 0.20863578 0.2039852 0.12916751 0.15260251 0.002786889 0.20563215 0.04785731 0.59112114 0.020911364 0.0017348576 0.088501096 0.2519969 0.6368558 0.16634777 0.14976417 0.07250778 0.41164094 0.19973932 0.28890714 0.17060651 0.037513338 0.286745 0.21622798 0.43167025 0.008999879 0.38665354 0.0022192409 0.17045715 0.40266472 0.3047957 0.022550276 0.15743977 0.11254951 0.25111333 0.40678224 0.0985734 0.2165157 0.027015405 0.006227301 0.44691226 0.1157691 0.070333004 0.36075833 0.25160152 0.04420715 0.34684378 0.15386581 0.20348173 0.16127771 0.23873024 0.04124598 0.17580293 0.38294315 0.29253358 0.03863532 0.13271645 0.46527496 0.07083976 0.1413463 0.06740456 0.5340447 0.0961637 0.16104071 0.032551117 0.29678056 0.24116719 0.2667168 0.16278431 0.09682076 0.13448709 0.106384166 0.2525603 0.40974775 0.0021314744 0.058997035 0.336193 0.121480025 0.48119843 0.05528443 0.18283552 0.6106075 0.06867748 0.0825951 0.45573673 0.11015643 0.0786959 0.30556467 0.049846236 0.015340091 0.18389189 0.3941666 0.09952845 0.30707303 0.5806219 0.10656636 0.09681954 0.038198713 0.17779347 0.1142541 0.015273244 0.27969748 0.11947611 0.47129908 0.046181697 0.10774616 0.1609586 0.60359764 0.08151591 0.031117687 0.37278253 0.09022578 0.41455996 0.09131401 0.08697149 0.38337195 0.12662885 0.3551407 0.047887 0.36850926 0.028240616 0.05808035 0.03397264 0.5111971 0.055279482 0.08914539 0.16852213 0.027812928 0.65924 0.08619558 0.046563145 0.043515574 0.4900575 0.33366823 0.16413991 0.25275367 0.092295654 0.0624409 0.42836985 0.12502435 0.013111607 0.47187802 0.29859266 0.09139342 0.2001994 0.16354367 0.18171516 0.33655623 0.11798543 0.2853946 0.08122444 0.1445365 0.39622563 0.09261886 0.17182046 0.29630125 0.13436747 0.10552514 0.29198566 0.089871235 0.31712973 0.1499086 0.107367024 0.33572334 0.10733149 0.70015943 0.112068966 0.07226115 0.008178984 0.016885852 0.013186185 0.23307599 0.72474974 0.012102228 0.22023496 0.14070319 0.13302322 0.41236627 0.09367239 0.019183125 0.035707798 0.554337 0.38609463 0.004677469 0.029548345 4.6236135E-4 0.057030454 0.856519 0.056439877 2.2521919E-4 0.030594004 0.2961731 0.568263 0.10474465 0.41758776 0.23365842 0.16919588 0.06833709 0.11122095 0.22889934 0.041406184 0.24234156 0.12205193 0.36530092 0.21991988 0.5114354 0.08351213 0.1314051 0.053727508 0.3723158 0.0662533 0.21130578 0.0090514235 0.34107372 </TABLE>
 </DEFINITION>
 <DEFINITION>
      <FOR>node9</FOR>
      <GIVEN>node1</GIVEN>
     <TABLE>0.23523408 0.10618884 0.54459983 0.113977194 0.37646908 0.19105275 0.23843081 0.19404739 0.03021387 0.75623465 0.18171848 0.03183297 </TABLE>
 </DEFINITION>
 <DEFINITION>
      <FOR>node10</FOR>
     <TABLE>0.31200406 0.30071855 0.38727745 </TABLE>
 </DEFINITION>
 <DEFINITION>
      <FOR>node11</FOR>
      <GIVEN>node4</GIVEN>
      <GIVEN>node2</GIVEN>
      <GIVEN>node16</GIVEN>
     <TABLE>0.25806972 0.038327295 0.6619915 0.04161149 0.54484487 0.24276136 0.040950943 0.17144285 0.038915783 0.8202865 0.033921737 0.10687606 0.033891726 0.12397048 0.25217217 0.58996564 0.1782976 0.74304074 0.031757835 0.04690388 0.14138502 0.69008046 0.026664516 0.14187 0.17672017 0.15376012 0.4086544 0.26086536 0.31515115 0.17603368 0.15329461 0.35552064 0.29779223 0.069697306 0.4301662 0.20234427 0.26474738 0.03793596 0.3863756 0.3109411 0.4291629 0.295067 0.097934835 0.17783521 0.45745778 0.20860079 0.11100741 0.2229341 0.51814085 0.22501734 0.17074293 0.0860989 0.64885765 0.18825673 0.09874316 0.06414252 0.33490393 0.32136115 0.25331622 0.090418726 0.75239795 0.14699803 0.030660607 0.06994339 0.21051072 0.15002257 0.56336236 0.076104365 0.018191993 0.40940094 0.2875469 0.2848602 0.4912969 0.29480776 0.1579108 0.05598455 0.14524998 0.09937943 0.28301892 0.47235167 0.086385384 0.7139377 0.18928693 0.010389981 0.30578467 0.10908356 0.48260212 0.10252971 0.27923527 0.19932976 0.25882673 0.26260826 0.5471629 0.10664016 0.21460149 0.1315955 0.2488229 0.05493506 0.009479591 0.6867625 0.21678872 0.30458188 0.44600326 0.032626133 0.3589137 0.06286354 0.5357986 0.04242421 0.4417999 0.15452054 0.17107351 0.23260605 0.32183453 0.0449974 0.4445923 0.18857579 0.0741205 0.61058074 0.1233149 0.19198382 0.7224672 0.22159564 0.045292728 0.010644442 0.2014508 0.20211153 0.45420292 0.1422348 0.37952876 0.08538125 0.44192192 0.093168065 0.16200934 0.32945713 0.38002825 0.12850526 0.26260036 0.06881709 0.2296834 0.4388992 0.02026215 0.06642741 0.43847716 0.4748333 </TABLE>
 </DEFINITION>
 <DEFINITION>
      <FOR>node12</FOR>
     <TABLE>0.19159597 0.11885407 0.68955 </TABLE>
 </DEFINITION>
 <DEFINITION>
      <FOR>node13</FOR>
      <GIVEN>node18</GIVEN>
     <TABLE>0.024987431 0.08872212 0.6047136 0.026088795 0.25548804 0.2393885 0.4959825 0.07739843 0.1109308 0.0762998 </TABLE>
 </DEFINITION>
 <DEFINITION>
      <FOR>node14</FOR>
      <GIVEN>node4</GIVEN>
      <GIVEN>node9</GIVEN>
     <TABLE>0.40900254 0.03832262 0.4109898 0.14168501 0.052919287 0.10530249 0.636486 0.20529215 0.041944027 0.40398425 0.30224854 0.25182313 0.2664711 0.07159522 0.017870167 0.64406353 0.48172623 0.26785123 0.019732306 0.23069026 0.3114509 0.6278289 0.023962375 0.036757804 0.06100904 0.16222219 0.4199692 0.35679963 0.29266906 0.010490326 0.09816313 0.5986774 0.27940923 0.15739341 0.18214837 0.38104898 0.19008242 0.05846532 0.7037202 0.04773201 0.405392 0.2755274 0.31296197 0.00611864 0.3992764 0.2990802 0.24864426 0.05299912 0.22867833 0.4027257 0.061663497 0.30693254 0.55492383 0.2181465 0.21859908 0.008330602 0.12939927 0.028416956 0.8304437 0.011740097 0.31899315 0.21814942 0.18285358 0.28000385 </TABLE>
 </DEFINITION>
 <DEFINITION>
      <FOR>node15</FOR>
      <GIVEN>node10</GIVEN>
     <TABLE>0.38332015 0.6166799 0.7385892 0.26141074 0.33627987 0.66372013 </TABLE>
 </DEFINITION>
 <DEFINITION>
      <FOR>node16</FOR>
      <GIVEN>node14</GIVEN>
     <TABLE>0.23889606 0.74354297 0.01756087 0.71686804 0.23103102 0.05210097 0.291043 0.25470537 0.45425168 0.25032273 0.38812238 0.36155486 </TABLE>
 </DEFINITION>
 <DEFINITION>
      <FOR>node17</FOR>
      <GIVEN>node15</GIVEN>
      <GIVEN>node19</GIVEN>
     <TABLE>0.97766066 0.022339405 0.47394654 0.5260534 0.35412297 0.64587706 0.79945636 0.20054361 </TABLE>
 </DEFINITION>
 <DEFINITION>
      <FOR>node18</FOR>
     <TABLE>0.25135317 0.74864686 </TABLE>
 </DEFINITION>
 <DEFINITION>
      <FOR>node19</FOR>
     <TABLE>0.665211 0.33478895 </TABLE>
 </DEFINITION>
</NETWORK>
</BIF>
