<?xml version="1.0" encoding="US-ASCII"?>


<!--
	Bayesian network in XMLBIF v0.3 (BayesNet Interchange Format)
	Produced by JavaBayes (http://www.cs.cmu.edu/~javabayes/
	Number of nodes:90
	Output created Thu Aug 07 05:25:22 EDT 2008
-->



<BIF VERSION="0.3">
<NETWORK>
<NAME>b90-31</NAME>
<!-- Variables -->
<VARIABLE TYPE="nature">
    <NAME>node0</NAME>
    <OUTCOME>state0</OUTCOME>
    <OUTCOME>state1</OUTCOME>
    <PROPERTY>position = (45, 30)</PROPERTY>
</VARIABLE>
<!-- Variables -->
<VARIABLE TYPE="nature">
    <NAME>node1</NAME>
    <OUTCOME>state0</OUTCOME>
    <OUTCOME>state1</OUTCOME>
    <PROPERTY>position = (44, 270)</PROPERTY>
</VARIABLE>
<!-- Variables -->
<VARIABLE TYPE="nature">
    <NAME>node2</NAME>
    <OUTCOME>state0</OUTCOME>
    <OUTCOME>state1</OUTCOME>
    <PROPERTY>position = (164, 284)</PROPERTY>
</VARIABLE>
<!-- Variables -->
<VARIABLE TYPE="nature">
    <NAME>node3</NAME>
    <OUTCOME>state0</OUTCOME>
    <OUTCOME>state1</OUTCOME>
    <PROPERTY>position = (165, 44)</PROPERTY>
</VARIABLE>
<!-- Variables -->
<VARIABLE TYPE="nature">
    <NAME>node4</NAME>
    <OUTCOME>state0</OUTCOME>
    <OUTCOME>state1</OUTCOME>
    <PROPERTY>position = (285, 30)</PROPERTY>
</VARIABLE>
<!-- Variables -->
<VARIABLE TYPE="nature">
    <NAME>node5</NAME>
    <OUTCOME>state0</OUTCOME>
    <OUTCOME>state1</OUTCOME>
    <PROPERTY>position = (15, 150)</PROPERTY>
</VARIABLE>
<!-- Variables -->
<VARIABLE TYPE="nature">
    <NAME>node6</NAME>
    <OUTCOME>state0</OUTCOME>
    <OUTCOME>state1</OUTCOME>
    <PROPERTY>position = (284, 270)</PROPERTY>
</VARIABLE>
<!-- Variables -->
<VARIABLE TYPE="nature">
    <NAME>node7</NAME>
    <OUTCOME>state0</OUTCOME>
    <OUTCOME>state1</OUTCOME>
    <PROPERTY>position = (135, 164)</PROPERTY>
</VARIABLE>
<!-- Variables -->
<VARIABLE TYPE="nature">
    <NAME>node8</NAME>
    <OUTCOME>state0</OUTCOME>
    <OUTCOME>state1</OUTCOME>
    <PROPERTY>position = (404, 255)</PROPERTY>
</VARIABLE>
<!-- Variables -->
<VARIABLE TYPE="nature">
    <NAME>node9</NAME>
    <OUTCOME>state0</OUTCOME>
    <OUTCOME>state1</OUTCOME>
    <PROPERTY>position = (524, 269)</PROPERTY>
</VARIABLE>
<!-- Variables -->
<VARIABLE TYPE="nature">
    <NAME>node10</NAME>
    <OUTCOME>state0</OUTCOME>
    <OUTCOME>state1</OUTCOME>
    <PROPERTY>position = (255, 150)</PROPERTY>
</VARIABLE>
<!-- Variables -->
<VARIABLE TYPE="nature">
    <NAME>node11</NAME>
    <OUTCOME>state0</OUTCOME>
    <OUTCOME>state1</OUTCOME>
    <PROPERTY>position = (644, 284)</PROPERTY>
</VARIABLE>
<!-- Variables -->
<VARIABLE TYPE="nature">
    <NAME>node12</NAME>
    <OUTCOME>state0</OUTCOME>
    <OUTCOME>state1</OUTCOME>
    <PROPERTY>position = (375, 135)</PROPERTY>
</VARIABLE>
<!-- Variables -->
<VARIABLE TYPE="nature">
    <NAME>node13</NAME>
    <OUTCOME>state0</OUTCOME>
    <OUTCOME>state1</OUTCOME>
    <PROPERTY>position = (15, 390)</PROPERTY>
</VARIABLE>
<!-- Variables -->
<VARIABLE TYPE="nature">
    <NAME>node14</NAME>
    <OUTCOME>state0</OUTCOME>
    <OUTCOME>state1</OUTCOME>
    <PROPERTY>position = (764, 270)</PROPERTY>
</VARIABLE>
<!-- Variables -->
<VARIABLE TYPE="nature">
    <NAME>node15</NAME>
    <OUTCOME>state0</OUTCOME>
    <OUTCOME>state1</OUTCOME>
    <PROPERTY>position = (495, 149)</PROPERTY>
</VARIABLE>
<!-- Variables -->
<VARIABLE TYPE="nature">
    <NAME>node16</NAME>
    <OUTCOME>state0</OUTCOME>
    <OUTCOME>state1</OUTCOME>
    <PROPERTY>position = (884, 255)</PROPERTY>
</VARIABLE>
<!-- Variables -->
<VARIABLE TYPE="nature">
    <NAME>node17</NAME>
    <OUTCOME>state0</OUTCOME>
    <OUTCOME>state1</OUTCOME>
    <PROPERTY>position = (405, 15)</PROPERTY>
</VARIABLE>
<!-- Variables -->
<VARIABLE TYPE="nature">
    <NAME>node18</NAME>
    <OUTCOME>state0</OUTCOME>
    <OUTCOME>state1</OUTCOME>
    <PROPERTY>position = (615, 164)</PROPERTY>
</VARIABLE>
<!-- Variables -->
<VARIABLE TYPE="nature">
    <NAME>node19</NAME>
    <OUTCOME>state0</OUTCOME>
    <OUTCOME>state1</OUTCOME>
    <PROPERTY>position = (1004, 269)</PROPERTY>
</VARIABLE>
<!-- Variables -->
<VARIABLE TYPE="nature">
    <NAME>node20</NAME>
    <OUTCOME>state0</OUTCOME>
    <OUTCOME>state1</OUTCOME>
    <PROPERTY>position = (135, 404)</PROPERTY>
</VARIABLE>
<!-- Variables -->
<VARIABLE TYPE="nature">
    <NAME>node21</NAME>
    <OUTCOME>state0</OUTCOME>
    <OUTCOME>state1</OUTCOME>
    <PROPERTY>position = (735, 150)</PROPERTY>
</VARIABLE>
<!-- Variables -->
<VARIABLE TYPE="nature">
    <NAME>node22</NAME>
    <OUTCOME>state0</OUTCOME>
    <OUTCOME>state1</OUTCOME>
    <PROPERTY>position = (525, 29)</PROPERTY>
</VARIABLE>
<!-- Variables -->
<VARIABLE TYPE="nature">
    <NAME>node23</NAME>
    <OUTCOME>state0</OUTCOME>
    <OUTCOME>state1</OUTCOME>
    <PROPERTY>position = (855, 135)</PROPERTY>
</VARIABLE>
<!-- Variables -->
<VARIABLE TYPE="nature">
    <NAME>node24</NAME>
    <OUTCOME>state0</OUTCOME>
    <OUTCOME>state1</OUTCOME>
    <PROPERTY>position = (645, 44)</PROPERTY>
</VARIABLE>
<!-- Variables -->
<VARIABLE TYPE="nature">
    <NAME>node25</NAME>
    <OUTCOME>state0</OUTCOME>
    <OUTCOME>state1</OUTCOME>
    <PROPERTY>position = (975, 149)</PROPERTY>
</VARIABLE>
<!-- Variables -->
<VARIABLE TYPE="nature">
    <NAME>node26</NAME>
    <OUTCOME>state0</OUTCOME>
    <OUTCOME>state1</OUTCOME>
    <PROPERTY>position = (765, 30)</PROPERTY>
</VARIABLE>
<!-- Variables -->
<VARIABLE TYPE="nature">
    <NAME>node27</NAME>
    <OUTCOME>state0</OUTCOME>
    <OUTCOME>state1</OUTCOME>
    <PROPERTY>position = (1095, 164)</PROPERTY>
</VARIABLE>
<!-- Variables -->
<VARIABLE TYPE="nature">
    <NAME>node28</NAME>
    <OUTCOME>state0</OUTCOME>
    <OUTCOME>state1</OUTCOME>
    <PROPERTY>position = (1124, 284)</PROPERTY>
</VARIABLE>
<!-- Variables -->
<VARIABLE TYPE="nature">
    <NAME>node29</NAME>
    <OUTCOME>state0</OUTCOME>
    <OUTCOME>state1</OUTCOME>
    <PROPERTY>position = (1215, 150)</PROPERTY>
</VARIABLE>
<!-- Variables -->
<VARIABLE TYPE="nature">
    <NAME>node30</NAME>
    <OUTCOME>state0</OUTCOME>
    <OUTCOME>state1</OUTCOME>
    <PROPERTY>position = (1244, 270)</PROPERTY>
</VARIABLE>
<!-- Variables -->
<VARIABLE TYPE="nature">
    <NAME>node31</NAME>
    <OUTCOME>state0</OUTCOME>
    <OUTCOME>state1</OUTCOME>
    <PROPERTY>position = (1335, 135)</PROPERTY>
</VARIABLE>
<!-- Variables -->
<VARIABLE TYPE="nature">
    <NAME>node32</NAME>
    <OUTCOME>state0</OUTCOME>
    <OUTCOME>state1</OUTCOME>
    <PROPERTY>position = (1455, 149)</PROPERTY>
</VARIABLE>
<!-- Variables -->
<VARIABLE TYPE="nature">
    <NAME>node33</NAME>
    <OUTCOME>state0</OUTCOME>
    <OUTCOME>state1</OUTCOME>
    <PROPERTY>position = (885, 15)</PROPERTY>
</VARIABLE>
<!-- Variables -->
<VARIABLE TYPE="nature">
    <NAME>node34</NAME>
    <OUTCOME>state0</OUTCOME>
    <OUTCOME>state1</OUTCOME>
    <PROPERTY>position = (1364, 255)</PROPERTY>
</VARIABLE>
<!-- Variables -->
<VARIABLE TYPE="nature">
    <NAME>node35</NAME>
    <OUTCOME>state0</OUTCOME>
    <OUTCOME>state1</OUTCOME>
    <PROPERTY>position = (1575, 164)</PROPERTY>
</VARIABLE>
<!-- Variables -->
<VARIABLE TYPE="nature">
    <NAME>node36</NAME>
    <OUTCOME>state0</OUTCOME>
    <OUTCOME>state1</OUTCOME>
    <PROPERTY>position = (1695, 150)</PROPERTY>
</VARIABLE>
<!-- Variables -->
<VARIABLE TYPE="nature">
    <NAME>node37</NAME>
    <OUTCOME>state0</OUTCOME>
    <OUTCOME>state1</OUTCOME>
    <PROPERTY>position = (1815, 135)</PROPERTY>
</VARIABLE>
<!-- Variables -->
<VARIABLE TYPE="nature">
    <NAME>node38</NAME>
    <OUTCOME>state0</OUTCOME>
    <OUTCOME>state1</OUTCOME>
    <PROPERTY>position = (1484, 269)</PROPERTY>
</VARIABLE>
<!-- Variables -->
<VARIABLE TYPE="nature">
    <NAME>node39</NAME>
    <OUTCOME>state0</OUTCOME>
    <OUTCOME>state1</OUTCOME>
    <PROPERTY>position = (1604, 284)</PROPERTY>
</VARIABLE>
<!-- Variables -->
<VARIABLE TYPE="nature">
    <NAME>node40</NAME>
    <OUTCOME>state0</OUTCOME>
    <OUTCOME>state1</OUTCOME>
    <PROPERTY>position = (1724, 270)</PROPERTY>
</VARIABLE>
<!-- Variables -->
<VARIABLE TYPE="nature">
    <NAME>node41</NAME>
    <OUTCOME>state0</OUTCOME>
    <OUTCOME>state1</OUTCOME>
    <PROPERTY>position = (1844, 255)</PROPERTY>
</VARIABLE>
<!-- Variables -->
<VARIABLE TYPE="nature">
    <NAME>node42</NAME>
    <OUTCOME>state0</OUTCOME>
    <OUTCOME>state1</OUTCOME>
    <PROPERTY>position = (1935, 149)</PROPERTY>
</VARIABLE>
<!-- Variables -->
<VARIABLE TYPE="nature">
    <NAME>node43</NAME>
    <OUTCOME>state0</OUTCOME>
    <OUTCOME>state1</OUTCOME>
    <PROPERTY>position = (2055, 164)</PROPERTY>
</VARIABLE>
<!-- Variables -->
<VARIABLE TYPE="nature">
    <NAME>node44</NAME>
    <OUTCOME>state0</OUTCOME>
    <OUTCOME>state1</OUTCOME>
    <PROPERTY>position = (2175, 150)</PROPERTY>
</VARIABLE>
<!-- Variables -->
<VARIABLE TYPE="nature">
    <NAME>node45</NAME>
    <OUTCOME>state0</OUTCOME>
    <OUTCOME>state1</OUTCOME>
    <PROPERTY>position = (1964, 269)</PROPERTY>
</VARIABLE>
<!-- Variables -->
<VARIABLE TYPE="nature">
    <NAME>node46</NAME>
    <OUTCOME>state0</OUTCOME>
    <OUTCOME>state1</OUTCOME>
    <PROPERTY>position = (2295, 135)</PROPERTY>
</VARIABLE>
<!-- Variables -->
<VARIABLE TYPE="nature">
    <NAME>node47</NAME>
    <OUTCOME>state0</OUTCOME>
    <OUTCOME>state1</OUTCOME>
    <PROPERTY>position = (2415, 149)</PROPERTY>
</VARIABLE>
<!-- Variables -->
<VARIABLE TYPE="nature">
    <NAME>node48</NAME>
    <OUTCOME>state0</OUTCOME>
    <OUTCOME>state1</OUTCOME>
    <PROPERTY>position = (2084, 284)</PROPERTY>
</VARIABLE>
<!-- Variables -->
<VARIABLE TYPE="nature">
    <NAME>node49</NAME>
    <OUTCOME>state0</OUTCOME>
    <OUTCOME>state1</OUTCOME>
    <PROPERTY>position = (2204, 270)</PROPERTY>
</VARIABLE>
<!-- Variables -->
<VARIABLE TYPE="nature">
    <NAME>node50</NAME>
    <OUTCOME>state0</OUTCOME>
    <OUTCOME>state1</OUTCOME>
    <PROPERTY>position = (255, 390)</PROPERTY>
</VARIABLE>
<!-- Variables -->
<VARIABLE TYPE="nature">
    <NAME>node51</NAME>
    <OUTCOME>state0</OUTCOME>
    <OUTCOME>state1</OUTCOME>
    <PROPERTY>position = (1005, 29)</PROPERTY>
</VARIABLE>
<!-- Variables -->
<VARIABLE TYPE="nature">
    <NAME>node52</NAME>
    <OUTCOME>state0</OUTCOME>
    <OUTCOME>state1</OUTCOME>
    <PROPERTY>position = (2324, 255)</PROPERTY>
</VARIABLE>
<!-- Variables -->
<VARIABLE TYPE="nature">
    <NAME>node53</NAME>
    <OUTCOME>state0</OUTCOME>
    <OUTCOME>state1</OUTCOME>
    <PROPERTY>position = (2444, 269)</PROPERTY>
</VARIABLE>
<!-- Variables -->
<VARIABLE TYPE="nature">
    <NAME>node54</NAME>
    <OUTCOME>state0</OUTCOME>
    <OUTCOME>state1</OUTCOME>
    <PROPERTY>position = (2535, 164)</PROPERTY>
</VARIABLE>
<!-- Variables -->
<VARIABLE TYPE="nature">
    <NAME>node55</NAME>
    <OUTCOME>state0</OUTCOME>
    <OUTCOME>state1</OUTCOME>
    <PROPERTY>position = (1125, 44)</PROPERTY>
</VARIABLE>
<!-- Variables -->
<VARIABLE TYPE="nature">
    <NAME>node56</NAME>
    <OUTCOME>state0</OUTCOME>
    <OUTCOME>state1</OUTCOME>
    <PROPERTY>position = (2564, 284)</PROPERTY>
</VARIABLE>
<!-- Variables -->
<VARIABLE TYPE="nature">
    <NAME>node57</NAME>
    <OUTCOME>state0</OUTCOME>
    <OUTCOME>state1</OUTCOME>
    <PROPERTY>position = (2684, 270)</PROPERTY>
</VARIABLE>
<!-- Variables -->
<VARIABLE TYPE="nature">
    <NAME>node58</NAME>
    <OUTCOME>state0</OUTCOME>
    <OUTCOME>state1</OUTCOME>
    <PROPERTY>position = (375, 375)</PROPERTY>
</VARIABLE>
<!-- Variables -->
<VARIABLE TYPE="nature">
    <NAME>node59</NAME>
    <OUTCOME>state0</OUTCOME>
    <OUTCOME>state1</OUTCOME>
    <PROPERTY>position = (2655, 150)</PROPERTY>
</VARIABLE>
<!-- Variables -->
<VARIABLE TYPE="nature">
    <NAME>node60</NAME>
    <OUTCOME>state0</OUTCOME>
    <OUTCOME>state1</OUTCOME>
    <PROPERTY>position = (495, 389)</PROPERTY>
</VARIABLE>
<!-- Variables -->
<VARIABLE TYPE="nature">
    <NAME>node61</NAME>
    <OUTCOME>state0</OUTCOME>
    <OUTCOME>state1</OUTCOME>
    <PROPERTY>position = (615, 404)</PROPERTY>
</VARIABLE>
<!-- Variables -->
<VARIABLE TYPE="nature">
    <NAME>node62</NAME>
    <OUTCOME>state0</OUTCOME>
    <OUTCOME>state1</OUTCOME>
    <PROPERTY>position = (2804, 255)</PROPERTY>
</VARIABLE>
<!-- Variables -->
<VARIABLE TYPE="nature">
    <NAME>node63</NAME>
    <OUTCOME>state0</OUTCOME>
    <OUTCOME>state1</OUTCOME>
    <PROPERTY>position = (2924, 269)</PROPERTY>
</VARIABLE>
<!-- Variables -->
<VARIABLE TYPE="nature">
    <NAME>node64</NAME>
    <OUTCOME>state0</OUTCOME>
    <OUTCOME>state1</OUTCOME>
    <PROPERTY>position = (3044, 284)</PROPERTY>
</VARIABLE>
<!-- Variables -->
<VARIABLE TYPE="nature">
    <NAME>node65</NAME>
    <OUTCOME>state0</OUTCOME>
    <OUTCOME>state1</OUTCOME>
    <PROPERTY>position = (2775, 135)</PROPERTY>
</VARIABLE>
<!-- Variables -->
<VARIABLE TYPE="nature">
    <NAME>node66</NAME>
    <OUTCOME>state0</OUTCOME>
    <OUTCOME>state1</OUTCOME>
    <PROPERTY>position = (3164, 270)</PROPERTY>
</VARIABLE>
<!-- Variables -->
<VARIABLE TYPE="nature">
    <NAME>node67</NAME>
    <OUTCOME>state0</OUTCOME>
    <OUTCOME>state1</OUTCOME>
    <PROPERTY>position = (3284, 255)</PROPERTY>
</VARIABLE>
<!-- Variables -->
<VARIABLE TYPE="nature">
    <NAME>node68</NAME>
    <OUTCOME>state0</OUTCOME>
    <OUTCOME>state1</OUTCOME>
    <PROPERTY>position = (2895, 149)</PROPERTY>
</VARIABLE>
<!-- Variables -->
<VARIABLE TYPE="nature">
    <NAME>node69</NAME>
    <OUTCOME>state0</OUTCOME>
    <OUTCOME>state1</OUTCOME>
    <PROPERTY>position = (3015, 164)</PROPERTY>
</VARIABLE>
<!-- Variables -->
<VARIABLE TYPE="nature">
    <NAME>node70</NAME>
    <OUTCOME>state0</OUTCOME>
    <OUTCOME>state1</OUTCOME>
    <PROPERTY>position = (3135, 150)</PROPERTY>
</VARIABLE>
<!-- Variables -->
<VARIABLE TYPE="nature">
    <NAME>node71</NAME>
    <OUTCOME>state0</OUTCOME>
    <OUTCOME>state1</OUTCOME>
    <PROPERTY>position = (3404, 269)</PROPERTY>
</VARIABLE>
<!-- Variables -->
<VARIABLE TYPE="nature">
    <NAME>node72</NAME>
    <OUTCOME>state0</OUTCOME>
    <OUTCOME>state1</OUTCOME>
    <PROPERTY>position = (3255, 135)</PROPERTY>
</VARIABLE>
<!-- Variables -->
<VARIABLE TYPE="nature">
    <NAME>node73</NAME>
    <OUTCOME>state0</OUTCOME>
    <OUTCOME>state1</OUTCOME>
    <PROPERTY>position = (3375, 149)</PROPERTY>
</VARIABLE>
<!-- Variables -->
<VARIABLE TYPE="nature">
    <NAME>node74</NAME>
    <OUTCOME>state0</OUTCOME>
    <OUTCOME>state1</OUTCOME>
    <PROPERTY>position = (3495, 164)</PROPERTY>
</VARIABLE>
<!-- Variables -->
<VARIABLE TYPE="nature">
    <NAME>node75</NAME>
    <OUTCOME>state0</OUTCOME>
    <OUTCOME>state1</OUTCOME>
    <PROPERTY>position = (1245, 30)</PROPERTY>
</VARIABLE>
<!-- Variables -->
<VARIABLE TYPE="nature">
    <NAME>node76</NAME>
    <OUTCOME>state0</OUTCOME>
    <OUTCOME>state1</OUTCOME>
    <PROPERTY>position = (3524, 284)</PROPERTY>
</VARIABLE>
<!-- Variables -->
<VARIABLE TYPE="nature">
    <NAME>node77</NAME>
    <OUTCOME>state0</OUTCOME>
    <OUTCOME>state1</OUTCOME>
    <PROPERTY>position = (3615, 150)</PROPERTY>
</VARIABLE>
<!-- Variables -->
<VARIABLE TYPE="nature">
    <NAME>node78</NAME>
    <OUTCOME>state0</OUTCOME>
    <OUTCOME>state1</OUTCOME>
    <PROPERTY>position = (3644, 270)</PROPERTY>
</VARIABLE>
<!-- Variables -->
<VARIABLE TYPE="nature">
    <NAME>node79</NAME>
    <OUTCOME>state0</OUTCOME>
    <OUTCOME>state1</OUTCOME>
    <PROPERTY>position = (3764, 255)</PROPERTY>
</VARIABLE>
<!-- Variables -->
<VARIABLE TYPE="nature">
    <NAME>node80</NAME>
    <OUTCOME>state0</OUTCOME>
    <OUTCOME>state1</OUTCOME>
    <PROPERTY>position = (3884, 269)</PROPERTY>
</VARIABLE>
<!-- Variables -->
<VARIABLE TYPE="nature">
    <NAME>node81</NAME>
    <OUTCOME>state0</OUTCOME>
    <OUTCOME>state1</OUTCOME>
    <PROPERTY>position = (3735, 135)</PROPERTY>
</VARIABLE>
<!-- Variables -->
<VARIABLE TYPE="nature">
    <NAME>node82</NAME>
    <OUTCOME>state0</OUTCOME>
    <OUTCOME>state1</OUTCOME>
    <PROPERTY>position = (735, 390)</PROPERTY>
</VARIABLE>
<!-- Variables -->
<VARIABLE TYPE="nature">
    <NAME>node83</NAME>
    <OUTCOME>state0</OUTCOME>
    <OUTCOME>state1</OUTCOME>
    <PROPERTY>position = (4004, 284)</PROPERTY>
</VARIABLE>
<!-- Variables -->
<VARIABLE TYPE="nature">
    <NAME>node84</NAME>
    <OUTCOME>state0</OUTCOME>
    <OUTCOME>state1</OUTCOME>
    <PROPERTY>position = (3855, 149)</PROPERTY>
</VARIABLE>
<!-- Variables -->
<VARIABLE TYPE="nature">
    <NAME>node85</NAME>
    <OUTCOME>state0</OUTCOME>
    <OUTCOME>state1</OUTCOME>
    <PROPERTY>position = (3975, 164)</PROPERTY>
</VARIABLE>
<!-- Variables -->
<VARIABLE TYPE="nature">
    <NAME>node86</NAME>
    <OUTCOME>state0</OUTCOME>
    <OUTCOME>state1</OUTCOME>
    <PROPERTY>position = (4095, 150)</PROPERTY>
</VARIABLE>
<!-- Variables -->
<VARIABLE TYPE="nature">
    <NAME>node87</NAME>
    <OUTCOME>state0</OUTCOME>
    <OUTCOME>state1</OUTCOME>
    <PROPERTY>position = (1365, 15)</PROPERTY>
</VARIABLE>
<!-- Variables -->
<VARIABLE TYPE="nature">
    <NAME>node88</NAME>
    <OUTCOME>state0</OUTCOME>
    <OUTCOME>state1</OUTCOME>
    <PROPERTY>position = (4215, 135)</PROPERTY>
</VARIABLE>
<!-- Variables -->
<VARIABLE TYPE="nature">
    <NAME>node89</NAME>
    <OUTCOME>state0</OUTCOME>
    <OUTCOME>state1</OUTCOME>
    <PROPERTY>position = (4335, 149)</PROPERTY>
</VARIABLE>
<!-- Probability Distributions -->
 <DEFINITION>
      <FOR>node0</FOR>
     <TABLE>0.17322356 0.82677644 </TABLE>
 </DEFINITION>
 <DEFINITION>
      <FOR>node1</FOR>
      <GIVEN>node24</GIVEN>
      <GIVEN>node40</GIVEN>
     <TABLE>0.15856199 0.841438 0.37944517 0.6205548 0.13396394 0.86603606 0.8444025 0.15559752 </TABLE>
 </DEFINITION>
 <DEFINITION>
      <FOR>node2</FOR>
      <GIVEN>node36</GIVEN>
      <GIVEN>node71</GIVEN>
     <TABLE>0.3478737 0.6521263 0.6210498 0.3789502 0.5370927 0.46290734 0.20427065 0.79572934 </TABLE>
 </DEFINITION>
 <DEFINITION>
      <FOR>node3</FOR>
     <TABLE>0.77702487 0.22297512 </TABLE>
 </DEFINITION>
 <DEFINITION>
      <FOR>node4</FOR>
     <TABLE>0.83687294 0.16312706 </TABLE>
 </DEFINITION>
 <DEFINITION>
      <FOR>node5</FOR>
      <GIVEN>node59</GIVEN>
     <TABLE>0.60897875 0.3910212 0.22253864 0.77746135 </TABLE>
 </DEFINITION>
 <DEFINITION>
      <FOR>node6</FOR>
      <GIVEN>node4</GIVEN>
      <GIVEN>node16</GIVEN>
     <TABLE>0.121271014 0.878729 0.028623296 0.97137666 0.79041857 0.2095814 0.1183079 0.8816921 </TABLE>
 </DEFINITION>
 <DEFINITION>
      <FOR>node7</FOR>
      <GIVEN>node78</GIVEN>
     <TABLE>0.6580297 0.34197032 0.9850419 0.014958081 </TABLE>
 </DEFINITION>
 <DEFINITION>
      <FOR>node8</FOR>
      <GIVEN>node4</GIVEN>
      <GIVEN>node42</GIVEN>
     <TABLE>0.19880058 0.80119944 0.3465794 0.65342057 0.062827334 0.93717265 0.5168993 0.48310068 </TABLE>
 </DEFINITION>
 <DEFINITION>
      <FOR>node9</FOR>
      <GIVEN>node69</GIVEN>
      <GIVEN>node88</GIVEN>
     <TABLE>0.40810648 0.5918935 0.95402986 0.04597019 0.59324497 0.40675503 0.31807628 0.6819237 </TABLE>
 </DEFINITION>
 <DEFINITION>
      <FOR>node10</FOR>
      <GIVEN>node46</GIVEN>
     <TABLE>0.29513302 0.704867 0.95670784 0.04329219 </TABLE>
 </DEFINITION>
 <DEFINITION>
      <FOR>node11</FOR>
      <GIVEN>node5</GIVEN>
      <GIVEN>node74</GIVEN>
     <TABLE>0.52742 0.47258 0.40894192 0.5910581 0.2562859 0.74371403 0.13968422 0.86031574 </TABLE>
 </DEFINITION>
 <DEFINITION>
      <FOR>node12</FOR>
      <GIVEN>node41</GIVEN>
     <TABLE>0.860783 0.13921702 0.02060647 0.97939354 </TABLE>
 </DEFINITION>
 <DEFINITION>
      <FOR>node13</FOR>
      <GIVEN>node2</GIVEN>
      <GIVEN>node44</GIVEN>
      <GIVEN>node54</GIVEN>
     <TABLE>0.6397434 0.36025667 0.6426137 0.3573863 0.6172093 0.38279065 0.20893186 0.79106814 0.9945123 0.0054876334 0.726144 0.27385598 0.7088757 0.29112422 0.96119636 0.03880365 </TABLE>
 </DEFINITION>
 <DEFINITION>
      <FOR>node14</FOR>
      <GIVEN>node44</GIVEN>
      <GIVEN>node22</GIVEN>
     <TABLE>0.10685725 0.8931427 0.6449368 0.35506326 0.13913998 0.86086005 0.7074443 0.29255572 </TABLE>
 </DEFINITION>
 <DEFINITION>
      <FOR>node15</FOR>
      <GIVEN>node72</GIVEN>
     <TABLE>0.2237097 0.77629036 0.43617877 0.5638212 </TABLE>
 </DEFINITION>
 <DEFINITION>
      <FOR>node16</FOR>
      <GIVEN>node73</GIVEN>
      <GIVEN>node1</GIVEN>
     <TABLE>0.048671007 0.951329 0.10351581 0.8964842 0.83867955 0.16132045 0.13790035 0.86209965 </TABLE>
 </DEFINITION>
 <DEFINITION>
      <FOR>node17</FOR>
     <TABLE>0.9066482 0.0933518 </TABLE>
 </DEFINITION>
 <DEFINITION>
      <FOR>node18</FOR>
      <GIVEN>node36</GIVEN>
     <TABLE>0.5424174 0.4575826 0.6125639 0.38743603 </TABLE>
 </DEFINITION>
 <DEFINITION>
      <FOR>node19</FOR>
      <GIVEN>node27</GIVEN>
      <GIVEN>node89</GIVEN>
     <TABLE>0.113838166 0.8861618 0.80493563 0.19506432 0.20569572 0.7943043 0.36784577 0.6321543 </TABLE>
 </DEFINITION>
 <DEFINITION>
      <FOR>node20</FOR>
      <GIVEN>node26</GIVEN>
      <GIVEN>node18</GIVEN>
      <GIVEN>node45</GIVEN>
     <TABLE>0.80063653 0.19936351 0.42310616 0.57689387 0.34749678 0.65250325 0.6483653 0.35163468 0.3663015 0.63369846 0.07731154 0.9226884 0.24739735 0.75260264 0.52897084 0.47102916 </TABLE>
 </DEFINITION>
 <DEFINITION>
      <FOR>node21</FOR>
      <GIVEN>node29</GIVEN>
     <TABLE>0.9887678 0.011232205 0.23936397 0.76063603 </TABLE>
 </DEFINITION>
 <DEFINITION>
      <FOR>node22</FOR>
     <TABLE>0.34684595 0.6531541 </TABLE>
 </DEFINITION>
 <DEFINITION>
      <FOR>node23</FOR>
      <GIVEN>node24</GIVEN>
     <TABLE>0.6927278 0.3072722 0.8569397 0.14306027 </TABLE>
 </DEFINITION>
 <DEFINITION>
      <FOR>node24</FOR>
     <TABLE>0.65844846 0.34155154 </TABLE>
 </DEFINITION>
 <DEFINITION>
      <FOR>node25</FOR>
      <GIVEN>node23</GIVEN>
     <TABLE>0.6735305 0.32646942 0.76268595 0.23731409 </TABLE>
 </DEFINITION>
 <DEFINITION>
      <FOR>node26</FOR>
     <TABLE>0.029259222 0.9707408 </TABLE>
 </DEFINITION>
 <DEFINITION>
      <FOR>node27</FOR>
      <GIVEN>node30</GIVEN>
     <TABLE>0.04914452 0.9508555 0.9433657 0.05663431 </TABLE>
 </DEFINITION>
 <DEFINITION>
      <FOR>node28</FOR>
      <GIVEN>node83</GIVEN>
      <GIVEN>node49</GIVEN>
     <TABLE>0.08003933 0.9199607 0.0799955 0.9200045 0.075496055 0.924504 0.54312253 0.4568774 </TABLE>
 </DEFINITION>
 <DEFINITION>
      <FOR>node29</FOR>
      <GIVEN>node64</GIVEN>
     <TABLE>0.6168068 0.38319325 0.048012495 0.95198745 </TABLE>
 </DEFINITION>
 <DEFINITION>
      <FOR>node30</FOR>
      <GIVEN>node15</GIVEN>
      <GIVEN>node7</GIVEN>
     <TABLE>0.5691228 0.43087715 0.09757903 0.90242094 0.04627989 0.9537201 0.8694982 0.13050178 </TABLE>
 </DEFINITION>
 <DEFINITION>
      <FOR>node31</FOR>
      <GIVEN>node33</GIVEN>
     <TABLE>0.756937 0.24306297 0.49162063 0.50837934 </TABLE>
 </DEFINITION>
 <DEFINITION>
      <FOR>node32</FOR>
      <GIVEN>node29</GIVEN>
     <TABLE>0.8825055 0.117494486 0.19279873 0.80720127 </TABLE>
 </DEFINITION>
 <DEFINITION>
      <FOR>node33</FOR>
     <TABLE>0.5975959 0.4024041 </TABLE>
 </DEFINITION>
 <DEFINITION>
      <FOR>node34</FOR>
      <GIVEN>node62</GIVEN>
      <GIVEN>node9</GIVEN>
     <TABLE>0.078455456 0.92154455 0.4810506 0.51894933 0.40458813 0.5954119 0.3771592 0.6228408 </TABLE>
 </DEFINITION>
 <DEFINITION>
      <FOR>node35</FOR>
      <GIVEN>node86</GIVEN>
     <TABLE>0.2706822 0.72931784 0.8087887 0.19121124 </TABLE>
 </DEFINITION>
 <DEFINITION>
      <FOR>node36</FOR>
      <GIVEN>node25</GIVEN>
     <TABLE>0.9377687 0.062231313 0.20829967 0.79170036 </TABLE>
 </DEFINITION>
 <DEFINITION>
      <FOR>node37</FOR>
      <GIVEN>node5</GIVEN>
     <TABLE>0.09757313 0.90242684 0.9325737 0.06742631 </TABLE>
 </DEFINITION>
 <DEFINITION>
      <FOR>node38</FOR>
      <GIVEN>node55</GIVEN>
      <GIVEN>node17</GIVEN>
     <TABLE>0.6036413 0.39635867 0.39634565 0.6036544 0.15332209 0.84667796 0.091528304 0.9084717 </TABLE>
 </DEFINITION>
 <DEFINITION>
      <FOR>node39</FOR>
      <GIVEN>node18</GIVEN>
      <GIVEN>node47</GIVEN>
     <TABLE>0.8601867 0.13981327 0.31662127 0.68337876 0.34214625 0.6578537 0.7410079 0.2589921 </TABLE>
 </DEFINITION>
 <DEFINITION>
      <FOR>node40</FOR>
      <GIVEN>node4</GIVEN>
      <GIVEN>node39</GIVEN>
     <TABLE>0.99203783 0.007962133 0.62316257 0.3768374 0.7287414 0.27125862 0.6205355 0.37946454 </TABLE>
 </DEFINITION>
 <DEFINITION>
      <FOR>node41</FOR>
      <GIVEN>node54</GIVEN>
      <GIVEN>node84</GIVEN>
     <TABLE>0.2835358 0.7164642 0.6667313 0.33326867 0.13543181 0.8645682 0.21521887 0.7847811 </TABLE>
 </DEFINITION>
 <DEFINITION>
      <FOR>node42</FOR>
      <GIVEN>node51</GIVEN>
     <TABLE>0.13378225 0.8662178 0.5905688 0.4094312 </TABLE>
 </DEFINITION>
 <DEFINITION>
      <FOR>node43</FOR>
      <GIVEN>node75</GIVEN>
     <TABLE>0.99267197 0.0073280316 0.047470495 0.9525295 </TABLE>
 </DEFINITION>
 <DEFINITION>
      <FOR>node44</FOR>
      <GIVEN>node7</GIVEN>
     <TABLE>0.55875945 0.44124052 0.74932617 0.25067383 </TABLE>
 </DEFINITION>
 <DEFINITION>
      <FOR>node45</FOR>
      <GIVEN>node55</GIVEN>
      <GIVEN>node81</GIVEN>
     <TABLE>0.5199014 0.48009863 0.8398988 0.1601012 8.345173E-4 0.9991655 0.4562085 0.54379153 </TABLE>
 </DEFINITION>
 <DEFINITION>
      <FOR>node46</FOR>
      <GIVEN>node52</GIVEN>
     <TABLE>0.21209668 0.7879033 0.6631482 0.33685175 </TABLE>
 </DEFINITION>
 <DEFINITION>
      <FOR>node47</FOR>
      <GIVEN>node42</GIVEN>
     <TABLE>0.88287824 0.11712174 0.24173471 0.7582653 </TABLE>
 </DEFINITION>
 <DEFINITION>
      <FOR>node48</FOR>
      <GIVEN>node22</GIVEN>
      <GIVEN>node32</GIVEN>
     <TABLE>0.35689762 0.64310235 0.8827911 0.11720888 0.42124715 0.5787529 0.58017606 0.41982397 </TABLE>
 </DEFINITION>
 <DEFINITION>
      <FOR>node49</FOR>
      <GIVEN>node57</GIVEN>
      <GIVEN>node51</GIVEN>
     <TABLE>0.7678224 0.23217757 0.035147015 0.964853 0.6024648 0.3975352 0.34649688 0.65350306 </TABLE>
 </DEFINITION>
 <DEFINITION>
      <FOR>node50</FOR>
      <GIVEN>node69</GIVEN>
      <GIVEN>node10</GIVEN>
      <GIVEN>node59</GIVEN>
     <TABLE>0.28270832 0.7172917 0.78098154 0.2190184 0.21579124 0.7842088 0.6813935 0.31860653 0.48943207 0.51056796 0.95972264 0.04027736 0.39026597 0.609734 0.43599287 0.56400716 </TABLE>
 </DEFINITION>
 <DEFINITION>
      <FOR>node51</FOR>
     <TABLE>0.20440146 0.79559857 </TABLE>
 </DEFINITION>
 <DEFINITION>
      <FOR>node52</FOR>
      <GIVEN>node0</GIVEN>
      <GIVEN>node87</GIVEN>
     <TABLE>0.4872297 0.5127703 0.59893423 0.40106574 0.26453683 0.7354632 0.72802544 0.2719746 </TABLE>
 </DEFINITION>
 <DEFINITION>
      <FOR>node53</FOR>
      <GIVEN>node12</GIVEN>
      <GIVEN>node43</GIVEN>
     <TABLE>0.84890157 0.15109842 0.741447 0.25855306 0.22020257 0.77979743 0.926616 0.07338395 </TABLE>
 </DEFINITION>
 <DEFINITION>
      <FOR>node54</FOR>
      <GIVEN>node67</GIVEN>
     <TABLE>0.13045584 0.86954415 0.82778764 0.1722124 </TABLE>
 </DEFINITION>
 <DEFINITION>
      <FOR>node55</FOR>
     <TABLE>0.24190737 0.7580926 </TABLE>
 </DEFINITION>
 <DEFINITION>
      <FOR>node56</FOR>
      <GIVEN>node3</GIVEN>
      <GIVEN>node0</GIVEN>
     <TABLE>0.866114 0.13388593 0.20249528 0.7975047 0.9420602 0.057939846 0.44296965 0.5570303 </TABLE>
 </DEFINITION>
 <DEFINITION>
      <FOR>node57</FOR>
      <GIVEN>node38</GIVEN>
      <GIVEN>node22</GIVEN>
     <TABLE>0.6241049 0.37589505 0.30310166 0.69689834 0.10640305 0.89359695 0.56182086 0.43817917 </TABLE>
 </DEFINITION>
 <DEFINITION>
      <FOR>node58</FOR>
      <GIVEN>node15</GIVEN>
      <GIVEN>node33</GIVEN>
      <GIVEN>node68</GIVEN>
     <TABLE>0.1560534 0.84394664 0.8192077 0.18079227 0.51367277 0.4863273 0.66946113 0.33053884 0.49398422 0.50601584 0.87072295 0.12927711 0.48365712 0.5163429 0.39133587 0.6086642 </TABLE>
 </DEFINITION>
 <DEFINITION>
      <FOR>node59</FOR>
      <GIVEN>node23</GIVEN>
     <TABLE>0.2745554 0.7254446 0.46398014 0.53601986 </TABLE>
 </DEFINITION>
 <DEFINITION>
      <FOR>node60</FOR>
      <GIVEN>node31</GIVEN>
      <GIVEN>node6</GIVEN>
      <GIVEN>node37</GIVEN>
     <TABLE>0.59035647 0.40964353 0.7406632 0.2593368 0.5323936 0.4676064 0.42877987 0.5712201 0.016022645 0.9839773 0.6190829 0.3809171 0.021235075 0.97876495 0.5923428 0.40765724 </TABLE>
 </DEFINITION>
 <DEFINITION>
      <FOR>node61</FOR>
      <GIVEN>node33</GIVEN>
      <GIVEN>node21</GIVEN>
      <GIVEN>node8</GIVEN>
     <TABLE>0.3885207 0.6114793 0.91892755 0.08107247 0.32117698 0.678823 0.13466595 0.86533403 0.1060969 0.8939031 0.21335022 0.7866498 0.9784569 0.021543102 0.15087691 0.84912306 </TABLE>
 </DEFINITION>
 <DEFINITION>
      <FOR>node62</FOR>
      <GIVEN>node26</GIVEN>
      <GIVEN>node87</GIVEN>
     <TABLE>0.27443907 0.72556096 0.23245497 0.76754504 0.1560985 0.8439015 0.94486064 0.05513934 </TABLE>
 </DEFINITION>
 <DEFINITION>
      <FOR>node63</FOR>
      <GIVEN>node35</GIVEN>
      <GIVEN>node87</GIVEN>
     <TABLE>0.13990554 0.8600945 0.05518632 0.9448137 0.13756508 0.8624349 0.35329804 0.646702 </TABLE>
 </DEFINITION>
 <DEFINITION>
      <FOR>node64</FOR>
      <GIVEN>node31</GIVEN>
      <GIVEN>node25</GIVEN>
     <TABLE>0.5787541 0.4212458 0.5071127 0.4928873 0.61799103 0.38200894 0.08481749 0.9151825 </TABLE>
 </DEFINITION>
 <DEFINITION>
      <FOR>node65</FOR>
      <GIVEN>node46</GIVEN>
     <TABLE>0.37855846 0.62144154 0.68296975 0.31703025 </TABLE>
 </DEFINITION>
 <DEFINITION>
      <FOR>node66</FOR>
      <GIVEN>node3</GIVEN>
      <GIVEN>node84</GIVEN>
     <TABLE>0.94138575 0.058614243 0.4791001 0.52089995 0.971999 0.028001048 0.79992646 0.20007351 </TABLE>
 </DEFINITION>
 <DEFINITION>
      <FOR>node67</FOR>
      <GIVEN>node75</GIVEN>
      <GIVEN>node34</GIVEN>
     <TABLE>0.6141502 0.38584977 0.67268926 0.3273107 0.6484766 0.3515234 0.80545217 0.19454783 </TABLE>
 </DEFINITION>
 <DEFINITION>
      <FOR>node68</FOR>
      <GIVEN>node19</GIVEN>
     <TABLE>0.80886394 0.19113608 0.22511624 0.7748838 </TABLE>
 </DEFINITION>
 <DEFINITION>
      <FOR>node69</FOR>
      <GIVEN>node80</GIVEN>
     <TABLE>0.20650613 0.7934939 0.6482278 0.35177213 </TABLE>
 </DEFINITION>
 <DEFINITION>
      <FOR>node70</FOR>
      <GIVEN>node89</GIVEN>
     <TABLE>0.7612316 0.23876841 0.32483622 0.6751638 </TABLE>
 </DEFINITION>
 <DEFINITION>
      <FOR>node71</FOR>
      <GIVEN>node76</GIVEN>
      <GIVEN>node63</GIVEN>
     <TABLE>0.4192389 0.58076113 0.79464304 0.20535696 0.4551477 0.54485226 0.58604175 0.4139582 </TABLE>
 </DEFINITION>
 <DEFINITION>
      <FOR>node72</FOR>
      <GIVEN>node79</GIVEN>
     <TABLE>0.6350009 0.36499915 0.7395273 0.26047274 </TABLE>
 </DEFINITION>
 <DEFINITION>
      <FOR>node73</FOR>
      <GIVEN>node28</GIVEN>
     <TABLE>0.8011648 0.19883515 0.26923943 0.7307606 </TABLE>
 </DEFINITION>
 <DEFINITION>
      <FOR>node74</FOR>
      <GIVEN>node0</GIVEN>
     <TABLE>0.5241119 0.47588807 0.91166097 0.088339075 </TABLE>
 </DEFINITION>
 <DEFINITION>
      <FOR>node75</FOR>
     <TABLE>0.8757708 0.1242292 </TABLE>
 </DEFINITION>
 <DEFINITION>
      <FOR>node76</FOR>
      <GIVEN>node3</GIVEN>
      <GIVEN>node74</GIVEN>
     <TABLE>0.5421182 0.45788184 0.9621943 0.03780566 0.58597285 0.41402715 0.55097795 0.4490221 </TABLE>
 </DEFINITION>
 <DEFINITION>
      <FOR>node77</FOR>
      <GIVEN>node17</GIVEN>
     <TABLE>0.32052952 0.67947054 0.28757086 0.7124291 </TABLE>
 </DEFINITION>
 <DEFINITION>
      <FOR>node78</FOR>
      <GIVEN>node86</GIVEN>
      <GIVEN>node81</GIVEN>
     <TABLE>0.6374434 0.36255658 0.6242808 0.3757192 0.51349527 0.48650473 0.83621746 0.16378258 </TABLE>
 </DEFINITION>
 <DEFINITION>
      <FOR>node79</FOR>
      <GIVEN>node14</GIVEN>
      <GIVEN>node65</GIVEN>
     <TABLE>0.082034595 0.9179654 0.3024662 0.6975338 0.6545643 0.34543565 0.090768784 0.90923125 </TABLE>
 </DEFINITION>
 <DEFINITION>
      <FOR>node80</FOR>
      <GIVEN>node37</GIVEN>
      <GIVEN>node70</GIVEN>
     <TABLE>0.4046925 0.59530747 0.16282415 0.8371759 0.89139307 0.108606935 0.3685595 0.6314405 </TABLE>
 </DEFINITION>
 <DEFINITION>
      <FOR>node81</FOR>
      <GIVEN>node77</GIVEN>
     <TABLE>0.559533 0.44046697 0.5182117 0.48178834 </TABLE>
 </DEFINITION>
 <DEFINITION>
      <FOR>node82</FOR>
      <GIVEN>node66</GIVEN>
      <GIVEN>node68</GIVEN>
      <GIVEN>node48</GIVEN>
     <TABLE>0.29976538 0.70023465 0.99867064 0.0013293434 0.00557403 0.99442595 0.3227199 0.67728007 0.4072685 0.5927315 0.18413472 0.81586534 0.18297815 0.81702185 0.2850907 0.71490926 </TABLE>
 </DEFINITION>
 <DEFINITION>
      <FOR>node83</FOR>
      <GIVEN>node11</GIVEN>
      <GIVEN>node88</GIVEN>
     <TABLE>0.80590564 0.1940944 0.100958124 0.8990419 0.021940716 0.9780593 0.645486 0.35451397 </TABLE>
 </DEFINITION>
 <DEFINITION>
      <FOR>node84</FOR>
      <GIVEN>node43</GIVEN>
     <TABLE>0.90505797 0.09494202 0.94464684 0.055353172 </TABLE>
 </DEFINITION>
 <DEFINITION>
      <FOR>node85</FOR>
      <GIVEN>node26</GIVEN>
     <TABLE>0.82205355 0.17794643 0.8143252 0.18567474 </TABLE>
 </DEFINITION>
 <DEFINITION>
      <FOR>node86</FOR>
      <GIVEN>node85</GIVEN>
     <TABLE>0.6250911 0.37490898 0.8459842 0.15401581 </TABLE>
 </DEFINITION>
 <DEFINITION>
      <FOR>node87</FOR>
     <TABLE>0.74858963 0.25141034 </TABLE>
 </DEFINITION>
 <DEFINITION>
      <FOR>node88</FOR>
      <GIVEN>node70</GIVEN>
     <TABLE>0.45557272 0.54442734 0.45146263 0.5485374 </TABLE>
 </DEFINITION>
 <DEFINITION>
      <FOR>node89</FOR>
      <GIVEN>node51</GIVEN>
     <TABLE>0.8493099 0.15069008 0.62112653 0.37887344 </TABLE>
 </DEFINITION>
</NETWORK>
</BIF>
