<?xml version="1.0" encoding="US-ASCII"?>


<!--
	Bayesian network in XMLBIF v0.3 (BayesNet Interchange Format)
	Produced by JavaBayes (http://www.cs.cmu.edu/~javabayes/
	Number of nodes:20
	Output created Mon Oct 09 18:59:00 EDT 2006
-->



<BIF VERSION="0.3">
<NETWORK>
<NAME>example7</NAME>
<!-- Variables -->
<VARIABLE TYPE="nature">
    <NAME>node0</NAME>
    <OUTCOME>state0</OUTCOME>
    <OUTCOME>state1</OUTCOME>
    <OUTCOME>state2</OUTCOME>
    <PROPERTY>position = (44, 270)</PROPERTY>
</VARIABLE>
<!-- Variables -->
<VARIABLE TYPE="nature">
    <NAME>node1</NAME>
    <OUTCOME>state0</OUTCOME>
    <OUTCOME>state1</OUTCOME>
    <PROPERTY>position = (15, 150)</PROPERTY>
</VARIABLE>
<!-- Variables -->
<VARIABLE TYPE="nature">
    <NAME>node2</NAME>
    <OUTCOME>state0</OUTCOME>
    <OUTCOME>state1</OUTCOME>
    <OUTCOME>state2</OUTCOME>
    <OUTCOME>state3</OUTCOME>
    <PROPERTY>position = (15, 390)</PROPERTY>
</VARIABLE>
<!-- Variables -->
<VARIABLE TYPE="nature">
    <NAME>node3</NAME>
    <OUTCOME>state0</OUTCOME>
    <OUTCOME>state1</OUTCOME>
    <OUTCOME>state2</OUTCOME>
    <PROPERTY>position = (135, 164)</PROPERTY>
</VARIABLE>
<!-- Variables -->
<VARIABLE TYPE="nature">
    <NAME>node4</NAME>
    <OUTCOME>state0</OUTCOME>
    <OUTCOME>state1</OUTCOME>
    <PROPERTY>position = (255, 150)</PROPERTY>
</VARIABLE>
<!-- Variables -->
<VARIABLE TYPE="nature">
    <NAME>node5</NAME>
    <OUTCOME>state0</OUTCOME>
    <OUTCOME>state1</OUTCOME>
    <PROPERTY>position = (135, 404)</PROPERTY>
</VARIABLE>
<!-- Variables -->
<VARIABLE TYPE="nature">
    <NAME>node6</NAME>
    <OUTCOME>state0</OUTCOME>
    <OUTCOME>state1</OUTCOME>
    <OUTCOME>state2</OUTCOME>
    <PROPERTY>position = (45, 30)</PROPERTY>
</VARIABLE>
<!-- Variables -->
<VARIABLE TYPE="nature">
    <NAME>node7</NAME>
    <OUTCOME>state0</OUTCOME>
    <OUTCOME>state1</OUTCOME>
    <OUTCOME>state2</OUTCOME>
    <OUTCOME>state3</OUTCOME>
    <PROPERTY>position = (375, 135)</PROPERTY>
</VARIABLE>
<!-- Variables -->
<VARIABLE TYPE="nature">
    <NAME>node8</NAME>
    <OUTCOME>state0</OUTCOME>
    <OUTCOME>state1</OUTCOME>
    <OUTCOME>state2</OUTCOME>
    <OUTCOME>state3</OUTCOME>
    <OUTCOME>state4</OUTCOME>
    <PROPERTY>position = (255, 390)</PROPERTY>
</VARIABLE>
<!-- Variables -->
<VARIABLE TYPE="nature">
    <NAME>node9</NAME>
    <OUTCOME>state0</OUTCOME>
    <OUTCOME>state1</OUTCOME>
    <OUTCOME>state2</OUTCOME>
    <OUTCOME>state3</OUTCOME>
    <PROPERTY>position = (165, 44)</PROPERTY>
</VARIABLE>
<!-- Variables -->
<VARIABLE TYPE="nature">
    <NAME>node10</NAME>
    <OUTCOME>state0</OUTCOME>
    <OUTCOME>state1</OUTCOME>
    <OUTCOME>state2</OUTCOME>
    <OUTCOME>state3</OUTCOME>
    <PROPERTY>position = (164, 284)</PROPERTY>
</VARIABLE>
<!-- Variables -->
<VARIABLE TYPE="nature">
    <NAME>node11</NAME>
    <OUTCOME>state0</OUTCOME>
    <OUTCOME>state1</OUTCOME>
    <OUTCOME>state2</OUTCOME>
    <PROPERTY>position = (284, 270)</PROPERTY>
</VARIABLE>
<!-- Variables -->
<VARIABLE TYPE="nature">
    <NAME>node12</NAME>
    <OUTCOME>state0</OUTCOME>
    <OUTCOME>state1</OUTCOME>
    <OUTCOME>state2</OUTCOME>
    <PROPERTY>position = (495, 149)</PROPERTY>
</VARIABLE>
<!-- Variables -->
<VARIABLE TYPE="nature">
    <NAME>node13</NAME>
    <OUTCOME>state0</OUTCOME>
    <OUTCOME>state1</OUTCOME>
    <OUTCOME>state2</OUTCOME>
    <OUTCOME>state3</OUTCOME>
    <OUTCOME>state4</OUTCOME>
    <PROPERTY>position = (615, 164)</PROPERTY>
</VARIABLE>
<!-- Variables -->
<VARIABLE TYPE="nature">
    <NAME>node14</NAME>
    <OUTCOME>state0</OUTCOME>
    <OUTCOME>state1</OUTCOME>
    <OUTCOME>state2</OUTCOME>
    <OUTCOME>state3</OUTCOME>
    <PROPERTY>position = (285, 30)</PROPERTY>
</VARIABLE>
<!-- Variables -->
<VARIABLE TYPE="nature">
    <NAME>node15</NAME>
    <OUTCOME>state0</OUTCOME>
    <OUTCOME>state1</OUTCOME>
    <PROPERTY>position = (404, 255)</PROPERTY>
</VARIABLE>
<!-- Variables -->
<VARIABLE TYPE="nature">
    <NAME>node16</NAME>
    <OUTCOME>state0</OUTCOME>
    <OUTCOME>state1</OUTCOME>
    <PROPERTY>position = (735, 150)</PROPERTY>
</VARIABLE>
<!-- Variables -->
<VARIABLE TYPE="nature">
    <NAME>node17</NAME>
    <OUTCOME>state0</OUTCOME>
    <OUTCOME>state1</OUTCOME>
    <PROPERTY>position = (375, 375)</PROPERTY>
</VARIABLE>
<!-- Variables -->
<VARIABLE TYPE="nature">
    <NAME>node18</NAME>
    <OUTCOME>state0</OUTCOME>
    <OUTCOME>state1</OUTCOME>
    <OUTCOME>state2</OUTCOME>
    <OUTCOME>state3</OUTCOME>
    <PROPERTY>position = (855, 135)</PROPERTY>
</VARIABLE>
<!-- Variables -->
<VARIABLE TYPE="nature">
    <NAME>node19</NAME>
    <OUTCOME>state0</OUTCOME>
    <OUTCOME>state1</OUTCOME>
    <OUTCOME>state2</OUTCOME>
    <OUTCOME>state3</OUTCOME>
    <PROPERTY>position = (405, 15)</PROPERTY>
</VARIABLE>
<!-- Probability Distributions -->
 <DEFINITION>
      <FOR>node0</FOR>
      <GIVEN>node4</GIVEN>
      <GIVEN>node6</GIVEN>
     <TABLE>0.276375 0.31850937 0.40511563 0.064909734 0.9341585 9.316886E-4 0.03410918 0.047600962 0.9182899 0.31490558 0.22330773 0.4617867 0.14789242 0.8276013 0.024506304 0.31929192 0.08322634 0.5974817 </TABLE>
 </DEFINITION>
 <DEFINITION>
      <FOR>node1</FOR>
      <GIVEN>node4</GIVEN>
     <TABLE>0.7672658 0.23273419 0.93649685 0.063503146 </TABLE>
 </DEFINITION>
 <DEFINITION>
      <FOR>node2</FOR>
      <GIVEN>node14</GIVEN>
      <GIVEN>node11</GIVEN>
      <GIVEN>node12</GIVEN>
     <TABLE>0.9132456 0.045767106 0.022681674 0.018305555 0.31288338 0.006194252 0.25175497 0.42916736 0.011268377 0.054473296 0.032249324 0.902009 0.10937962 0.011827667 0.48349443 0.39529827 0.334081 0.19480559 0.4391926 0.03192083 0.11920422 0.44090396 0.27560788 0.1642839 0.23382157 0.25130236 0.4819472 0.032928795 0.81239396 0.07322076 0.107019745 0.0073655085 0.07784964 0.19337037 0.26836163 0.4604183 0.004338332 0.3009587 0.34991896 0.34478396 0.019132013 0.34739053 0.038731504 0.59474605 0.46561566 0.24123585 0.15745927 0.13568927 0.3487599 0.28419685 0.28154773 0.08549552 0.13819852 0.37309408 0.25061285 0.23809448 0.1754145 0.41167262 0.1304851 0.28242782 0.06916315 0.16001089 0.25391987 0.516906 0.17048986 0.42902896 0.16123098 0.23925026 0.03326154 0.67120206 0.020492364 0.27504396 0.26445648 0.4347855 0.13927627 0.16148172 0.12319786 0.42121586 0.31654644 0.13903989 0.1725234 0.45368597 0.12112951 0.25266108 0.52887726 0.09545118 0.15627255 0.21939911 0.6482982 0.08810409 0.20552094 0.058076795 0.24013236 0.16135842 0.5579596 0.040549584 0.1468898 0.4749265 0.07425806 0.3039257 0.3588448 0.3942161 0.046961654 0.19997746 0.5012917 0.1411178 0.18616343 0.17142701 0.07221577 0.11729625 0.42441553 0.3860725 0.11103727 0.1741258 0.2803509 0.43448597 0.4909475 0.35710943 0.13566121 0.01628181 0.61245507 0.2916592 0.09086822 0.005017596 0.21878771 0.4895772 0.23096628 0.060668856 0.18483219 0.06759886 0.7037671 0.043801874 0.27322996 0.23032919 0.3874378 0.109003074 0.5102242 0.08634544 0.25515082 0.14827947 0.29849046 0.2828037 0.32393098 0.0947749 </TABLE>
 </DEFINITION>
 <DEFINITION>
      <FOR>node3</FOR>
      <GIVEN>node6</GIVEN>
     <TABLE>0.11159453 0.6554898 0.23291568 0.7936721 0.13380697 0.072521 0.48229206 0.29865304 0.21905495 </TABLE>
 </DEFINITION>
 <DEFINITION>
      <FOR>node4</FOR>
      <GIVEN>node9</GIVEN>
     <TABLE>0.52119833 0.47880164 0.33862922 0.6613708 0.98295003 0.01704994 0.49973482 0.5002651 </TABLE>
 </DEFINITION>
 <DEFINITION>
      <FOR>node5</FOR>
      <GIVEN>node18</GIVEN>
      <GIVEN>node19</GIVEN>
      <GIVEN>node15</GIVEN>
     <TABLE>0.84288305 0.15711698 0.8588255 0.1411745 0.8050135 0.19498649 0.973737 0.02626298 0.79066825 0.2093318 0.24962753 0.7503725 0.83864665 0.16135333 0.547573 0.45242703 0.5983227 0.40167728 0.60288507 0.397115 0.96029264 0.039707363 0.30119997 0.69879997 0.28099722 0.7190028 0.4981216 0.5018784 0.7055799 0.29442018 0.56581104 0.43418902 0.49610916 0.5038908 0.8364119 0.16358814 0.7674441 0.23255591 0.4042699 0.5957301 0.7544842 0.24551584 0.31659564 0.6834043 0.8188539 0.18114614 0.7240032 0.27599674 0.9062652 0.09373477 0.45197755 0.54802245 0.43496814 0.5650319 0.7132506 0.28674942 0.9804012 0.019598769 0.118984565 0.8810154 0.44566265 0.5543374 0.22587304 0.77412695 </TABLE>
 </DEFINITION>
 <DEFINITION>
      <FOR>node6</FOR>
     <TABLE>0.14355923 0.115449496 0.74099123 </TABLE>
 </DEFINITION>
 <DEFINITION>
      <FOR>node7</FOR>
      <GIVEN>node3</GIVEN>
     <TABLE>0.12604463 0.51923627 0.2309466 0.123772554 0.20180437 0.115505256 0.39298564 0.28970468 0.54451114 0.027758075 0.28752074 0.14021012 </TABLE>
 </DEFINITION>
 <DEFINITION>
      <FOR>node8</FOR>
      <GIVEN>node18</GIVEN>
      <GIVEN>node6</GIVEN>
      <GIVEN>node9</GIVEN>
     <TABLE>0.02354352 0.05425705 0.33434597 0.5075235 0.080329984 0.0866183 0.35388932 0.3172057 0.24223089 5.5779437E-5 0.1369879 0.28429183 0.12667155 0.30309 0.14895873 0.2613549 0.23861136 0.08184514 0.34139928 0.076789334 0.09462512 0.0392445 0.07163519 0.10948381 0.6850114 0.035118144 0.07896241 0.4675501 0.14836498 0.27000436 0.008037653 0.4759639 0.3880855 7.177997E-4 0.1271951 0.23250157 0.02652106 0.27494523 0.20838827 0.25764382 0.14093088 0.06515314 0.1458042 0.12638973 0.52172214 0.12639754 0.01916948 0.112405226 0.40754655 0.33448124 0.55009073 0.04119722 0.010039789 0.28970164 0.10897055 0.0029673632 0.051346455 0.18637194 0.26893887 0.49037537 0.19407676 0.020256616 0.23488566 0.28277382 0.26800716 0.093801685 0.32193664 0.49406663 0.08707882 0.0031162808 0.5537631 0.038264547 0.0795737 0.17909342 0.14930524 0.029358203 0.050744172 0.6018612 0.1504075 0.16762894 0.45199585 0.016412048 0.1199069 0.04480715 0.36687812 0.07571995 0.5302858 0.14331184 0.012898115 0.23778436 0.07612355 0.23340638 0.54706943 0.13655233 0.0068483273 0.07724571 0.06288348 0.041494478 0.4038708 0.4145056 0.32676932 0.35125306 0.23267388 0.020126082 0.06917761 0.34707224 0.15203357 0.28820938 0.006797844 0.20588703 0.14583284 0.082042426 0.08084923 0.0027715277 0.688504 0.055240516 0.0823898 0.038875405 0.4849821 0.33851215 0.12257913 0.052922264 0.37033144 0.15061784 0.3035493 0.3379885 0.33787712 0.09312716 0.058294665 0.17271258 0.10844489 0.2573068 0.1050701 0.41147107 0.11770715 0.0856422 0.52294034 0.07428716 0.2636899 0.053440362 0.24142806 0.063401744 0.45579025 0.13922592 0.10015401 0.112908915 0.1952696 0.108716875 0.04935721 0.53374743 0.04462692 0.3894232 0.055863768 0.2959278 0.21415831 0.22346438 0.4760521 0.048777826 0.17674053 0.074965194 0.5015592 0.29847267 0.08177723 0.0716292 0.046561804 0.3710723 0.06631276 0.26557174 0.21307045 0.08397274 0.21401261 0.44824442 0.2786915 0.031067975 0.02798351 0.23920207 0.21766326 0.01375422 0.48772153 0.041658934 0.14879993 0.054112803 0.14029077 0.29308993 0.36370662 0.17326312 0.0057969824 0.25033593 0.5013147 0.06928925 0.14583814 0.2119633 0.2082542 0.20061623 0.23332804 0.13623457 0.31617743 0.02409108 0.2220457 0.30145115 0.22407272 0.2411009 0.20320125 0.1844331 0.1471921 0.04927268 0.19757748 0.6283562 0.08780815 0.036985468 0.0794978 0.10703947 0.662876 0.10352958 0.047057163 0.114027284 0.4238193 0.12604512 0.29579586 0.04031247 0.37313175 0.028593952 0.36064935 0.18022422 0.057400644 0.019929122 0.5347337 0.27348515 0.13314651 0.038705587 0.025477719 0.06062224 0.3533452 0.02238164 0.53817326 0.20573865 0.09072409 0.5187074 0.15597801 0.028851924 </TABLE>
 </DEFINITION>
 <DEFINITION>
      <FOR>node9</FOR>
     <TABLE>0.2959782 0.06283056 0.2992454 0.34194586 </TABLE>
 </DEFINITION>
 <DEFINITION>
      <FOR>node10</FOR>
      <GIVEN>node9</GIVEN>
      <GIVEN>node13</GIVEN>
     <TABLE>0.087617174 0.41871828 0.25963786 0.23402672 0.04794213 0.4002959 0.47952133 0.07224057 0.09801981 0.23645656 0.19699043 0.46853325 0.009853719 0.6479873 0.120886885 0.22127217 0.2437509 0.5197201 0.09048929 0.14603971 0.63727736 0.11369878 0.1288479 0.12017593 0.36936182 0.24463125 0.22908343 0.15692355 0.07627561 0.3407357 0.11644316 0.46654555 0.19975604 0.16476597 0.26702675 0.36845124 0.11229885 0.0036578176 0.30679467 0.57724863 0.6029508 0.019720463 0.26271993 0.11460877 0.10959621 0.5558151 0.22035772 0.1142309 0.8162852 0.08746692 0.0320928 0.0641551 0.40944478 0.3120627 0.0076402123 0.27085227 0.23263031 0.11102074 0.4055547 0.2507942 0.01563035 0.19206776 0.01946382 0.7728381 0.52276343 0.06475835 0.31994137 0.092536844 0.055637006 4.3134068E-4 0.81616247 0.12776922 0.20052516 0.07171325 0.47306377 0.25469786 0.30525023 0.07893126 0.2665586 0.3492599 </TABLE>
 </DEFINITION>
 <DEFINITION>
      <FOR>node11</FOR>
      <GIVEN>node3</GIVEN>
      <GIVEN>node0</GIVEN>
     <TABLE>0.65581363 0.0978946 0.24629173 0.22926226 0.38833672 0.38240105 0.5304654 0.24379173 0.22574285 0.47258773 0.17082483 0.3565874 0.05327809 0.49109274 0.45562917 0.4328571 0.1732251 0.39391783 0.44108692 0.41717967 0.14173344 0.16704464 0.27289015 0.56006527 0.2964472 0.22005206 0.48350066 </TABLE>
 </DEFINITION>
 <DEFINITION>
      <FOR>node12</FOR>
      <GIVEN>node14</GIVEN>
     <TABLE>0.54582477 0.41536543 0.038809787 0.0028690621 0.38342208 0.6137089 0.58600456 0.18627603 0.22771946 0.6818388 0.061464716 0.2566964 </TABLE>
 </DEFINITION>
 <DEFINITION>
      <FOR>node13</FOR>
      <GIVEN>node14</GIVEN>
     <TABLE>0.13584282 0.08576517 0.15914546 0.39071658 0.22853002 0.11541986 0.17446882 0.48731947 0.2056852 0.017106676 0.30383435 0.15275766 0.120443456 0.0037579793 0.41920656 0.1053333 0.013118738 0.2641033 0.14449075 0.47295392 </TABLE>
 </DEFINITION>
 <DEFINITION>
      <FOR>node14</FOR>
     <TABLE>0.11642897 0.62343943 0.15063144 0.10950023 </TABLE>
 </DEFINITION>
 <DEFINITION>
      <FOR>node15</FOR>
      <GIVEN>node1</GIVEN>
      <GIVEN>node19</GIVEN>
     <TABLE>0.26344895 0.736551 0.8989026 0.1010974 0.6894632 0.31053683 0.14705911 0.85294086 0.2731334 0.7268666 0.46207908 0.5379209 0.31690982 0.68309015 0.030360341 0.9696397 </TABLE>
 </DEFINITION>
 <DEFINITION>
      <FOR>node16</FOR>
      <GIVEN>node12</GIVEN>
     <TABLE>0.64249235 0.35750762 0.6913144 0.3086856 0.27235046 0.7276495 </TABLE>
 </DEFINITION>
 <DEFINITION>
      <FOR>node17</FOR>
      <GIVEN>node19</GIVEN>
      <GIVEN>node13</GIVEN>
      <GIVEN>node1</GIVEN>
     <TABLE>0.86056155 0.1394384 0.4381355 0.5618645 0.27554062 0.72445935 0.4627109 0.53728914 0.9349122 0.065087795 0.5383614 0.46163866 0.469929 0.53007096 0.1509436 0.84905636 0.50013417 0.49986586 0.9807041 0.01929582 0.65911865 0.34088132 0.18811911 0.8118808 0.8149609 0.18503915 0.11642363 0.88357633 0.077580556 0.9224195 0.39389104 0.60610896 0.7998333 0.20016675 0.61742836 0.38257167 0.6342375 0.36576247 0.46888584 0.53111416 0.542303 0.457697 0.8227123 0.17728767 0.7422069 0.25779307 0.2411617 0.75883836 0.5113902 0.4886098 0.46594644 0.53405356 0.8415041 0.15849593 0.4232187 0.5767813 0.36009207 0.63990796 0.0919936 0.90800637 0.2708408 0.7291592 0.5927338 0.4072662 0.4373526 0.5626474 0.40103826 0.5989617 0.26790538 0.7320946 0.8478124 0.15218756 0.9211728 0.07882715 0.74766093 0.25233904 0.13063666 0.8693633 0.4877591 0.5122409 </TABLE>
 </DEFINITION>
 <DEFINITION>
      <FOR>node18</FOR>
      <GIVEN>node16</GIVEN>
     <TABLE>0.24198852 0.43131685 0.1260639 0.20063066 0.29215875 0.27293158 0.23271115 0.2021985 </TABLE>
 </DEFINITION>
 <DEFINITION>
      <FOR>node19</FOR>
     <TABLE>0.49984288 0.254055 0.20817764 0.03792445 </TABLE>
 </DEFINITION>
</NETWORK>
</BIF>
