<?xml version="1.0" encoding="US-ASCII"?>


<!--
	Bayesian network in XMLBIF v0.3 (BayesNet Interchange Format)
	Produced by JavaBayes (http://www.cs.cmu.edu/~javabayes/
	Number of nodes:20
	Output created Mon Oct 09 18:59:00 EDT 2006
-->



<BIF VERSION="0.3">
<NETWORK>
<NAME>example5</NAME>
<!-- Variables -->
<VARIABLE TYPE="nature">
    <NAME>node0</NAME>
    <OUTCOME>state0</OUTCOME>
    <OUTCOME>state1</OUTCOME>
    <OUTCOME>state2</OUTCOME>
    <OUTCOME>state3</OUTCOME>
    <PROPERTY>position = (45, 30)</PROPERTY>
</VARIABLE>
<!-- Variables -->
<VARIABLE TYPE="nature">
    <NAME>node1</NAME>
    <OUTCOME>state0</OUTCOME>
    <OUTCOME>state1</OUTCOME>
    <OUTCOME>state2</OUTCOME>
    <PROPERTY>position = (44, 270)</PROPERTY>
</VARIABLE>
<!-- Variables -->
<VARIABLE TYPE="nature">
    <NAME>node2</NAME>
    <OUTCOME>state0</OUTCOME>
    <OUTCOME>state1</OUTCOME>
    <OUTCOME>state2</OUTCOME>
    <PROPERTY>position = (15, 150)</PROPERTY>
</VARIABLE>
<!-- Variables -->
<VARIABLE TYPE="nature">
    <NAME>node3</NAME>
    <OUTCOME>state0</OUTCOME>
    <OUTCOME>state1</OUTCOME>
    <OUTCOME>state2</OUTCOME>
    <OUTCOME>state3</OUTCOME>
    <OUTCOME>state4</OUTCOME>
    <PROPERTY>position = (164, 284)</PROPERTY>
</VARIABLE>
<!-- Variables -->
<VARIABLE TYPE="nature">
    <NAME>node4</NAME>
    <OUTCOME>state0</OUTCOME>
    <OUTCOME>state1</OUTCOME>
    <PROPERTY>position = (165, 44)</PROPERTY>
</VARIABLE>
<!-- Variables -->
<VARIABLE TYPE="nature">
    <NAME>node5</NAME>
    <OUTCOME>state0</OUTCOME>
    <OUTCOME>state1</OUTCOME>
    <PROPERTY>position = (285, 30)</PROPERTY>
</VARIABLE>
<!-- Variables -->
<VARIABLE TYPE="nature">
    <NAME>node6</NAME>
    <OUTCOME>state0</OUTCOME>
    <OUTCOME>state1</OUTCOME>
    <OUTCOME>state2</OUTCOME>
    <OUTCOME>state3</OUTCOME>
    <PROPERTY>position = (135, 164)</PROPERTY>
</VARIABLE>
<!-- Variables -->
<VARIABLE TYPE="nature">
    <NAME>node7</NAME>
    <OUTCOME>state0</OUTCOME>
    <OUTCOME>state1</OUTCOME>
    <PROPERTY>position = (284, 270)</PROPERTY>
</VARIABLE>
<!-- Variables -->
<VARIABLE TYPE="nature">
    <NAME>node8</NAME>
    <OUTCOME>state0</OUTCOME>
    <OUTCOME>state1</OUTCOME>
    <PROPERTY>position = (255, 150)</PROPERTY>
</VARIABLE>
<!-- Variables -->
<VARIABLE TYPE="nature">
    <NAME>node9</NAME>
    <OUTCOME>state0</OUTCOME>
    <OUTCOME>state1</OUTCOME>
    <OUTCOME>state2</OUTCOME>
    <OUTCOME>state3</OUTCOME>
    <OUTCOME>state4</OUTCOME>
    <PROPERTY>position = (15, 390)</PROPERTY>
</VARIABLE>
<!-- Variables -->
<VARIABLE TYPE="nature">
    <NAME>node10</NAME>
    <OUTCOME>state0</OUTCOME>
    <OUTCOME>state1</OUTCOME>
    <OUTCOME>state2</OUTCOME>
    <OUTCOME>state3</OUTCOME>
    <PROPERTY>position = (375, 135)</PROPERTY>
</VARIABLE>
<!-- Variables -->
<VARIABLE TYPE="nature">
    <NAME>node11</NAME>
    <OUTCOME>state0</OUTCOME>
    <OUTCOME>state1</OUTCOME>
    <OUTCOME>state2</OUTCOME>
    <OUTCOME>state3</OUTCOME>
    <OUTCOME>state4</OUTCOME>
    <PROPERTY>position = (495, 149)</PROPERTY>
</VARIABLE>
<!-- Variables -->
<VARIABLE TYPE="nature">
    <NAME>node12</NAME>
    <OUTCOME>state0</OUTCOME>
    <OUTCOME>state1</OUTCOME>
    <OUTCOME>state2</OUTCOME>
    <OUTCOME>state3</OUTCOME>
    <OUTCOME>state4</OUTCOME>
    <PROPERTY>position = (615, 164)</PROPERTY>
</VARIABLE>
<!-- Variables -->
<VARIABLE TYPE="nature">
    <NAME>node13</NAME>
    <OUTCOME>state0</OUTCOME>
    <OUTCOME>state1</OUTCOME>
    <OUTCOME>state2</OUTCOME>
    <PROPERTY>position = (135, 404)</PROPERTY>
</VARIABLE>
<!-- Variables -->
<VARIABLE TYPE="nature">
    <NAME>node14</NAME>
    <OUTCOME>state0</OUTCOME>
    <OUTCOME>state1</OUTCOME>
    <OUTCOME>state2</OUTCOME>
    <OUTCOME>state3</OUTCOME>
    <OUTCOME>state4</OUTCOME>
    <PROPERTY>position = (735, 150)</PROPERTY>
</VARIABLE>
<!-- Variables -->
<VARIABLE TYPE="nature">
    <NAME>node15</NAME>
    <OUTCOME>state0</OUTCOME>
    <OUTCOME>state1</OUTCOME>
    <OUTCOME>state2</OUTCOME>
    <OUTCOME>state3</OUTCOME>
    <PROPERTY>position = (405, 15)</PROPERTY>
</VARIABLE>
<!-- Variables -->
<VARIABLE TYPE="nature">
    <NAME>node16</NAME>
    <OUTCOME>state0</OUTCOME>
    <OUTCOME>state1</OUTCOME>
    <OUTCOME>state2</OUTCOME>
    <OUTCOME>state3</OUTCOME>
    <OUTCOME>state4</OUTCOME>
    <PROPERTY>position = (404, 255)</PROPERTY>
</VARIABLE>
<!-- Variables -->
<VARIABLE TYPE="nature">
    <NAME>node17</NAME>
    <OUTCOME>state0</OUTCOME>
    <OUTCOME>state1</OUTCOME>
    <OUTCOME>state2</OUTCOME>
    <PROPERTY>position = (855, 135)</PROPERTY>
</VARIABLE>
<!-- Variables -->
<VARIABLE TYPE="nature">
    <NAME>node18</NAME>
    <OUTCOME>state0</OUTCOME>
    <OUTCOME>state1</OUTCOME>
    <OUTCOME>state2</OUTCOME>
    <OUTCOME>state3</OUTCOME>
    <OUTCOME>state4</OUTCOME>
    <PROPERTY>position = (524, 269)</PROPERTY>
</VARIABLE>
<!-- Variables -->
<VARIABLE TYPE="nature">
    <NAME>node19</NAME>
    <OUTCOME>state0</OUTCOME>
    <OUTCOME>state1</OUTCOME>
    <PROPERTY>position = (644, 284)</PROPERTY>
</VARIABLE>
<!-- Probability Distributions -->
 <DEFINITION>
      <FOR>node0</FOR>
     <TABLE>0.82338554 0.01348436 0.10300691 0.060123287 </TABLE>
 </DEFINITION>
 <DEFINITION>
      <FOR>node1</FOR>
      <GIVEN>node4</GIVEN>
      <GIVEN>node12</GIVEN>
     <TABLE>0.32260546 0.57967496 0.097719595 0.15329406 0.7959519 0.050754063 0.06640664 0.33704007 0.59655327 0.06635128 0.46877316 0.46487555 0.7101449 0.10891483 0.18094033 0.517987 9.6472533E-4 0.4810483 0.16100752 0.12270442 0.71628815 0.09605311 0.17959997 0.72434694 0.49562493 0.4468762 0.057498816 0.3996074 0.22607712 0.37431553 </TABLE>
 </DEFINITION>
 <DEFINITION>
      <FOR>node2</FOR>
      <GIVEN>node4</GIVEN>
     <TABLE>0.18829034 0.6447126 0.16699696 0.61309075 0.32329997 0.06360925 </TABLE>
 </DEFINITION>
 <DEFINITION>
      <FOR>node3</FOR>
      <GIVEN>node14</GIVEN>
      <GIVEN>node7</GIVEN>
     <TABLE>0.49714693 0.014141537 0.08464861 0.39670524 0.0073576597 0.32927367 0.09771699 0.017228762 0.46004567 0.09573494 0.056985 0.48517796 0.2614556 0.09966652 0.09671495 0.10410222 0.060735907 0.23643105 0.3832318 0.21549906 0.1500615 0.2982958 0.038987197 0.16161668 0.35103878 0.4870343 0.013127906 0.021512259 0.37872648 0.09959906 0.2114798 0.5400382 0.119105324 0.11333163 0.016045002 0.6179131 0.04469995 0.13786176 0.1890917 0.010433473 0.028345482 0.317038 0.089646325 0.53262126 0.032348905 0.14949414 0.20934789 0.15222794 0.21680209 0.272128 </TABLE>
 </DEFINITION>
 <DEFINITION>
      <FOR>node4</FOR>
     <TABLE>0.90196943 0.09803053 </TABLE>
 </DEFINITION>
 <DEFINITION>
      <FOR>node5</FOR>
     <TABLE>0.9535667 0.046433404 </TABLE>
 </DEFINITION>
 <DEFINITION>
      <FOR>node6</FOR>
      <GIVEN>node10</GIVEN>
     <TABLE>0.48203263 0.03525897 0.25900343 0.22370496 0.36672848 0.41490522 0.14226736 0.07609888 0.32964298 0.07635995 0.39501023 0.19898686 0.04197197 0.2685856 0.17888176 0.5105607 </TABLE>
 </DEFINITION>
 <DEFINITION>
      <FOR>node7</FOR>
      <GIVEN>node15</GIVEN>
      <GIVEN>node11</GIVEN>
     <TABLE>0.27927366 0.7207263 0.091341265 0.90865874 0.95867705 0.041322935 0.42062324 0.57937676 0.68937194 0.3106281 0.37572387 0.6242761 0.77059394 0.22940603 0.005806945 0.994193 0.8568423 0.14315775 0.26622027 0.7337798 0.44867706 0.55132294 0.09382432 0.90617573 0.37519926 0.6248007 0.032641113 0.9673588 0.30942824 0.6905718 0.037185557 0.96281445 0.41331124 0.58668876 0.24055292 0.75944704 0.85931814 0.14068185 0.50261486 0.4973851 </TABLE>
 </DEFINITION>
 <DEFINITION>
      <FOR>node8</FOR>
      <GIVEN>node4</GIVEN>
     <TABLE>0.90237415 0.09762588 0.30938792 0.69061214 </TABLE>
 </DEFINITION>
 <DEFINITION>
      <FOR>node9</FOR>
      <GIVEN>node2</GIVEN>
      <GIVEN>node3</GIVEN>
      <GIVEN>node8</GIVEN>
     <TABLE>0.3814922 0.01686018 0.064018115 0.5230946 0.014535002 0.06902018 0.08174725 0.6012072 0.17184074 0.07618462 0.35324907 0.0381237 0.322605 0.1711661 0.11485607 0.4153465 0.27678537 0.12080861 0.0636696 0.123389915 0.43782878 0.05439301 0.16041094 0.077294424 0.27007288 0.07014101 0.247738 0.08492389 0.5313191 0.06587806 0.15129316 0.12602775 0.5680446 0.08493681 0.069697686 0.04618734 0.34321657 0.3592658 0.018130012 0.23320027 0.07852324 0.55721766 0.15397877 0.030552238 0.17972814 0.24923548 0.19253366 0.05206127 0.3162546 0.189915 0.16769677 0.2502226 0.025094753 0.0029224462 0.55406344 0.44424382 0.010700893 0.035142384 0.26609972 0.24381311 0.025412723 0.1261614 0.71981627 0.028674403 0.099935174 0.3238324 0.076669216 0.3019767 0.12842222 0.16909944 0.2797107 0.26115632 0.2836742 0.07274435 0.10271445 0.13309468 0.32230318 0.16616866 0.33524582 0.0431877 0.07822254 0.20583421 0.19158174 0.15226711 0.37209442 0.5261392 0.10715462 0.19459943 0.15686972 0.01523704 0.41792178 0.06720076 0.24696544 0.021910533 0.2460015 0.29867533 0.35667107 0.04304047 0.20096478 0.10064836 0.603866 0.030932806 0.18977706 0.12154668 0.053877503 0.052365787 0.016901212 0.4945203 0.43252617 0.003686492 9.623773E-4 0.25543228 0.10788258 0.29182595 0.34389684 0.23676494 0.12478543 0.19637626 0.40034822 0.041725215 0.15370749 0.015848307 0.2706964 0.3653333 0.19441454 0.054221503 0.42594787 0.03301265 0.27752814 0.20928979 0.386923 0.15706918 0.30621222 0.048953786 0.10084192 0.53377175 0.23343746 0.15670153 0.011094921 0.064994335 0.099071614 0.25315356 0.16306874 0.3582768 0.12642929 0.15116514 0.06357589 0.31396052 0.064652875 0.40664557 </TABLE>
 </DEFINITION>
 <DEFINITION>
      <FOR>node10</FOR>
      <GIVEN>node15</GIVEN>
     <TABLE>0.37901908 0.2393687 0.29921103 0.082401276 0.58825266 0.13386188 0.09311263 0.18477288 0.09739628 0.016509514 0.7492276 0.13686664 0.032852914 0.5952704 0.026316231 0.34556055 </TABLE>
 </DEFINITION>
 <DEFINITION>
      <FOR>node11</FOR>
      <GIVEN>node5</GIVEN>
     <TABLE>0.120069355 0.17102581 0.37458387 0.18657188 0.14774913 0.4646371 0.003138434 0.11066519 0.07318851 0.34837073 </TABLE>
 </DEFINITION>
 <DEFINITION>
      <FOR>node12</FOR>
      <GIVEN>node17</GIVEN>
     <TABLE>0.14992312 0.19628072 0.35875756 0.24588029 0.049158342 0.003163596 0.19650547 0.576135 0.07216992 0.152026 0.7993046 0.07323366 0.07045974 0.0033040165 0.05369801 </TABLE>
 </DEFINITION>
 <DEFINITION>
      <FOR>node13</FOR>
      <GIVEN>node12</GIVEN>
      <GIVEN>node2</GIVEN>
      <GIVEN>node18</GIVEN>
     <TABLE>0.45555088 0.41917032 0.12527873 0.7943925 0.024811286 0.18079625 0.5300505 0.17657079 0.2933787 0.46988156 0.26685882 0.26325965 0.512386 0.34632176 0.14129227 0.8635815 0.13419124 0.0022272258 0.48430035 0.029102633 0.48659706 0.18469144 0.03535422 0.7799544 0.13023767 0.6352422 0.23452012 0.35382897 0.33660722 0.3095638 0.76387686 0.112403885 0.123719335 0.07180487 0.7487598 0.1794353 0.12054419 0.7201248 0.15933108 0.51021284 0.18086512 0.30892202 0.33635855 0.50293416 0.16070734 0.29021445 0.658853 0.05093257 0.17392808 0.4412246 0.38484728 0.22989315 0.5536212 0.21648574 0.69777364 0.13625133 0.16597505 0.054284867 0.9453569 3.582186E-4 0.48200408 0.37679714 0.14119878 0.03444293 0.85221946 0.11333764 0.6083324 0.1919332 0.19973445 0.429255 0.28457758 0.28616744 0.089467384 0.7772823 0.13325034 0.38490722 0.04050471 0.5745881 0.05726256 0.68931514 0.25342223 0.7738162 0.21004292 0.016140852 0.0026396352 0.071222566 0.92613786 0.10850743 0.48133948 0.41015306 0.11905366 0.27394468 0.60700166 0.27551657 0.60022974 0.12425371 0.48567814 0.19623025 0.31809157 0.32144028 0.36997584 0.3085839 0.22842647 0.31489927 0.4566743 0.5956987 0.09909624 0.30520502 0.3963264 0.55756354 0.046110094 0.7594846 0.13988274 0.10063272 0.5704211 0.36411858 0.065460384 0.05014298 0.70620996 0.24364714 0.34314018 0.48220816 0.17465167 0.77302015 0.07527526 0.1517046 0.067416996 0.28089708 0.6516859 0.26508817 0.19902104 0.53589076 0.10324957 0.8948095 0.0019409759 0.18481968 0.6969434 0.11823688 0.19917385 0.17342807 0.6273981 0.14059077 0.07006853 0.7893407 0.39528286 0.0063349437 0.5983822 0.031538095 0.95646566 0.011996319 0.5632379 0.17493686 0.26182523 0.0025965238 0.6396131 0.35779047 0.44729275 0.058311556 0.4943957 0.75536346 0.013699846 0.23093668 0.19658485 0.36761814 0.43579704 0.18292278 0.17341241 0.6436648 0.07437676 0.63590634 0.28971693 0.3381271 0.29360226 0.36827064 0.48854762 0.32015115 0.19130126 0.44065738 0.5252447 0.034097876 0.10137349 0.49301252 0.40561393 0.55117965 0.05724375 0.39157662 0.26328844 0.51153225 0.22517934 0.27464518 0.51711786 0.20823702 0.5273101 0.2559963 0.21669367 0.13870864 0.8329296 0.028361656 0.33161348 0.62786293 0.040523585 0.19668734 0.68332684 0.11998588 0.16616596 0.70103085 0.13280323 0.5249507 0.3486345 0.12641485 0.2594025 0.2501961 0.49040142 0.24967471 0.7146541 0.03567123 0.8031031 0.19195834 0.0049385396 0.29986727 0.14245576 0.55767703 0.8138179 0.14798677 0.038195275 </TABLE>
 </DEFINITION>
 <DEFINITION>
      <FOR>node14</FOR>
      <GIVEN>node0</GIVEN>
     <TABLE>0.21508335 0.27892098 0.21231276 0.15427768 0.13940518 0.22910626 0.020730203 0.14174698 0.019962452 0.58845407 0.020944394 0.09581466 0.5852185 0.2676416 0.030380907 0.020253679 0.03135809 0.10819934 0.41341656 0.42677233 </TABLE>
 </DEFINITION>
 <DEFINITION>
      <FOR>node15</FOR>
     <TABLE>0.13081054 0.26411107 0.21087474 0.39420363 </TABLE>
 </DEFINITION>
 <DEFINITION>
      <FOR>node16</FOR>
      <GIVEN>node6</GIVEN>
      <GIVEN>node0</GIVEN>
     <TABLE>0.23687032 0.28394464 0.32168618 0.018162142 0.13933669 0.30478814 0.2406488 0.37542805 0.01829515 0.060839795 0.075970516 0.4311026 0.35789332 0.08216066 0.052872993 0.3555713 0.14351282 0.17368136 0.25831577 0.06891875 0.5834808 0.046301465 0.21333596 0.040256806 0.11662491 0.121334694 0.5745456 0.0029568374 0.22721754 0.07394526 0.103515334 0.01556678 0.29451022 0.26233846 0.32406923 0.008108917 0.30868348 0.41909927 0.1318046 0.13230371 0.3582771 0.1340075 0.43341666 0.057025414 0.01727326 0.08093034 0.1919061 0.048892915 0.24328004 0.43499058 0.13439944 0.0074962573 0.13676971 0.19550589 0.5258287 0.1562816 0.32704717 0.10746346 0.022599814 0.38660794 0.048916515 0.23257625 0.33542186 0.13710941 0.24597588 0.027170083 0.29195416 0.5168914 0.015777897 0.14820646 0.20029038 0.005205316 0.15984172 0.30084503 0.33381757 0.23652449 0.37783727 0.019873414 0.22579718 0.13996767 </TABLE>
 </DEFINITION>
 <DEFINITION>
      <FOR>node17</FOR>
      <GIVEN>node6</GIVEN>
     <TABLE>0.11437864 0.27266535 0.61295605 0.06556518 0.29807433 0.6363605 0.08947196 0.8190411 0.091487035 0.124058425 0.4302023 0.44573927 </TABLE>
 </DEFINITION>
 <DEFINITION>
      <FOR>node18</FOR>
      <GIVEN>node8</GIVEN>
      <GIVEN>node16</GIVEN>
     <TABLE>0.010744102 0.24455349 0.46367723 0.15419547 0.12682964 0.51207983 0.060881395 0.16517282 0.16858791 0.09327804 0.11697175 0.2209319 0.16535692 0.16653174 0.33020768 0.44672266 0.15313868 0.054419726 0.31438443 0.03133448 0.51288766 0.06903005 0.12612349 0.23142132 0.060537435 0.36448106 0.057272993 0.10065937 0.06627035 0.41131628 0.11160598 0.35372716 0.17569031 0.14149444 0.21748203 0.10864759 0.5088392 0.16099362 0.028847652 0.1926719 0.09787412 0.24981648 0.118124366 0.39235294 0.141832 0.6392788 0.1311765 0.12258533 0.063315146 0.04364423 </TABLE>
 </DEFINITION>
 <DEFINITION>
      <FOR>node19</FOR>
      <GIVEN>node17</GIVEN>
      <GIVEN>node11</GIVEN>
     <TABLE>0.036598455 0.9634015 0.46926448 0.5307355 0.22558665 0.77441335 0.8866858 0.11331425 0.9174822 0.08251782 0.10325324 0.8967468 0.40901783 0.5909822 0.6115818 0.3884182 0.5866235 0.41337654 0.54165614 0.4583439 0.9102543 0.08974574 0.32833427 0.6716657 0.97489446 0.025105514 0.6634234 0.33657652 0.5034463 0.49655375 </TABLE>
 </DEFINITION>
</NETWORK>
</BIF>
