<?xml version="1.0" encoding="US-ASCII"?>


<!--
	Bayesian network in XMLBIF v0.3 (BayesNet Interchange Format)
	Produced by JavaBayes (http://www.cs.cmu.edu/~javabayes/
	Number of nodes:20
	Output created Mon Oct 09 18:59:00 EDT 2006
-->



<BIF VERSION="0.3">
<NETWORK>
<NAME>example6</NAME>
<!-- Variables -->
<VARIABLE TYPE="nature">
    <NAME>node0</NAME>
    <OUTCOME>state0</OUTCOME>
    <OUTCOME>state1</OUTCOME>
    <OUTCOME>state2</OUTCOME>
    <OUTCOME>state3</OUTCOME>
    <PROPERTY>position = (44, 270)</PROPERTY>
</VARIABLE>
<!-- Variables -->
<VARIABLE TYPE="nature">
    <NAME>node1</NAME>
    <OUTCOME>state0</OUTCOME>
    <OUTCOME>state1</OUTCOME>
    <OUTCOME>state2</OUTCOME>
    <OUTCOME>state3</OUTCOME>
    <OUTCOME>state4</OUTCOME>
    <PROPERTY>position = (164, 284)</PROPERTY>
</VARIABLE>
<!-- Variables -->
<VARIABLE TYPE="nature">
    <NAME>node2</NAME>
    <OUTCOME>state0</OUTCOME>
    <OUTCOME>state1</OUTCOME>
    <OUTCOME>state2</OUTCOME>
    <PROPERTY>position = (15, 150)</PROPERTY>
</VARIABLE>
<!-- Variables -->
<VARIABLE TYPE="nature">
    <NAME>node3</NAME>
    <OUTCOME>state0</OUTCOME>
    <OUTCOME>state1</OUTCOME>
    <OUTCOME>state2</OUTCOME>
    <OUTCOME>state3</OUTCOME>
    <OUTCOME>state4</OUTCOME>
    <PROPERTY>position = (284, 270)</PROPERTY>
</VARIABLE>
<!-- Variables -->
<VARIABLE TYPE="nature">
    <NAME>node4</NAME>
    <OUTCOME>state0</OUTCOME>
    <OUTCOME>state1</OUTCOME>
    <OUTCOME>state2</OUTCOME>
    <OUTCOME>state3</OUTCOME>
    <OUTCOME>state4</OUTCOME>
    <PROPERTY>position = (135, 164)</PROPERTY>
</VARIABLE>
<!-- Variables -->
<VARIABLE TYPE="nature">
    <NAME>node5</NAME>
    <OUTCOME>state0</OUTCOME>
    <OUTCOME>state1</OUTCOME>
    <PROPERTY>position = (255, 150)</PROPERTY>
</VARIABLE>
<!-- Variables -->
<VARIABLE TYPE="nature">
    <NAME>node6</NAME>
    <OUTCOME>state0</OUTCOME>
    <OUTCOME>state1</OUTCOME>
    <OUTCOME>state2</OUTCOME>
    <OUTCOME>state3</OUTCOME>
    <OUTCOME>state4</OUTCOME>
    <PROPERTY>position = (45, 30)</PROPERTY>
</VARIABLE>
<!-- Variables -->
<VARIABLE TYPE="nature">
    <NAME>node7</NAME>
    <OUTCOME>state0</OUTCOME>
    <OUTCOME>state1</OUTCOME>
    <OUTCOME>state2</OUTCOME>
    <OUTCOME>state3</OUTCOME>
    <OUTCOME>state4</OUTCOME>
    <PROPERTY>position = (15, 390)</PROPERTY>
</VARIABLE>
<!-- Variables -->
<VARIABLE TYPE="nature">
    <NAME>node8</NAME>
    <OUTCOME>state0</OUTCOME>
    <OUTCOME>state1</OUTCOME>
    <OUTCOME>state2</OUTCOME>
    <PROPERTY>position = (404, 255)</PROPERTY>
</VARIABLE>
<!-- Variables -->
<VARIABLE TYPE="nature">
    <NAME>node9</NAME>
    <OUTCOME>state0</OUTCOME>
    <OUTCOME>state1</OUTCOME>
    <OUTCOME>state2</OUTCOME>
    <PROPERTY>position = (375, 135)</PROPERTY>
</VARIABLE>
<!-- Variables -->
<VARIABLE TYPE="nature">
    <NAME>node10</NAME>
    <OUTCOME>state0</OUTCOME>
    <OUTCOME>state1</OUTCOME>
    <PROPERTY>position = (135, 404)</PROPERTY>
</VARIABLE>
<!-- Variables -->
<VARIABLE TYPE="nature">
    <NAME>node11</NAME>
    <OUTCOME>state0</OUTCOME>
    <OUTCOME>state1</OUTCOME>
    <OUTCOME>state2</OUTCOME>
    <OUTCOME>state3</OUTCOME>
    <OUTCOME>state4</OUTCOME>
    <PROPERTY>position = (165, 44)</PROPERTY>
</VARIABLE>
<!-- Variables -->
<VARIABLE TYPE="nature">
    <NAME>node12</NAME>
    <OUTCOME>state0</OUTCOME>
    <OUTCOME>state1</OUTCOME>
    <OUTCOME>state2</OUTCOME>
    <PROPERTY>position = (285, 30)</PROPERTY>
</VARIABLE>
<!-- Variables -->
<VARIABLE TYPE="nature">
    <NAME>node13</NAME>
    <OUTCOME>state0</OUTCOME>
    <OUTCOME>state1</OUTCOME>
    <OUTCOME>state2</OUTCOME>
    <PROPERTY>position = (405, 15)</PROPERTY>
</VARIABLE>
<!-- Variables -->
<VARIABLE TYPE="nature">
    <NAME>node14</NAME>
    <OUTCOME>state0</OUTCOME>
    <OUTCOME>state1</OUTCOME>
    <OUTCOME>state2</OUTCOME>
    <PROPERTY>position = (255, 390)</PROPERTY>
</VARIABLE>
<!-- Variables -->
<VARIABLE TYPE="nature">
    <NAME>node15</NAME>
    <OUTCOME>state0</OUTCOME>
    <OUTCOME>state1</OUTCOME>
    <OUTCOME>state2</OUTCOME>
    <OUTCOME>state3</OUTCOME>
    <OUTCOME>state4</OUTCOME>
    <PROPERTY>position = (524, 269)</PROPERTY>
</VARIABLE>
<!-- Variables -->
<VARIABLE TYPE="nature">
    <NAME>node16</NAME>
    <OUTCOME>state0</OUTCOME>
    <OUTCOME>state1</OUTCOME>
    <OUTCOME>state2</OUTCOME>
    <PROPERTY>position = (495, 149)</PROPERTY>
</VARIABLE>
<!-- Variables -->
<VARIABLE TYPE="nature">
    <NAME>node17</NAME>
    <OUTCOME>state0</OUTCOME>
    <OUTCOME>state1</OUTCOME>
    <OUTCOME>state2</OUTCOME>
    <OUTCOME>state3</OUTCOME>
    <OUTCOME>state4</OUTCOME>
    <PROPERTY>position = (615, 164)</PROPERTY>
</VARIABLE>
<!-- Variables -->
<VARIABLE TYPE="nature">
    <NAME>node18</NAME>
    <OUTCOME>state0</OUTCOME>
    <OUTCOME>state1</OUTCOME>
    <OUTCOME>state2</OUTCOME>
    <PROPERTY>position = (644, 284)</PROPERTY>
</VARIABLE>
<!-- Variables -->
<VARIABLE TYPE="nature">
    <NAME>node19</NAME>
    <OUTCOME>state0</OUTCOME>
    <OUTCOME>state1</OUTCOME>
    <OUTCOME>state2</OUTCOME>
    <OUTCOME>state3</OUTCOME>
    <PROPERTY>position = (735, 150)</PROPERTY>
</VARIABLE>
<!-- Probability Distributions -->
 <DEFINITION>
      <FOR>node0</FOR>
      <GIVEN>node13</GIVEN>
      <GIVEN>node12</GIVEN>
     <TABLE>0.16719145 0.31166786 0.13092032 0.39022037 0.57488865 0.24536589 0.021053586 0.15869199 0.2053117 0.18332197 0.35222942 0.25913692 0.08272457 0.06926467 0.28303978 0.564971 0.1167168 0.47352144 0.29042706 0.11933474 0.23241174 0.39483565 0.17414613 0.19860648 0.1327776 0.5103371 0.29499307 0.06189228 0.20833899 0.0016086001 0.5522679 0.23778456 0.1282705 0.2696607 0.15506114 0.44700766 </TABLE>
 </DEFINITION>
 <DEFINITION>
      <FOR>node1</FOR>
      <GIVEN>node13</GIVEN>
      <GIVEN>node11</GIVEN>
     <TABLE>0.08066806 0.33084598 0.119530134 0.24063954 0.22831628 0.12191699 0.15721206 0.4582611 0.105328105 0.15728176 0.0117383525 0.067565866 0.36452755 0.5311305 0.025037717 0.09966198 0.061469905 0.029849946 0.698514 0.110504225 0.047160897 0.095854804 0.33304477 0.19373517 0.33020437 0.3197835 0.057880256 0.23229942 0.31329876 0.076738104 0.41402882 0.030736307 0.30006093 0.24043986 0.014734157 0.33419478 0.08629006 0.26294434 0.08424082 0.23232998 0.43642423 0.13436858 0.0025133463 0.31667173 0.11002207 0.36544257 0.22446014 0.12081114 0.1085042 0.18078192 0.18947616 0.12362073 0.19602828 0.08756065 0.40331417 0.26511917 0.10786646 0.015739612 0.39807242 0.21320237 0.03567771 0.0748084 0.27027008 0.045221817 0.574022 0.043652125 0.3655615 0.15792134 0.38650456 0.046360414 0.113035105 0.26976198 0.1793807 0.41250125 0.025320942 </TABLE>
 </DEFINITION>
 <DEFINITION>
      <FOR>node2</FOR>
      <GIVEN>node0</GIVEN>
     <TABLE>0.2180298 0.063885234 0.718085 0.27632287 0.6935995 0.030077655 0.057394393 0.6432736 0.29933205 0.32644254 0.23053563 0.4430218 </TABLE>
 </DEFINITION>
 <DEFINITION>
      <FOR>node3</FOR>
      <GIVEN>node12</GIVEN>
      <GIVEN>node13</GIVEN>
     <TABLE>0.12414413 0.44762692 0.2727886 0.046075013 0.109365284 0.29663748 0.15133116 0.0027418383 0.48629385 0.06299565 0.035661798 0.18884347 0.30062386 0.088391624 0.38647926 0.0688744 0.20122528 0.068479225 0.60371596 0.057705212 0.1468796 0.19140527 0.19049731 0.060995486 0.41022232 0.04031845 0.39054078 0.038274504 0.15404029 0.37682593 0.3882842 0.28206035 0.20343278 0.094892435 0.03133025 0.04633206 0.043592896 0.22076842 0.6399625 0.049344167 0.15315486 0.064197876 0.4880938 0.25644812 0.038105316 </TABLE>
 </DEFINITION>
 <DEFINITION>
      <FOR>node4</FOR>
      <GIVEN>node11</GIVEN>
     <TABLE>0.04578093 0.13686496 0.4534041 0.1834466 0.1805034 0.06874155 0.08990124 0.09709296 0.13181081 0.61245346 0.24916218 0.33360854 0.19816928 0.057038337 0.16202167 0.49889302 0.086603396 0.20448554 0.09208554 0.11793254 0.046645645 0.51776993 0.31779987 0.044598408 0.07318611 </TABLE>
 </DEFINITION>
 <DEFINITION>
      <FOR>node5</FOR>
      <GIVEN>node4</GIVEN>
     <TABLE>0.7512645 0.24873549 0.0592498 0.9407502 0.5515053 0.44849467 0.74618196 0.25381804 0.54128915 0.45871088 </TABLE>
 </DEFINITION>
 <DEFINITION>
      <FOR>node6</FOR>
     <TABLE>0.14109471 0.03469069 0.24221879 0.43798813 0.14400765 </TABLE>
 </DEFINITION>
 <DEFINITION>
      <FOR>node7</FOR>
      <GIVEN>node9</GIVEN>
      <GIVEN>node16</GIVEN>
      <GIVEN>node11</GIVEN>
     <TABLE>0.17642763 0.5703289 0.017062925 0.22380547 0.01237502 0.39217818 0.19897291 0.18793707 0.06417963 0.15673223 0.13371745 0.12291493 0.35800907 0.04498861 0.34036997 0.20220222 0.14006676 0.030579567 0.4961862 0.13096529 0.13572288 0.2857523 0.2584421 0.10427836 0.21580431 0.017791538 0.04600066 0.06677928 0.115232624 0.75419587 0.07285236 0.535066 0.18743779 0.13803923 0.06660451 0.30979654 0.29192916 0.040157363 0.24055547 0.11756152 0.06562518 0.24833256 0.37929177 0.25422934 0.05252105 0.104685195 0.06376051 0.12635824 0.24950665 0.45568943 0.56901896 0.13916466 0.07388518 0.19269991 0.025231274 0.055418905 0.13696408 0.13692522 0.043507848 0.627184 0.1281942 0.33926326 0.18646023 0.2935829 0.052499454 0.19441433 0.5802115 0.0649648 0.15058976 0.009819505 0.36837998 0.12629876 0.36370832 0.053764366 0.08784861 0.06913024 0.031131363 0.12453557 0.70736045 0.06784247 0.3654419 0.2611786 0.025439186 0.26799306 0.079947285 0.13806497 0.28058204 0.33106822 0.10813864 0.14214613 0.06280169 0.05371644 0.6262789 0.08207273 0.17513022 0.21791424 0.0097206645 0.3297354 0.33566117 0.106968485 0.5498502 0.03847925 0.0192507 0.24724229 0.14517756 0.22460112 0.21988094 0.026206035 0.4595996 0.069712356 0.08312465 0.22538273 0.091901 0.30019197 0.29939967 0.098458536 0.068674445 0.6129069 0.13498414 0.08497606 0.23046264 0.06285838 0.3125562 0.10652471 0.2875981 0.2363785 0.012737499 0.43621668 0.121642634 0.19302474 0.478143 0.21928264 0.03574845 0.11430363 0.15252227 0.37703732 0.17751025 0.14563836 0.05620131 0.2436128 0.35990316 0.18391335 0.14682917 0.278648 0.03070637 0.3012259 0.06423404 0.035982832 0.08643297 0.5121243 0.179818 0.14064184 0.21387668 0.07096623 0.3946972 0.009980955 0.12668598 0.15787926 0.25859407 0.44685978 0.13647205 0.37710223 0.01062224 0.3912562 0.084547274 0.17639142 0.1455132 0.2933701 0.29932964 0.08539566 0.07438419 0.036778715 0.67513895 0.046792224 0.16690591 0.012733184 0.3186873 0.47267145 0.13975295 0.05615509 0.26224467 0.05743581 0.12341296 0.33667287 0.2202337 0.1830937 0.15091108 0.422657 0.09472338 0.1486148 0.025326468 0.2294105 0.1700514 0.43442774 0.1407839 0.05412266 0.3536424 0.01805179 0.029055497 0.5451277 0.17161432 0.090771735 0.31072202 0.037941933 0.38895 0.5934118 0.10004807 0.1689537 0.01493658 0.12264982 0.36307216 0.17084731 0.02100739 0.38608447 0.058988713 0.064899944 0.15179937 0.23031451 0.4466386 0.106347576 0.020397594 0.31009203 0.15086113 0.05933057 0.45931873 </TABLE>
 </DEFINITION>
 <DEFINITION>
      <FOR>node8</FOR>
      <GIVEN>node3</GIVEN>
      <GIVEN>node2</GIVEN>
     <TABLE>0.64901656 0.19252563 0.15845779 0.18531278 0.6295214 0.18516581 0.60659564 0.33920535 0.054199077 0.21141401 0.34921122 0.4393748 0.43955913 0.5022531 0.058187705 0.35499734 0.10949267 0.53551 0.7630441 0.095857464 0.14109837 0.1897095 0.5296472 0.2806433 0.29683778 0.39626336 0.30689886 0.022975484 0.0032767996 0.97374773 0.38203523 0.34240958 0.2755552 0.0069469917 0.30638 0.686673 0.084362425 0.65173006 0.26390746 0.37978035 0.23781146 0.38240814 0.37001 0.4959689 0.13402107 </TABLE>
 </DEFINITION>
 <DEFINITION>
      <FOR>node9</FOR>
      <GIVEN>node12</GIVEN>
     <TABLE>0.1163991 0.83462983 0.04897103 0.16638431 0.7412154 0.09240031 0.6721149 0.2858993 0.041985717 </TABLE>
 </DEFINITION>
 <DEFINITION>
      <FOR>node10</FOR>
      <GIVEN>node5</GIVEN>
      <GIVEN>node17</GIVEN>
      <GIVEN>node8</GIVEN>
     <TABLE>0.01621442 0.98378557 0.58698124 0.41301873 0.71177375 0.28822625 0.8693137 0.13068624 0.4369208 0.56307924 0.8246947 0.17530525 0.1840611 0.8159389 0.24063687 0.7593631 0.75590175 0.24409828 0.6406418 0.35935822 0.0032221936 0.99677783 0.7076676 0.29233238 0.44755387 0.5524462 0.7534475 0.24655256 0.0336442 0.9663558 0.5882931 0.4117069 0.11685508 0.8831449 0.58317435 0.4168256 0.8748239 0.12517606 0.72158015 0.27841985 0.3109197 0.6890803 0.35450494 0.64549506 0.4317103 0.56828976 0.1973599 0.80264014 0.67843395 0.32156608 0.51431197 0.48568803 0.38460582 0.6153942 0.41091958 0.5890804 0.43212703 0.56787294 0.74555165 0.25444832 </TABLE>
 </DEFINITION>
 <DEFINITION>
      <FOR>node11</FOR>
     <TABLE>0.1855332 0.28084967 0.026413271 0.32354784 0.18365599 </TABLE>
 </DEFINITION>
 <DEFINITION>
      <FOR>node12</FOR>
     <TABLE>0.25575852 0.50011605 0.24412541 </TABLE>
 </DEFINITION>
 <DEFINITION>
      <FOR>node13</FOR>
     <TABLE>0.1660937 0.67474115 0.15916522 </TABLE>
 </DEFINITION>
 <DEFINITION>
      <FOR>node14</FOR>
      <GIVEN>node19</GIVEN>
      <GIVEN>node5</GIVEN>
      <GIVEN>node2</GIVEN>
     <TABLE>0.2195861 0.106579326 0.6738346 0.47075382 0.19995531 0.32929084 0.43922788 0.28813925 0.27263284 0.4577197 0.123626195 0.41865408 0.56101686 0.2594083 0.17957482 0.03456441 0.82092685 0.14450878 0.48218027 0.055393185 0.46242654 0.7924712 0.04208632 0.16544248 0.3535233 0.1391098 0.50736684 0.011549582 0.20564863 0.78280175 0.5670205 0.3557037 0.077275775 0.35316992 0.5894513 0.05737882 0.04391103 0.79188997 0.164199 0.77211684 0.18488276 0.0430004 0.40010467 0.43022093 0.16967432 0.26241845 0.56452596 0.17305565 0.39171448 0.3602748 0.24801075 0.16649143 0.36777613 0.46573237 0.17939882 0.70280516 0.11779611 0.19850138 0.5867408 0.2147578 0.58416104 0.018971657 0.39686728 0.8848894 0.0077139726 0.1073966 0.5416922 0.3028448 0.15546297 0.23721409 0.69455665 0.06822928 </TABLE>
 </DEFINITION>
 <DEFINITION>
      <FOR>node15</FOR>
      <GIVEN>node19</GIVEN>
      <GIVEN>node6</GIVEN>
     <TABLE>0.11926311 0.10210054 0.1287829 0.52891904 0.12093446 0.26198572 0.44273847 0.22755799 0.024301518 0.043416258 0.18429895 0.18044174 0.10832419 0.40863538 0.118299685 0.2241273 0.15533659 0.0034699917 0.17851749 0.4385486 0.01992676 0.083821125 0.46679333 0.34295735 0.08650139 0.08421594 0.39140654 0.32167307 0.01688065 0.18582375 0.46500692 0.202703 0.21440777 0.015607796 0.10227459 0.12050644 0.36626673 0.10850598 0.38154665 0.023174234 0.30159244 0.18118168 0.13002014 0.19769773 0.18950798 0.1816075 0.17812337 0.44195446 0.102145754 0.09616893 0.15017797 0.1936139 0.155971 0.19117628 0.30906087 0.15418606 0.18868028 0.086103976 0.28628328 0.28474644 0.39957923 0.11097665 0.1977613 0.024013912 0.26766884 0.1622771 0.10837941 0.6815594 0.00813626 0.039647836 0.022093326 0.5615743 0.019501831 0.29055822 0.10627236 0.38469154 0.12759137 0.093576714 0.17766815 0.21647222 0.12861009 0.033547148 0.2641425 0.49448988 0.07921043 0.2648133 0.023503643 0.3190763 0.15732361 0.23528314 0.18406901 0.08044098 0.2390992 0.16314463 0.3332462 0.049602434 0.55543584 0.2529628 0.11089161 0.03110738 </TABLE>
 </DEFINITION>
 <DEFINITION>
      <FOR>node16</FOR>
      <GIVEN>node6</GIVEN>
     <TABLE>0.089663126 0.82023346 0.09010338 0.22362062 0.69732475 0.07905461 0.47412512 0.50236785 0.023506995 0.3170133 0.29594496 0.38704172 0.43338194 0.0691169 0.4975012 </TABLE>
 </DEFINITION>
 <DEFINITION>
      <FOR>node17</FOR>
      <GIVEN>node4</GIVEN>
     <TABLE>0.009017174 0.045644652 0.060266953 0.26333874 0.6217325 0.1467194 0.16016212 0.47626126 0.1620585 0.054798752 0.10915859 0.055153627 0.48599997 0.29567274 0.0540151 0.6191404 0.063057564 0.03348641 0.0063794944 0.2779362 0.25735793 0.084665254 0.071006425 0.40920284 0.1777675 </TABLE>
 </DEFINITION>
 <DEFINITION>
      <FOR>node18</FOR>
      <GIVEN>node6</GIVEN>
      <GIVEN>node15</GIVEN>
     <TABLE>0.25258276 0.74451923 0.002897951 0.10211613 0.011972525 0.88591135 0.4969586 0.47627813 0.02676325 0.15226875 0.4323033 0.4154279 0.0021559314 0.6565562 0.3412879 0.38758624 0.32607967 0.2863341 0.25032267 0.5383059 0.2113715 0.34084076 0.47815713 0.18100214 0.76816 0.09563991 0.13620013 0.147909 0.2855727 0.5665183 0.44100332 0.5092922 0.04970445 0.11010744 0.15378278 0.7361098 0.09491354 0.65615386 0.24893263 0.0951755 0.43783292 0.46699157 0.8912377 0.03245878 0.07630359 0.28365976 0.7118772 0.0044630193 0.74376935 0.10282035 0.1534103 0.058231987 0.7983867 0.14338131 0.109063484 0.6919282 0.19900824 0.61680204 0.119729005 0.26346895 0.7971302 0.13860463 0.06426507 0.49367893 0.12230534 0.3840158 0.08747473 0.75053835 0.16198692 0.54969865 0.44568333 0.0046179513 0.16642734 0.66488445 0.16868825 </TABLE>
 </DEFINITION>
 <DEFINITION>
      <FOR>node19</FOR>
      <GIVEN>node16</GIVEN>
     <TABLE>0.5111551 0.09787837 0.35842845 0.03253811 0.0228461 0.5566619 0.32418334 0.09630861 0.6179306 0.13756737 0.022850493 0.22165152 </TABLE>
 </DEFINITION>
</NETWORK>
</BIF>
