<?xml version="1.0" encoding="US-ASCII"?>


<!--
	Bayesian network in XMLBIF v0.3 (BayesNet Interchange Format)
	Produced by JavaBayes (http://www.cs.cmu.edu/~javabayes/
	Number of nodes:80
	Output created Thu Aug 07 05:10:32 EDT 2008
-->



<BIF VERSION="0.3">
<NETWORK>
<NAME>Graph1</NAME>
<!-- Variables -->
<VARIABLE TYPE="nature">
    <NAME>node0</NAME>
    <OUTCOME>state0</OUTCOME>
    <OUTCOME>state1</OUTCOME>
    <PROPERTY>position = (45, 30)</PROPERTY>
</VARIABLE>
<!-- Variables -->
<VARIABLE TYPE="nature">
    <NAME>node1</NAME>
    <OUTCOME>state0</OUTCOME>
    <OUTCOME>state1</OUTCOME>
    <PROPERTY>position = (165, 44)</PROPERTY>
</VARIABLE>
<!-- Variables -->
<VARIABLE TYPE="nature">
    <NAME>node2</NAME>
    <OUTCOME>state0</OUTCOME>
    <OUTCOME>state1</OUTCOME>
    <PROPERTY>position = (15, 630)</PROPERTY>
</VARIABLE>
<!-- Variables -->
<VARIABLE TYPE="nature">
    <NAME>node3</NAME>
    <OUTCOME>state0</OUTCOME>
    <OUTCOME>state1</OUTCOME>
    <PROPERTY>position = (15, 150)</PROPERTY>
</VARIABLE>
<!-- Variables -->
<VARIABLE TYPE="nature">
    <NAME>node4</NAME>
    <OUTCOME>state0</OUTCOME>
    <OUTCOME>state1</OUTCOME>
    <PROPERTY>position = (44, 270)</PROPERTY>
</VARIABLE>
<!-- Variables -->
<VARIABLE TYPE="nature">
    <NAME>node5</NAME>
    <OUTCOME>state0</OUTCOME>
    <OUTCOME>state1</OUTCOME>
    <PROPERTY>position = (285, 30)</PROPERTY>
</VARIABLE>
<!-- Variables -->
<VARIABLE TYPE="nature">
    <NAME>node6</NAME>
    <OUTCOME>state0</OUTCOME>
    <OUTCOME>state1</OUTCOME>
    <PROPERTY>position = (44, 510)</PROPERTY>
</VARIABLE>
<!-- Variables -->
<VARIABLE TYPE="nature">
    <NAME>node7</NAME>
    <OUTCOME>state0</OUTCOME>
    <OUTCOME>state1</OUTCOME>
    <PROPERTY>position = (135, 644)</PROPERTY>
</VARIABLE>
<!-- Variables -->
<VARIABLE TYPE="nature">
    <NAME>node8</NAME>
    <OUTCOME>state0</OUTCOME>
    <OUTCOME>state1</OUTCOME>
    <PROPERTY>position = (164, 284)</PROPERTY>
</VARIABLE>
<!-- Variables -->
<VARIABLE TYPE="nature">
    <NAME>node9</NAME>
    <OUTCOME>state0</OUTCOME>
    <OUTCOME>state1</OUTCOME>
    <PROPERTY>position = (135, 164)</PROPERTY>
</VARIABLE>
<!-- Variables -->
<VARIABLE TYPE="nature">
    <NAME>node10</NAME>
    <OUTCOME>state0</OUTCOME>
    <OUTCOME>state1</OUTCOME>
    <PROPERTY>position = (255, 150)</PROPERTY>
</VARIABLE>
<!-- Variables -->
<VARIABLE TYPE="nature">
    <NAME>node11</NAME>
    <OUTCOME>state0</OUTCOME>
    <OUTCOME>state1</OUTCOME>
    <PROPERTY>position = (284, 270)</PROPERTY>
</VARIABLE>
<!-- Variables -->
<VARIABLE TYPE="nature">
    <NAME>node12</NAME>
    <OUTCOME>state0</OUTCOME>
    <OUTCOME>state1</OUTCOME>
    <PROPERTY>position = (15, 390)</PROPERTY>
</VARIABLE>
<!-- Variables -->
<VARIABLE TYPE="nature">
    <NAME>node13</NAME>
    <OUTCOME>state0</OUTCOME>
    <OUTCOME>state1</OUTCOME>
    <PROPERTY>position = (135, 404)</PROPERTY>
</VARIABLE>
<!-- Variables -->
<VARIABLE TYPE="nature">
    <NAME>node14</NAME>
    <OUTCOME>state0</OUTCOME>
    <OUTCOME>state1</OUTCOME>
    <PROPERTY>position = (405, 15)</PROPERTY>
</VARIABLE>
<!-- Variables -->
<VARIABLE TYPE="nature">
    <NAME>node15</NAME>
    <OUTCOME>state0</OUTCOME>
    <OUTCOME>state1</OUTCOME>
    <PROPERTY>position = (404, 255)</PROPERTY>
</VARIABLE>
<!-- Variables -->
<VARIABLE TYPE="nature">
    <NAME>node16</NAME>
    <OUTCOME>state0</OUTCOME>
    <OUTCOME>state1</OUTCOME>
    <PROPERTY>position = (255, 390)</PROPERTY>
</VARIABLE>
<!-- Variables -->
<VARIABLE TYPE="nature">
    <NAME>node17</NAME>
    <OUTCOME>state0</OUTCOME>
    <OUTCOME>state1</OUTCOME>
    <PROPERTY>position = (164, 524)</PROPERTY>
</VARIABLE>
<!-- Variables -->
<VARIABLE TYPE="nature">
    <NAME>node18</NAME>
    <OUTCOME>state0</OUTCOME>
    <OUTCOME>state1</OUTCOME>
    <PROPERTY>position = (375, 375)</PROPERTY>
</VARIABLE>
<!-- Variables -->
<VARIABLE TYPE="nature">
    <NAME>node19</NAME>
    <OUTCOME>state0</OUTCOME>
    <OUTCOME>state1</OUTCOME>
    <PROPERTY>position = (375, 135)</PROPERTY>
</VARIABLE>
<!-- Variables -->
<VARIABLE TYPE="nature">
    <NAME>node20</NAME>
    <OUTCOME>state0</OUTCOME>
    <OUTCOME>state1</OUTCOME>
    <PROPERTY>position = (495, 389)</PROPERTY>
</VARIABLE>
<!-- Variables -->
<VARIABLE TYPE="nature">
    <NAME>node21</NAME>
    <OUTCOME>state0</OUTCOME>
    <OUTCOME>state1</OUTCOME>
    <PROPERTY>position = (284, 510)</PROPERTY>
</VARIABLE>
<!-- Variables -->
<VARIABLE TYPE="nature">
    <NAME>node22</NAME>
    <OUTCOME>state0</OUTCOME>
    <OUTCOME>state1</OUTCOME>
    <PROPERTY>position = (615, 404)</PROPERTY>
</VARIABLE>
<!-- Variables -->
<VARIABLE TYPE="nature">
    <NAME>node23</NAME>
    <OUTCOME>state0</OUTCOME>
    <OUTCOME>state1</OUTCOME>
    <PROPERTY>position = (524, 269)</PROPERTY>
</VARIABLE>
<!-- Variables -->
<VARIABLE TYPE="nature">
    <NAME>node24</NAME>
    <OUTCOME>state0</OUTCOME>
    <OUTCOME>state1</OUTCOME>
    <PROPERTY>position = (495, 149)</PROPERTY>
</VARIABLE>
<!-- Variables -->
<VARIABLE TYPE="nature">
    <NAME>node25</NAME>
    <OUTCOME>state0</OUTCOME>
    <OUTCOME>state1</OUTCOME>
    <PROPERTY>position = (644, 284)</PROPERTY>
</VARIABLE>
<!-- Variables -->
<VARIABLE TYPE="nature">
    <NAME>node26</NAME>
    <OUTCOME>state0</OUTCOME>
    <OUTCOME>state1</OUTCOME>
    <PROPERTY>position = (615, 164)</PROPERTY>
</VARIABLE>
<!-- Variables -->
<VARIABLE TYPE="nature">
    <NAME>node27</NAME>
    <OUTCOME>state0</OUTCOME>
    <OUTCOME>state1</OUTCOME>
    <PROPERTY>position = (735, 390)</PROPERTY>
</VARIABLE>
<!-- Variables -->
<VARIABLE TYPE="nature">
    <NAME>node28</NAME>
    <OUTCOME>state0</OUTCOME>
    <OUTCOME>state1</OUTCOME>
    <PROPERTY>position = (855, 375)</PROPERTY>
</VARIABLE>
<!-- Variables -->
<VARIABLE TYPE="nature">
    <NAME>node29</NAME>
    <OUTCOME>state0</OUTCOME>
    <OUTCOME>state1</OUTCOME>
    <PROPERTY>position = (735, 150)</PROPERTY>
</VARIABLE>
<!-- Variables -->
<VARIABLE TYPE="nature">
    <NAME>node30</NAME>
    <OUTCOME>state0</OUTCOME>
    <OUTCOME>state1</OUTCOME>
    <PROPERTY>position = (764, 270)</PROPERTY>
</VARIABLE>
<!-- Variables -->
<VARIABLE TYPE="nature">
    <NAME>node31</NAME>
    <OUTCOME>state0</OUTCOME>
    <OUTCOME>state1</OUTCOME>
    <PROPERTY>position = (884, 255)</PROPERTY>
</VARIABLE>
<!-- Variables -->
<VARIABLE TYPE="nature">
    <NAME>node32</NAME>
    <OUTCOME>state0</OUTCOME>
    <OUTCOME>state1</OUTCOME>
    <PROPERTY>position = (1004, 269)</PROPERTY>
</VARIABLE>
<!-- Variables -->
<VARIABLE TYPE="nature">
    <NAME>node33</NAME>
    <OUTCOME>state0</OUTCOME>
    <OUTCOME>state1</OUTCOME>
    <PROPERTY>position = (255, 630)</PROPERTY>
</VARIABLE>
<!-- Variables -->
<VARIABLE TYPE="nature">
    <NAME>node34</NAME>
    <OUTCOME>state0</OUTCOME>
    <OUTCOME>state1</OUTCOME>
    <PROPERTY>position = (1124, 284)</PROPERTY>
</VARIABLE>
<!-- Variables -->
<VARIABLE TYPE="nature">
    <NAME>node35</NAME>
    <OUTCOME>state0</OUTCOME>
    <OUTCOME>state1</OUTCOME>
    <PROPERTY>position = (975, 389)</PROPERTY>
</VARIABLE>
<!-- Variables -->
<VARIABLE TYPE="nature">
    <NAME>node36</NAME>
    <OUTCOME>state0</OUTCOME>
    <OUTCOME>state1</OUTCOME>
    <PROPERTY>position = (1244, 270)</PROPERTY>
</VARIABLE>
<!-- Variables -->
<VARIABLE TYPE="nature">
    <NAME>node37</NAME>
    <OUTCOME>state0</OUTCOME>
    <OUTCOME>state1</OUTCOME>
    <PROPERTY>position = (375, 615)</PROPERTY>
</VARIABLE>
<!-- Variables -->
<VARIABLE TYPE="nature">
    <NAME>node38</NAME>
    <OUTCOME>state0</OUTCOME>
    <OUTCOME>state1</OUTCOME>
    <PROPERTY>position = (855, 135)</PROPERTY>
</VARIABLE>
<!-- Variables -->
<VARIABLE TYPE="nature">
    <NAME>node39</NAME>
    <OUTCOME>state0</OUTCOME>
    <OUTCOME>state1</OUTCOME>
    <PROPERTY>position = (1095, 404)</PROPERTY>
</VARIABLE>
<!-- Variables -->
<VARIABLE TYPE="nature">
    <NAME>node40</NAME>
    <OUTCOME>state0</OUTCOME>
    <OUTCOME>state1</OUTCOME>
    <PROPERTY>position = (404, 495)</PROPERTY>
</VARIABLE>
<!-- Variables -->
<VARIABLE TYPE="nature">
    <NAME>node41</NAME>
    <OUTCOME>state0</OUTCOME>
    <OUTCOME>state1</OUTCOME>
    <PROPERTY>position = (495, 629)</PROPERTY>
</VARIABLE>
<!-- Variables -->
<VARIABLE TYPE="nature">
    <NAME>node42</NAME>
    <OUTCOME>state0</OUTCOME>
    <OUTCOME>state1</OUTCOME>
    <PROPERTY>position = (975, 149)</PROPERTY>
</VARIABLE>
<!-- Variables -->
<VARIABLE TYPE="nature">
    <NAME>node43</NAME>
    <OUTCOME>state0</OUTCOME>
    <OUTCOME>state1</OUTCOME>
    <PROPERTY>position = (1215, 390)</PROPERTY>
</VARIABLE>
<!-- Variables -->
<VARIABLE TYPE="nature">
    <NAME>node44</NAME>
    <OUTCOME>state0</OUTCOME>
    <OUTCOME>state1</OUTCOME>
    <PROPERTY>position = (1335, 375)</PROPERTY>
</VARIABLE>
<!-- Variables -->
<VARIABLE TYPE="nature">
    <NAME>node45</NAME>
    <OUTCOME>state0</OUTCOME>
    <OUTCOME>state1</OUTCOME>
    <PROPERTY>position = (1095, 164)</PROPERTY>
</VARIABLE>
<!-- Variables -->
<VARIABLE TYPE="nature">
    <NAME>node46</NAME>
    <OUTCOME>state0</OUTCOME>
    <OUTCOME>state1</OUTCOME>
    <PROPERTY>position = (525, 29)</PROPERTY>
</VARIABLE>
<!-- Variables -->
<VARIABLE TYPE="nature">
    <NAME>node47</NAME>
    <OUTCOME>state0</OUTCOME>
    <OUTCOME>state1</OUTCOME>
    <PROPERTY>position = (645, 44)</PROPERTY>
</VARIABLE>
<!-- Variables -->
<VARIABLE TYPE="nature">
    <NAME>node48</NAME>
    <OUTCOME>state0</OUTCOME>
    <OUTCOME>state1</OUTCOME>
    <PROPERTY>position = (524, 509)</PROPERTY>
</VARIABLE>
<!-- Variables -->
<VARIABLE TYPE="nature">
    <NAME>node49</NAME>
    <OUTCOME>state0</OUTCOME>
    <OUTCOME>state1</OUTCOME>
    <PROPERTY>position = (1215, 150)</PROPERTY>
</VARIABLE>
<!-- Variables -->
<VARIABLE TYPE="nature">
    <NAME>node50</NAME>
    <OUTCOME>state0</OUTCOME>
    <OUTCOME>state1</OUTCOME>
    <PROPERTY>position = (1364, 255)</PROPERTY>
</VARIABLE>
<!-- Variables -->
<VARIABLE TYPE="nature">
    <NAME>node51</NAME>
    <OUTCOME>state0</OUTCOME>
    <OUTCOME>state1</OUTCOME>
    <PROPERTY>position = (644, 524)</PROPERTY>
</VARIABLE>
<!-- Variables -->
<VARIABLE TYPE="nature">
    <NAME>node52</NAME>
    <OUTCOME>state0</OUTCOME>
    <OUTCOME>state1</OUTCOME>
    <PROPERTY>position = (764, 510)</PROPERTY>
</VARIABLE>
<!-- Variables -->
<VARIABLE TYPE="nature">
    <NAME>node53</NAME>
    <OUTCOME>state0</OUTCOME>
    <OUTCOME>state1</OUTCOME>
    <PROPERTY>position = (1335, 135)</PROPERTY>
</VARIABLE>
<!-- Variables -->
<VARIABLE TYPE="nature">
    <NAME>node54</NAME>
    <OUTCOME>state0</OUTCOME>
    <OUTCOME>state1</OUTCOME>
    <PROPERTY>position = (1484, 269)</PROPERTY>
</VARIABLE>
<!-- Variables -->
<VARIABLE TYPE="nature">
    <NAME>node55</NAME>
    <OUTCOME>state0</OUTCOME>
    <OUTCOME>state1</OUTCOME>
    <PROPERTY>position = (1455, 389)</PROPERTY>
</VARIABLE>
<!-- Variables -->
<VARIABLE TYPE="nature">
    <NAME>node56</NAME>
    <OUTCOME>state0</OUTCOME>
    <OUTCOME>state1</OUTCOME>
    <PROPERTY>position = (1604, 284)</PROPERTY>
</VARIABLE>
<!-- Variables -->
<VARIABLE TYPE="nature">
    <NAME>node57</NAME>
    <OUTCOME>state0</OUTCOME>
    <OUTCOME>state1</OUTCOME>
    <PROPERTY>position = (884, 495)</PROPERTY>
</VARIABLE>
<!-- Variables -->
<VARIABLE TYPE="nature">
    <NAME>node58</NAME>
    <OUTCOME>state0</OUTCOME>
    <OUTCOME>state1</OUTCOME>
    <PROPERTY>position = (1724, 270)</PROPERTY>
</VARIABLE>
<!-- Variables -->
<VARIABLE TYPE="nature">
    <NAME>node59</NAME>
    <OUTCOME>state0</OUTCOME>
    <OUTCOME>state1</OUTCOME>
    <PROPERTY>position = (1455, 149)</PROPERTY>
</VARIABLE>
<!-- Variables -->
<VARIABLE TYPE="nature">
    <NAME>node60</NAME>
    <OUTCOME>state0</OUTCOME>
    <OUTCOME>state1</OUTCOME>
    <PROPERTY>position = (1575, 164)</PROPERTY>
</VARIABLE>
<!-- Variables -->
<VARIABLE TYPE="nature">
    <NAME>node61</NAME>
    <OUTCOME>state0</OUTCOME>
    <OUTCOME>state1</OUTCOME>
    <PROPERTY>position = (1844, 255)</PROPERTY>
</VARIABLE>
<!-- Variables -->
<VARIABLE TYPE="nature">
    <NAME>node62</NAME>
    <OUTCOME>state0</OUTCOME>
    <OUTCOME>state1</OUTCOME>
    <PROPERTY>position = (1575, 404)</PROPERTY>
</VARIABLE>
<!-- Variables -->
<VARIABLE TYPE="nature">
    <NAME>node63</NAME>
    <OUTCOME>state0</OUTCOME>
    <OUTCOME>state1</OUTCOME>
    <PROPERTY>position = (1004, 509)</PROPERTY>
</VARIABLE>
<!-- Variables -->
<VARIABLE TYPE="nature">
    <NAME>node64</NAME>
    <OUTCOME>state0</OUTCOME>
    <OUTCOME>state1</OUTCOME>
    <PROPERTY>position = (1964, 269)</PROPERTY>
</VARIABLE>
<!-- Variables -->
<VARIABLE TYPE="nature">
    <NAME>node65</NAME>
    <OUTCOME>state0</OUTCOME>
    <OUTCOME>state1</OUTCOME>
    <PROPERTY>position = (1124, 524)</PROPERTY>
</VARIABLE>
<!-- Variables -->
<VARIABLE TYPE="nature">
    <NAME>node66</NAME>
    <OUTCOME>state0</OUTCOME>
    <OUTCOME>state1</OUTCOME>
    <PROPERTY>position = (765, 30)</PROPERTY>
</VARIABLE>
<!-- Variables -->
<VARIABLE TYPE="nature">
    <NAME>node67</NAME>
    <OUTCOME>state0</OUTCOME>
    <OUTCOME>state1</OUTCOME>
    <PROPERTY>position = (1244, 510)</PROPERTY>
</VARIABLE>
<!-- Variables -->
<VARIABLE TYPE="nature">
    <NAME>node68</NAME>
    <OUTCOME>state0</OUTCOME>
    <OUTCOME>state1</OUTCOME>
    <PROPERTY>position = (1695, 390)</PROPERTY>
</VARIABLE>
<!-- Variables -->
<VARIABLE TYPE="nature">
    <NAME>node69</NAME>
    <OUTCOME>state0</OUTCOME>
    <OUTCOME>state1</OUTCOME>
    <PROPERTY>position = (2084, 284)</PROPERTY>
</VARIABLE>
<!-- Variables -->
<VARIABLE TYPE="nature">
    <NAME>node70</NAME>
    <OUTCOME>state0</OUTCOME>
    <OUTCOME>state1</OUTCOME>
    <PROPERTY>position = (2204, 270)</PROPERTY>
</VARIABLE>
<!-- Variables -->
<VARIABLE TYPE="nature">
    <NAME>node71</NAME>
    <OUTCOME>state0</OUTCOME>
    <OUTCOME>state1</OUTCOME>
    <PROPERTY>position = (2324, 255)</PROPERTY>
</VARIABLE>
<!-- Variables -->
<VARIABLE TYPE="nature">
    <NAME>node72</NAME>
    <OUTCOME>state0</OUTCOME>
    <OUTCOME>state1</OUTCOME>
    <PROPERTY>position = (885, 15)</PROPERTY>
</VARIABLE>
<!-- Variables -->
<VARIABLE TYPE="nature">
    <NAME>node73</NAME>
    <OUTCOME>state0</OUTCOME>
    <OUTCOME>state1</OUTCOME>
    <PROPERTY>position = (1364, 495)</PROPERTY>
</VARIABLE>
<!-- Variables -->
<VARIABLE TYPE="nature">
    <NAME>node74</NAME>
    <OUTCOME>state0</OUTCOME>
    <OUTCOME>state1</OUTCOME>
    <PROPERTY>position = (1815, 375)</PROPERTY>
</VARIABLE>
<!-- Variables -->
<VARIABLE TYPE="nature">
    <NAME>node75</NAME>
    <OUTCOME>state0</OUTCOME>
    <OUTCOME>state1</OUTCOME>
    <PROPERTY>position = (2444, 269)</PROPERTY>
</VARIABLE>
<!-- Variables -->
<VARIABLE TYPE="nature">
    <NAME>node76</NAME>
    <OUTCOME>state0</OUTCOME>
    <OUTCOME>state1</OUTCOME>
    <PROPERTY>position = (615, 644)</PROPERTY>
</VARIABLE>
<!-- Variables -->
<VARIABLE TYPE="nature">
    <NAME>node77</NAME>
    <OUTCOME>state0</OUTCOME>
    <OUTCOME>state1</OUTCOME>
    <PROPERTY>position = (1484, 509)</PROPERTY>
</VARIABLE>
<!-- Variables -->
<VARIABLE TYPE="nature">
    <NAME>node78</NAME>
    <OUTCOME>state0</OUTCOME>
    <OUTCOME>state1</OUTCOME>
    <PROPERTY>position = (1695, 150)</PROPERTY>
</VARIABLE>
<!-- Variables -->
<VARIABLE TYPE="nature">
    <NAME>node79</NAME>
    <OUTCOME>state0</OUTCOME>
    <OUTCOME>state1</OUTCOME>
    <PROPERTY>position = (1604, 524)</PROPERTY>
</VARIABLE>
<!-- Probability Distributions -->
 <DEFINITION>
      <FOR>node0</FOR>
     <TABLE>0.6616514 0.33834863 </TABLE>
 </DEFINITION>
 <DEFINITION>
      <FOR>node1</FOR>
     <TABLE>0.16291593 0.83708405 </TABLE>
 </DEFINITION>
 <DEFINITION>
      <FOR>node2</FOR>
      <GIVEN>node46</GIVEN>
      <GIVEN>node68</GIVEN>
      <GIVEN>node4</GIVEN>
      <GIVEN>node65</GIVEN>
      <GIVEN>node20</GIVEN>
     <TABLE>0.66759616 0.33240384 0.96281785 0.037182156 0.080428645 0.9195714 0.13918193 0.8608181 0.57719225 0.42280778 0.3258115 0.6741885 0.91366684 0.08633319 0.5503821 0.44961786 0.6552456 0.3447544 0.92810774 0.07189224 0.60771453 0.3922855 0.0071831634 0.9928168 0.73577195 0.26422808 0.9988329 0.0011670901 0.7334315 0.26656845 0.96775746 0.032242555 0.82982343 0.17017661 0.12689918 0.8731008 0.03634296 0.9636571 0.81029224 0.18970774 0.7078108 0.29218915 0.93633926 0.06366072 0.37100896 0.628991 0.80775476 0.19224523 0.90825284 0.09174721 0.99341315 0.006586827 0.45336446 0.54663557 0.9010419 0.09895807 0.4453576 0.5546424 0.36982176 0.6301782 0.7637185 0.23628153 0.803881 0.196119 </TABLE>
 </DEFINITION>
 <DEFINITION>
      <FOR>node3</FOR>
      <GIVEN>node5</GIVEN>
     <TABLE>0.23331894 0.766681 0.9706849 0.0293151 </TABLE>
 </DEFINITION>
 <DEFINITION>
      <FOR>node4</FOR>
      <GIVEN>node78</GIVEN>
      <GIVEN>node29</GIVEN>
     <TABLE>0.29621854 0.7037814 0.31374583 0.6862542 0.10329346 0.8967065 0.104611374 0.8953886 </TABLE>
 </DEFINITION>
 <DEFINITION>
      <FOR>node5</FOR>
     <TABLE>0.05762696 0.94237304 </TABLE>
 </DEFINITION>
 <DEFINITION>
      <FOR>node6</FOR>
      <GIVEN>node21</GIVEN>
      <GIVEN>node26</GIVEN>
      <GIVEN>node77</GIVEN>
      <GIVEN>node62</GIVEN>
     <TABLE>0.46594763 0.5340524 0.04937438 0.9506256 0.30590922 0.6940908 0.6581497 0.3418503 0.34046134 0.6595387 0.5282809 0.47171903 0.101150356 0.89884967 0.098440565 0.9015594 0.19805846 0.8019415 0.71583045 0.2841696 0.52236336 0.4776367 0.5748373 0.42516267 0.35730228 0.64269775 0.9225818 0.077418216 0.9224872 0.07751283 0.24516374 0.75483626 </TABLE>
 </DEFINITION>
 <DEFINITION>
      <FOR>node7</FOR>
      <GIVEN>node27</GIVEN>
      <GIVEN>node18</GIVEN>
      <GIVEN>node40</GIVEN>
      <GIVEN>node42</GIVEN>
      <GIVEN>node66</GIVEN>
     <TABLE>0.5735105 0.42648947 0.9665121 0.033487897 0.31476346 0.68523645 0.06514277 0.93485725 0.60734135 0.39265865 0.8399909 0.16000906 0.21455438 0.78544563 0.12373029 0.87626976 0.34275478 0.6572452 0.4521755 0.5478245 0.4673233 0.5326767 0.3777283 0.62227166 0.07864925 0.9213507 0.25556713 0.7444329 0.42658523 0.5734148 0.51486456 0.4851354 0.40578562 0.5942144 0.7988198 0.20118022 0.21009669 0.7899033 0.47847205 0.52152795 0.8231686 0.17683142 0.8765039 0.123496145 0.24023378 0.7597662 0.5766395 0.42336056 0.24361166 0.75638837 0.7693685 0.2306315 0.39678776 0.60321224 0.81465447 0.18534556 0.16448806 0.8355119 0.88363093 0.11636906 0.8472617 0.15273824 0.5974532 0.4025468 </TABLE>
 </DEFINITION>
 <DEFINITION>
      <FOR>node8</FOR>
      <GIVEN>node54</GIVEN>
      <GIVEN>node24</GIVEN>
     <TABLE>0.9278085 0.07219141 0.3614398 0.6385602 0.27681938 0.7231806 0.17903571 0.82096434 </TABLE>
 </DEFINITION>
 <DEFINITION>
      <FOR>node9</FOR>
      <GIVEN>node1</GIVEN>
     <TABLE>0.17351884 0.8264811 0.004195123 0.99580485 </TABLE>
 </DEFINITION>
 <DEFINITION>
      <FOR>node10</FOR>
      <GIVEN>node45</GIVEN>
     <TABLE>0.48617268 0.5138273 0.59233737 0.40766257 </TABLE>
 </DEFINITION>
 <DEFINITION>
      <FOR>node11</FOR>
      <GIVEN>node47</GIVEN>
      <GIVEN>node52</GIVEN>
     <TABLE>0.35681182 0.6431881 0.8006172 0.19938278 0.21859604 0.78140396 0.66789114 0.33210883 </TABLE>
 </DEFINITION>
 <DEFINITION>
      <FOR>node12</FOR>
      <GIVEN>node28</GIVEN>
      <GIVEN>node9</GIVEN>
      <GIVEN>node54</GIVEN>
     <TABLE>0.7728117 0.22718826 0.38531774 0.61468226 0.5052441 0.49475598 0.38965383 0.6103462 0.8718446 0.12815541 0.21370226 0.78629774 0.69584227 0.3041577 0.7283052 0.27169472 </TABLE>
 </DEFINITION>
 <DEFINITION>
      <FOR>node13</FOR>
      <GIVEN>node5</GIVEN>
      <GIVEN>node42</GIVEN>
      <GIVEN>node49</GIVEN>
     <TABLE>0.46161532 0.5383847 0.8811991 0.11880089 0.64883053 0.35116947 0.5550245 0.44497547 0.016015926 0.9839841 0.3980649 0.6019351 0.20834133 0.79165864 0.7272618 0.27273822 </TABLE>
 </DEFINITION>
 <DEFINITION>
      <FOR>node14</FOR>
     <TABLE>0.33872083 0.6612792 </TABLE>
 </DEFINITION>
 <DEFINITION>
      <FOR>node15</FOR>
      <GIVEN>node31</GIVEN>
      <GIVEN>node43</GIVEN>
     <TABLE>0.14197804 0.8580219 0.4942986 0.5057014 0.97470856 0.02529145 0.36372656 0.63627344 </TABLE>
 </DEFINITION>
 <DEFINITION>
      <FOR>node16</FOR>
      <GIVEN>node26</GIVEN>
      <GIVEN>node42</GIVEN>
      <GIVEN>node45</GIVEN>
     <TABLE>0.3193879 0.6806121 0.6928107 0.30718923 0.017744359 0.98225564 0.30008352 0.6999165 0.36272898 0.637271 0.6349235 0.36507654 0.77904475 0.22095528 0.6091527 0.3908473 </TABLE>
 </DEFINITION>
 <DEFINITION>
      <FOR>node17</FOR>
      <GIVEN>node3</GIVEN>
      <GIVEN>node67</GIVEN>
      <GIVEN>node10</GIVEN>
      <GIVEN>node19</GIVEN>
     <TABLE>0.44503722 0.55496275 0.6752341 0.32476595 0.47225913 0.52774084 0.58670515 0.41329485 0.052752897 0.94724715 0.31875077 0.68124926 0.60441744 0.3955825 0.4672167 0.5327834 0.955587 0.04441293 0.48367268 0.5163273 0.9662723 0.03372772 0.40997005 0.59003 0.8755815 0.12441848 0.18829566 0.81170434 0.8230607 0.17693934 0.09457618 0.9054238 </TABLE>
 </DEFINITION>
 <DEFINITION>
      <FOR>node18</FOR>
      <GIVEN>node30</GIVEN>
      <GIVEN>node0</GIVEN>
      <GIVEN>node24</GIVEN>
     <TABLE>0.6335776 0.3664224 0.7448556 0.2551444 0.6007841 0.39921585 0.013315809 0.98668414 0.38096038 0.6190396 0.48329052 0.51670945 0.10607533 0.8939247 0.4597365 0.5402635 </TABLE>
 </DEFINITION>
 <DEFINITION>
      <FOR>node19</FOR>
      <GIVEN>node14</GIVEN>
     <TABLE>0.52123725 0.4787627 0.2753384 0.7246616 </TABLE>
 </DEFINITION>
 <DEFINITION>
      <FOR>node20</FOR>
      <GIVEN>node42</GIVEN>
      <GIVEN>node34</GIVEN>
      <GIVEN>node15</GIVEN>
     <TABLE>0.4814272 0.51857287 0.3524719 0.6475281 0.110229395 0.8897706 0.26037607 0.73962396 0.4680175 0.5319825 0.018379379 0.98162067 0.63691187 0.3630882 0.19263946 0.80736053 </TABLE>
 </DEFINITION>
 <DEFINITION>
      <FOR>node21</FOR>
      <GIVEN>node1</GIVEN>
      <GIVEN>node22</GIVEN>
      <GIVEN>node75</GIVEN>
      <GIVEN>node17</GIVEN>
     <TABLE>0.71111965 0.28888035 0.39132702 0.608673 0.18493806 0.8150619 0.3790222 0.62097776 0.19745864 0.8025414 0.7398401 0.2601599 0.1301901 0.86980987 0.31924286 0.6807571 0.006323341 0.99367666 0.19365548 0.8063445 0.7247854 0.27521464 0.19747078 0.8025292 0.9420399 0.057960063 0.5346344 0.46536562 0.942731 0.057268966 0.26878986 0.7312102 </TABLE>
 </DEFINITION>
 <DEFINITION>
      <FOR>node22</FOR>
      <GIVEN>node53</GIVEN>
      <GIVEN>node49</GIVEN>
      <GIVEN>node57</GIVEN>
     <TABLE>0.8345821 0.16541788 0.31659266 0.6834073 0.52683663 0.4731634 0.7983502 0.2016498 0.13202748 0.8679725 0.59772664 0.40227333 0.7666645 0.23333551 0.07488069 0.9251193 </TABLE>
 </DEFINITION>
 <DEFINITION>
      <FOR>node23</FOR>
      <GIVEN>node56</GIVEN>
      <GIVEN>node36</GIVEN>
     <TABLE>0.24801701 0.75198305 0.7666635 0.23333643 0.1508273 0.8491728 0.15362109 0.8463789 </TABLE>
 </DEFINITION>
 <DEFINITION>
      <FOR>node24</FOR>
      <GIVEN>node49</GIVEN>
     <TABLE>0.017112497 0.9828875 0.43319333 0.56680673 </TABLE>
 </DEFINITION>
 <DEFINITION>
      <FOR>node25</FOR>
      <GIVEN>node5</GIVEN>
      <GIVEN>node35</GIVEN>
     <TABLE>0.90700287 0.09299713 0.88219374 0.1178063 0.40243727 0.59756273 0.327337 0.67266303 </TABLE>
 </DEFINITION>
 <DEFINITION>
      <FOR>node26</FOR>
      <GIVEN>node47</GIVEN>
     <TABLE>0.5832498 0.4167502 0.41178834 0.5882117 </TABLE>
 </DEFINITION>
 <DEFINITION>
      <FOR>node27</FOR>
      <GIVEN>node16</GIVEN>
      <GIVEN>node62</GIVEN>
      <GIVEN>node26</GIVEN>
     <TABLE>0.549267 0.45073304 0.35655424 0.64344573 0.1597925 0.8402075 0.0049970364 0.9950029 0.10114945 0.89885056 0.68184865 0.31815135 0.7598704 0.24012959 0.6686462 0.33135384 </TABLE>
 </DEFINITION>
 <DEFINITION>
      <FOR>node28</FOR>
      <GIVEN>node46</GIVEN>
      <GIVEN>node23</GIVEN>
      <GIVEN>node45</GIVEN>
     <TABLE>0.20960943 0.7903906 0.27831563 0.72168434 0.0044374703 0.99556255 0.67740244 0.3225976 0.30266634 0.69733363 0.77495944 0.22504053 0.87178063 0.12821938 0.70065033 0.2993496 </TABLE>
 </DEFINITION>
 <DEFINITION>
      <FOR>node29</FOR>
      <GIVEN>node24</GIVEN>
     <TABLE>0.04867346 0.95132655 0.8663363 0.13366373 </TABLE>
 </DEFINITION>
 <DEFINITION>
      <FOR>node30</FOR>
      <GIVEN>node64</GIVEN>
      <GIVEN>node23</GIVEN>
     <TABLE>0.9795969 0.020403113 0.20599706 0.79400295 0.30237395 0.69762605 0.4880964 0.5119036 </TABLE>
 </DEFINITION>
 <DEFINITION>
      <FOR>node31</FOR>
      <GIVEN>node66</GIVEN>
      <GIVEN>node9</GIVEN>
     <TABLE>0.48357558 0.5164244 0.07489409 0.9251059 0.94047314 0.05952688 0.7914097 0.20859031 </TABLE>
 </DEFINITION>
 <DEFINITION>
      <FOR>node32</FOR>
      <GIVEN>node69</GIVEN>
      <GIVEN>node71</GIVEN>
     <TABLE>0.44160572 0.55839425 0.4312479 0.56875217 0.15165883 0.84834117 0.5503038 0.44969624 </TABLE>
 </DEFINITION>
 <DEFINITION>
      <FOR>node33</FOR>
      <GIVEN>node35</GIVEN>
      <GIVEN>node38</GIVEN>
      <GIVEN>node70</GIVEN>
      <GIVEN>node30</GIVEN>
      <GIVEN>node24</GIVEN>
     <TABLE>0.26102287 0.73897713 0.7118284 0.2881716 0.3912172 0.60878277 0.16257662 0.8374234 0.08080851 0.9191914 0.35357502 0.646425 0.39971387 0.6002861 0.6254459 0.37455404 0.395839 0.60416096 0.1462269 0.8537731 0.78921497 0.21078506 0.72633845 0.27366152 0.5537368 0.44626316 0.3361269 0.6638731 0.052006193 0.94799376 0.08922612 0.9107739 0.85680336 0.14319664 0.47088444 0.52911556 0.35294876 0.6470513 0.37381008 0.6261899 0.39169928 0.6083007 0.9358831 0.06411689 0.8103163 0.18968369 0.768461 0.23153892 0.72829986 0.2717001 0.2170523 0.7829477 0.24263157 0.7573684 0.3624686 0.6375314 0.10520507 0.8947949 0.33346468 0.6665354 0.8089649 0.19103505 0.5982179 0.40178213 </TABLE>
 </DEFINITION>
 <DEFINITION>
      <FOR>node34</FOR>
      <GIVEN>node3</GIVEN>
      <GIVEN>node36</GIVEN>
     <TABLE>0.339442 0.6605579 0.8410355 0.15896456 0.19576316 0.8042369 0.77554214 0.22445787 </TABLE>
 </DEFINITION>
 <DEFINITION>
      <FOR>node35</FOR>
      <GIVEN>node18</GIVEN>
      <GIVEN>node56</GIVEN>
      <GIVEN>node58</GIVEN>
     <TABLE>0.08069334 0.91930664 0.36983916 0.6301608 0.7816752 0.21832481 0.51219755 0.48780245 0.7598412 0.24015877 0.80754864 0.19245137 0.77255446 0.22744556 0.18124723 0.8187527 </TABLE>
 </DEFINITION>
 <DEFINITION>
      <FOR>node36</FOR>
      <GIVEN>node61</GIVEN>
      <GIVEN>node45</GIVEN>
     <TABLE>0.4363391 0.56366086 0.78934145 0.21065858 0.085377656 0.91462237 0.81941336 0.18058662 </TABLE>
 </DEFINITION>
 <DEFINITION>
      <FOR>node37</FOR>
      <GIVEN>node55</GIVEN>
      <GIVEN>node46</GIVEN>
      <GIVEN>node15</GIVEN>
      <GIVEN>node13</GIVEN>
      <GIVEN>node43</GIVEN>
     <TABLE>0.69675523 0.30324483 0.80527127 0.19472875 0.5997008 0.40029916 0.28730446 0.7126955 0.23475112 0.76524884 0.59405684 0.40594313 0.76768476 0.23231527 0.093079165 0.90692085 0.991097 0.008902973 0.05978035 0.94021964 0.20896736 0.7910327 0.059289634 0.94071037 0.028100288 0.97189975 0.7008296 0.29917037 0.64739966 0.35260034 0.16953811 0.83046186 0.6196153 0.38038465 0.5433878 0.45661223 0.872101 0.12789904 0.58759755 0.4124024 0.18046023 0.8195398 0.7518986 0.24810143 0.5955919 0.40440807 0.22268936 0.77731067 0.37696046 0.62303954 0.49188387 0.5081162 0.12400892 0.8759911 0.059214205 0.94078577 0.59474504 0.40525496 0.3993589 0.60064113 0.57775855 0.42224145 0.26429924 0.7357007 </TABLE>
 </DEFINITION>
 <DEFINITION>
      <FOR>node38</FOR>
      <GIVEN>node58</GIVEN>
     <TABLE>0.7626363 0.23736373 0.6561152 0.34388486 </TABLE>
 </DEFINITION>
 <DEFINITION>
      <FOR>node39</FOR>
      <GIVEN>node8</GIVEN>
      <GIVEN>node72</GIVEN>
      <GIVEN>node14</GIVEN>
     <TABLE>0.74433625 0.25566375 0.5437501 0.45624983 0.29209846 0.7079016 0.45713183 0.5428682 0.043864362 0.95613563 0.93757576 0.062424254 0.23629008 0.7637099 0.86073154 0.13926846 </TABLE>
 </DEFINITION>
 <DEFINITION>
      <FOR>node40</FOR>
      <GIVEN>node47</GIVEN>
      <GIVEN>node4</GIVEN>
      <GIVEN>node69</GIVEN>
      <GIVEN>node78</GIVEN>
     <TABLE>0.00687439 0.99312556 0.72463804 0.27536193 0.15269329 0.84730667 0.44722295 0.552777 0.9099759 0.090024136 0.32101697 0.67898303 0.8443191 0.15568095 0.12560396 0.874396 0.3697484 0.6302516 0.60669893 0.39330104 0.3988662 0.6011338 0.30342487 0.69657516 0.20688643 0.7931135 0.7672542 0.23274577 0.8019279 0.19807208 0.9263577 0.073642306 </TABLE>
 </DEFINITION>
 <DEFINITION>
      <FOR>node41</FOR>
      <GIVEN>node6</GIVEN>
      <GIVEN>node69</GIVEN>
      <GIVEN>node68</GIVEN>
      <GIVEN>node70</GIVEN>
      <GIVEN>node9</GIVEN>
     <TABLE>0.6183315 0.3816685 0.08051887 0.9194811 0.66206586 0.33793414 0.8698903 0.13010973 0.03775069 0.96224934 0.8325914 0.16740863 0.30645955 0.69354045 0.15712462 0.8428754 0.72325903 0.27674097 0.32881868 0.6711813 0.97619003 0.023809955 0.24352068 0.7564793 0.5135118 0.4864882 0.31730452 0.6826955 0.1547561 0.8452439 0.41348022 0.5865198 0.26423556 0.7357644 0.5125259 0.48747405 0.399839 0.60016096 0.7932303 0.2067697 0.8012894 0.1987106 0.02182969 0.97817034 0.19249438 0.8075056 0.43074143 0.5692586 0.7591143 0.24088573 0.66844934 0.3315507 0.6045521 0.3954479 0.31734124 0.6826588 0.6527758 0.34722418 0.95917845 0.040821534 0.6799671 0.32003292 0.009482518 0.99051744 </TABLE>
 </DEFINITION>
 <DEFINITION>
      <FOR>node42</FOR>
      <GIVEN>node19</GIVEN>
     <TABLE>0.6502746 0.34972543 0.8874695 0.11253053 </TABLE>
 </DEFINITION>
 <DEFINITION>
      <FOR>node43</FOR>
      <GIVEN>node78</GIVEN>
      <GIVEN>node0</GIVEN>
      <GIVEN>node72</GIVEN>
     <TABLE>0.28163058 0.7183694 0.454068 0.54593194 0.40227818 0.5977218 0.66264236 0.33735764 0.36820984 0.6317902 0.2977703 0.7022297 0.16213608 0.8378639 0.8934804 0.10651959 </TABLE>
 </DEFINITION>
 <DEFINITION>
      <FOR>node44</FOR>
      <GIVEN>node25</GIVEN>
      <GIVEN>node66</GIVEN>
      <GIVEN>node46</GIVEN>
     <TABLE>0.78609157 0.21390846 0.38278532 0.61721474 0.3235603 0.67643976 0.22461623 0.77538383 0.28014457 0.7198554 0.06266071 0.9373393 0.29188797 0.708112 0.79468787 0.20531209 </TABLE>
 </DEFINITION>
 <DEFINITION>
      <FOR>node45</FOR>
      <GIVEN>node59</GIVEN>
     <TABLE>0.44051093 0.55948913 0.17293641 0.8270636 </TABLE>
 </DEFINITION>
 <DEFINITION>
      <FOR>node46</FOR>
     <TABLE>0.4721428 0.5278572 </TABLE>
 </DEFINITION>
 <DEFINITION>
      <FOR>node47</FOR>
     <TABLE>0.91169775 0.08830223 </TABLE>
 </DEFINITION>
 <DEFINITION>
      <FOR>node48</FOR>
      <GIVEN>node4</GIVEN>
      <GIVEN>node25</GIVEN>
      <GIVEN>node11</GIVEN>
      <GIVEN>node72</GIVEN>
     <TABLE>0.75594306 0.24405697 0.8098827 0.19011734 0.9045947 0.09540524 0.2782788 0.72172123 0.0746782 0.9253218 0.14845064 0.8515493 0.6035802 0.3964198 0.6632971 0.33670285 0.10188143 0.89811856 0.040802836 0.95919716 0.6947698 0.30523017 0.44308618 0.55691385 0.4748687 0.52513134 0.43710864 0.5628914 0.36190304 0.6380969 0.34491265 0.65508735 </TABLE>
 </DEFINITION>
 <DEFINITION>
      <FOR>node49</FOR>
      <GIVEN>node72</GIVEN>
     <TABLE>0.30368993 0.69631004 0.20357747 0.7964225 </TABLE>
 </DEFINITION>
 <DEFINITION>
      <FOR>node50</FOR>
      <GIVEN>node0</GIVEN>
      <GIVEN>node34</GIVEN>
     <TABLE>0.16073872 0.83926123 0.6908188 0.3091812 0.42124635 0.5787536 0.76541775 0.23458228 </TABLE>
 </DEFINITION>
 <DEFINITION>
      <FOR>node51</FOR>
      <GIVEN>node31</GIVEN>
      <GIVEN>node38</GIVEN>
      <GIVEN>node50</GIVEN>
      <GIVEN>node47</GIVEN>
     <TABLE>0.25305784 0.74694216 0.7982851 0.20171487 0.779449 0.22055098 0.043899108 0.9561009 0.84216636 0.15783365 0.33575183 0.6642481 0.05016967 0.94983035 0.37852117 0.6214788 0.94985205 0.05014797 0.22082287 0.77917707 0.090218045 0.909782 0.23000732 0.76999277 0.043906473 0.95609355 0.6388462 0.36115378 0.62661844 0.37338156 0.75765187 0.24234812 </TABLE>
 </DEFINITION>
 <DEFINITION>
      <FOR>node52</FOR>
      <GIVEN>node10</GIVEN>
      <GIVEN>node51</GIVEN>
      <GIVEN>node1</GIVEN>
      <GIVEN>node30</GIVEN>
     <TABLE>0.36900824 0.6309918 0.7154353 0.28456464 0.35723346 0.6427665 0.5298922 0.47010773 0.10548119 0.89451885 0.36897966 0.63102037 0.23243563 0.76756436 0.110021085 0.88997895 0.5823487 0.4176513 0.08909437 0.91090566 0.9812073 0.018792737 0.41402805 0.58597195 0.9235417 0.07645827 0.28580463 0.7141954 0.4214041 0.5785959 0.12920542 0.8707946 </TABLE>
 </DEFINITION>
 <DEFINITION>
      <FOR>node53</FOR>
      <GIVEN>node19</GIVEN>
     <TABLE>0.86382186 0.13617815 0.46369532 0.53630465 </TABLE>
 </DEFINITION>
 <DEFINITION>
      <FOR>node54</FOR>
      <GIVEN>node29</GIVEN>
      <GIVEN>node49</GIVEN>
     <TABLE>0.79092544 0.20907457 0.483222 0.516778 0.9857409 0.014259054 0.13895284 0.86104715 </TABLE>
 </DEFINITION>
 <DEFINITION>
      <FOR>node55</FOR>
      <GIVEN>node32</GIVEN>
      <GIVEN>node0</GIVEN>
      <GIVEN>node72</GIVEN>
     <TABLE>0.40252653 0.59747344 0.18113935 0.81886065 0.21875432 0.78124565 0.76715845 0.2328415 0.9816429 0.018357083 0.17499568 0.82500434 0.93479526 0.06520476 0.8291903 0.1708097 </TABLE>
 </DEFINITION>
 <DEFINITION>
      <FOR>node56</FOR>
      <GIVEN>node60</GIVEN>
      <GIVEN>node1</GIVEN>
     <TABLE>0.8079658 0.19203418 0.006448004 0.993552 0.41900492 0.5809951 0.24883315 0.7511669 </TABLE>
 </DEFINITION>
 <DEFINITION>
      <FOR>node57</FOR>
      <GIVEN>node14</GIVEN>
      <GIVEN>node73</GIVEN>
      <GIVEN>node27</GIVEN>
      <GIVEN>node13</GIVEN>
     <TABLE>0.50129575 0.49870425 0.10747825 0.89252174 0.9912018 0.008798162 0.96936375 0.030636294 0.042339753 0.9576602 0.2594254 0.7405746 0.30819777 0.6918022 0.6890747 0.3109253 0.56834555 0.43165445 0.3593036 0.6406964 0.6323765 0.36762354 0.6489673 0.3510327 0.095193416 0.90480655 0.2448712 0.7551288 0.63829654 0.36170346 0.81152713 0.18847288 </TABLE>
 </DEFINITION>
 <DEFINITION>
      <FOR>node58</FOR>
      <GIVEN>node46</GIVEN>
      <GIVEN>node71</GIVEN>
     <TABLE>0.23913434 0.7608656 0.192775 0.80722505 0.009441303 0.9905587 0.24986687 0.7501331 </TABLE>
 </DEFINITION>
 <DEFINITION>
      <FOR>node59</FOR>
      <GIVEN>node26</GIVEN>
     <TABLE>0.6426139 0.3573862 0.21437436 0.78562564 </TABLE>
 </DEFINITION>
 <DEFINITION>
      <FOR>node60</FOR>
      <GIVEN>node39</GIVEN>
     <TABLE>0.4948621 0.50513786 0.5087185 0.49128154 </TABLE>
 </DEFINITION>
 <DEFINITION>
      <FOR>node61</FOR>
      <GIVEN>node53</GIVEN>
      <GIVEN>node66</GIVEN>
     <TABLE>0.55060244 0.4493976 0.72745526 0.27254474 0.59056014 0.40943986 0.9510124 0.048987646 </TABLE>
 </DEFINITION>
 <DEFINITION>
      <FOR>node62</FOR>
      <GIVEN>node54</GIVEN>
      <GIVEN>node9</GIVEN>
      <GIVEN>node60</GIVEN>
     <TABLE>0.18962571 0.8103743 0.06575827 0.9342417 0.7584168 0.24158321 0.67862767 0.32137236 0.015416157 0.98458385 0.5277603 0.47223973 0.5226562 0.47734377 0.59602815 0.40397185 </TABLE>
 </DEFINITION>
 <DEFINITION>
      <FOR>node63</FOR>
      <GIVEN>node61</GIVEN>
      <GIVEN>node39</GIVEN>
      <GIVEN>node44</GIVEN>
      <GIVEN>node75</GIVEN>
     <TABLE>0.9023308 0.09766917 0.57952833 0.42047167 0.58392256 0.4160774 0.8722565 0.12774345 0.6188543 0.3811457 0.81250376 0.18749622 0.2902133 0.7097867 0.5521307 0.44786927 0.54506665 0.45493335 0.26092058 0.7390794 0.8236705 0.17632951 0.22284204 0.77715796 0.91407657 0.08592341 0.89641964 0.1035803 0.36444038 0.6355596 0.52913713 0.4708629 </TABLE>
 </DEFINITION>
 <DEFINITION>
      <FOR>node64</FOR>
      <GIVEN>node12</GIVEN>
      <GIVEN>node38</GIVEN>
     <TABLE>0.05528326 0.94471675 0.77449614 0.22550394 0.10565468 0.8943453 0.28447172 0.71552825 </TABLE>
 </DEFINITION>
 <DEFINITION>
      <FOR>node65</FOR>
      <GIVEN>node11</GIVEN>
      <GIVEN>node48</GIVEN>
      <GIVEN>node74</GIVEN>
      <GIVEN>node59</GIVEN>
     <TABLE>0.8312857 0.16871426 0.89432895 0.10567099 0.75429046 0.2457096 0.44986114 0.5501389 0.3120618 0.6879382 0.21560693 0.7843931 0.8755701 0.12442992 0.08855125 0.9114488 0.73235947 0.2676405 0.65151906 0.3484809 0.68225056 0.31774947 0.7425827 0.25741735 0.46395138 0.53604865 0.2536938 0.74630624 0.49578407 0.5042159 0.83335936 0.16664064 </TABLE>
 </DEFINITION>
 <DEFINITION>
      <FOR>node66</FOR>
     <TABLE>0.8257481 0.17425191 </TABLE>
 </DEFINITION>
 <DEFINITION>
      <FOR>node67</FOR>
      <GIVEN>node78</GIVEN>
      <GIVEN>node8</GIVEN>
      <GIVEN>node64</GIVEN>
      <GIVEN>node12</GIVEN>
     <TABLE>0.6045378 0.39546221 0.70147693 0.29852307 0.75786823 0.2421318 0.7912136 0.20878646 0.038053636 0.9619464 0.33765742 0.66234255 0.9069296 0.09307036 0.161509 0.83849096 0.9670144 0.03298563 0.93598074 0.06401926 0.94795334 0.052046705 0.49789026 0.5021097 0.66673 0.33327 0.45734495 0.54265505 0.5548744 0.44512564 0.4935166 0.50648344 </TABLE>
 </DEFINITION>
 <DEFINITION>
      <FOR>node68</FOR>
      <GIVEN>node29</GIVEN>
      <GIVEN>node74</GIVEN>
      <GIVEN>node79</GIVEN>
     <TABLE>0.5472399 0.45276013 0.96603143 0.033968534 0.44182295 0.55817705 0.30465505 0.695345 0.63135606 0.368644 0.64685833 0.35314167 0.4337549 0.5662451 0.98542356 0.014576456 </TABLE>
 </DEFINITION>
 <DEFINITION>
      <FOR>node69</FOR>
      <GIVEN>node10</GIVEN>
      <GIVEN>node60</GIVEN>
     <TABLE>0.34819472 0.6518053 0.5327913 0.4672087 0.9031063 0.096893676 0.5599602 0.44003984 </TABLE>
 </DEFINITION>
 <DEFINITION>
      <FOR>node70</FOR>
      <GIVEN>node20</GIVEN>
      <GIVEN>node63</GIVEN>
     <TABLE>0.009808685 0.99019134 0.3654116 0.63458836 0.12087913 0.8791209 0.31745353 0.6825465 </TABLE>
 </DEFINITION>
 <DEFINITION>
      <FOR>node71</FOR>
      <GIVEN>node34</GIVEN>
      <GIVEN>node28</GIVEN>
     <TABLE>0.94078016 0.05921983 0.142643 0.857357 0.67646784 0.32353213 0.89303136 0.10696864 </TABLE>
 </DEFINITION>
 <DEFINITION>
      <FOR>node72</FOR>
     <TABLE>0.61373913 0.38626084 </TABLE>
 </DEFINITION>
 <DEFINITION>
      <FOR>node73</FOR>
      <GIVEN>node29</GIVEN>
      <GIVEN>node55</GIVEN>
      <GIVEN>node8</GIVEN>
      <GIVEN>node59</GIVEN>
     <TABLE>0.24911201 0.750888 0.55748814 0.44251186 0.287773 0.71222705 0.20886968 0.7911303 0.7800284 0.21997152 0.86467713 0.13532284 0.18205862 0.8179414 0.07482904 0.925171 0.37321118 0.6267888 0.36650082 0.63349915 0.5622732 0.4377268 0.99539495 0.004605042 0.57956254 0.42043743 0.893472 0.106527984 0.60655296 0.393447 0.8898812 0.11011875 </TABLE>
 </DEFINITION>
 <DEFINITION>
      <FOR>node74</FOR>
      <GIVEN>node23</GIVEN>
      <GIVEN>node15</GIVEN>
      <GIVEN>node1</GIVEN>
     <TABLE>0.81955785 0.18044217 0.828057 0.17194302 0.61483634 0.38516366 0.64972925 0.35027075 0.6774881 0.3225119 0.722833 0.277167 0.8418588 0.15814126 0.72911906 0.27088094 </TABLE>
 </DEFINITION>
 <DEFINITION>
      <FOR>node75</FOR>
      <GIVEN>node22</GIVEN>
      <GIVEN>node10</GIVEN>
     <TABLE>0.6282188 0.3717811 0.56713617 0.4328638 0.09617814 0.9038219 0.7472818 0.25271827 </TABLE>
 </DEFINITION>
 <DEFINITION>
      <FOR>node76</FOR>
      <GIVEN>node19</GIVEN>
      <GIVEN>node75</GIVEN>
      <GIVEN>node59</GIVEN>
      <GIVEN>node5</GIVEN>
      <GIVEN>node31</GIVEN>
     <TABLE>0.061242606 0.9387574 0.12037855 0.87962145 0.72457033 0.27542967 0.4958092 0.5041908 0.92200315 0.07799684 0.6154198 0.38458017 0.7533033 0.24669673 0.05570243 0.94429755 0.6111786 0.38882142 0.2978704 0.7021296 0.8935157 0.106484234 0.432722 0.567278 0.57892084 0.42107913 0.20821254 0.7917875 0.15530814 0.8446919 0.31703767 0.6829623 0.58473533 0.41526467 0.76808244 0.23191753 0.11905533 0.88094467 0.9975355 0.0024644788 0.6231764 0.37682363 0.2852417 0.71475834 0.30316997 0.69683003 0.0486167 0.9513833 0.8668717 0.13312829 0.14414933 0.8558507 0.5962079 0.40379214 0.38232586 0.6176741 0.72797793 0.27202204 0.8746165 0.12538351 0.58190894 0.4180911 0.7328574 0.2671426 </TABLE>
 </DEFINITION>
 <DEFINITION>
      <FOR>node77</FOR>
      <GIVEN>node36</GIVEN>
      <GIVEN>node32</GIVEN>
      <GIVEN>node3</GIVEN>
      <GIVEN>node11</GIVEN>
     <TABLE>0.73425484 0.26574516 0.62179315 0.37820688 0.3523251 0.64767486 0.46009022 0.53990984 0.9177391 0.08226094 0.31323135 0.6867687 0.8023796 0.19762036 0.7344492 0.26555082 0.25353825 0.74646175 0.9869419 0.013058127 0.8756334 0.12436655 0.71813625 0.2818638 0.09121013 0.9087899 0.27798855 0.7220114 0.10076479 0.8992352 0.072695345 0.9273047 </TABLE>
 </DEFINITION>
 <DEFINITION>
      <FOR>node78</FOR>
      <GIVEN>node38</GIVEN>
     <TABLE>0.8821193 0.11788066 0.5646642 0.4353358 </TABLE>
 </DEFINITION>
 <DEFINITION>
      <FOR>node79</FOR>
      <GIVEN>node71</GIVEN>
      <GIVEN>node0</GIVEN>
      <GIVEN>node58</GIVEN>
      <GIVEN>node56</GIVEN>
     <TABLE>0.82792693 0.17207307 0.022434395 0.97756565 0.14005776 0.85994226 0.44944537 0.55055463 0.6944219 0.3055781 0.072589226 0.9274108 0.6809295 0.31907055 0.15713619 0.8428638 0.005536571 0.99446344 0.013780617 0.9862194 0.99548155 0.0045183827 0.14055313 0.8594469 0.75994277 0.2400572 0.098184235 0.9018158 0.4902231 0.5097769 0.8626412 0.13735881 </TABLE>
 </DEFINITION>
</NETWORK>
</BIF>
