<?xml version="1.0" encoding="US-ASCII"?>


<!--
	Bayesian network in XMLBIF v0.3 (BayesNet Interchange Format)
	Produced by JavaBayes (http://www.cs.cmu.edu/~javabayes/
	Number of nodes:20
	Output created Mon Oct 09 18:58:59 EDT 2006
-->



<BIF VERSION="0.3">
<NETWORK>
<NAME>example2</NAME>
<!-- Variables -->
<VARIABLE TYPE="nature">
    <NAME>node0</NAME>
    <OUTCOME>state0</OUTCOME>
    <OUTCOME>state1</OUTCOME>
    <OUTCOME>state2</OUTCOME>
    <OUTCOME>state3</OUTCOME>
    <OUTCOME>state4</OUTCOME>
    <PROPERTY>position = (15, 150)</PROPERTY>
</VARIABLE>
<!-- Variables -->
<VARIABLE TYPE="nature">
    <NAME>node1</NAME>
    <OUTCOME>state0</OUTCOME>
    <OUTCOME>state1</OUTCOME>
    <PROPERTY>position = (135, 164)</PROPERTY>
</VARIABLE>
<!-- Variables -->
<VARIABLE TYPE="nature">
    <NAME>node2</NAME>
    <OUTCOME>state0</OUTCOME>
    <OUTCOME>state1</OUTCOME>
    <OUTCOME>state2</OUTCOME>
    <OUTCOME>state3</OUTCOME>
    <PROPERTY>position = (15, 390)</PROPERTY>
</VARIABLE>
<!-- Variables -->
<VARIABLE TYPE="nature">
    <NAME>node3</NAME>
    <OUTCOME>state0</OUTCOME>
    <OUTCOME>state1</OUTCOME>
    <OUTCOME>state2</OUTCOME>
    <OUTCOME>state3</OUTCOME>
    <OUTCOME>state4</OUTCOME>
    <PROPERTY>position = (135, 404)</PROPERTY>
</VARIABLE>
<!-- Variables -->
<VARIABLE TYPE="nature">
    <NAME>node4</NAME>
    <OUTCOME>state0</OUTCOME>
    <OUTCOME>state1</OUTCOME>
    <PROPERTY>position = (255, 150)</PROPERTY>
</VARIABLE>
<!-- Variables -->
<VARIABLE TYPE="nature">
    <NAME>node5</NAME>
    <OUTCOME>state0</OUTCOME>
    <OUTCOME>state1</OUTCOME>
    <OUTCOME>state2</OUTCOME>
    <PROPERTY>position = (44, 270)</PROPERTY>
</VARIABLE>
<!-- Variables -->
<VARIABLE TYPE="nature">
    <NAME>node6</NAME>
    <OUTCOME>state0</OUTCOME>
    <OUTCOME>state1</OUTCOME>
    <OUTCOME>state2</OUTCOME>
    <PROPERTY>position = (45, 30)</PROPERTY>
</VARIABLE>
<!-- Variables -->
<VARIABLE TYPE="nature">
    <NAME>node7</NAME>
    <OUTCOME>state0</OUTCOME>
    <OUTCOME>state1</OUTCOME>
    <OUTCOME>state2</OUTCOME>
    <PROPERTY>position = (375, 135)</PROPERTY>
</VARIABLE>
<!-- Variables -->
<VARIABLE TYPE="nature">
    <NAME>node8</NAME>
    <OUTCOME>state0</OUTCOME>
    <OUTCOME>state1</OUTCOME>
    <PROPERTY>position = (255, 390)</PROPERTY>
</VARIABLE>
<!-- Variables -->
<VARIABLE TYPE="nature">
    <NAME>node9</NAME>
    <OUTCOME>state0</OUTCOME>
    <OUTCOME>state1</OUTCOME>
    <PROPERTY>position = (495, 149)</PROPERTY>
</VARIABLE>
<!-- Variables -->
<VARIABLE TYPE="nature">
    <NAME>node10</NAME>
    <OUTCOME>state0</OUTCOME>
    <OUTCOME>state1</OUTCOME>
    <OUTCOME>state2</OUTCOME>
    <OUTCOME>state3</OUTCOME>
    <PROPERTY>position = (615, 164)</PROPERTY>
</VARIABLE>
<!-- Variables -->
<VARIABLE TYPE="nature">
    <NAME>node11</NAME>
    <OUTCOME>state0</OUTCOME>
    <OUTCOME>state1</OUTCOME>
    <OUTCOME>state2</OUTCOME>
    <OUTCOME>state3</OUTCOME>
    <OUTCOME>state4</OUTCOME>
    <PROPERTY>position = (164, 284)</PROPERTY>
</VARIABLE>
<!-- Variables -->
<VARIABLE TYPE="nature">
    <NAME>node12</NAME>
    <OUTCOME>state0</OUTCOME>
    <OUTCOME>state1</OUTCOME>
    <OUTCOME>state2</OUTCOME>
    <PROPERTY>position = (735, 150)</PROPERTY>
</VARIABLE>
<!-- Variables -->
<VARIABLE TYPE="nature">
    <NAME>node13</NAME>
    <OUTCOME>state0</OUTCOME>
    <OUTCOME>state1</OUTCOME>
    <OUTCOME>state2</OUTCOME>
    <PROPERTY>position = (855, 135)</PROPERTY>
</VARIABLE>
<!-- Variables -->
<VARIABLE TYPE="nature">
    <NAME>node14</NAME>
    <OUTCOME>state0</OUTCOME>
    <OUTCOME>state1</OUTCOME>
    <OUTCOME>state2</OUTCOME>
    <OUTCOME>state3</OUTCOME>
    <PROPERTY>position = (284, 270)</PROPERTY>
</VARIABLE>
<!-- Variables -->
<VARIABLE TYPE="nature">
    <NAME>node15</NAME>
    <OUTCOME>state0</OUTCOME>
    <OUTCOME>state1</OUTCOME>
    <OUTCOME>state2</OUTCOME>
    <OUTCOME>state3</OUTCOME>
    <OUTCOME>state4</OUTCOME>
    <PROPERTY>position = (975, 149)</PROPERTY>
</VARIABLE>
<!-- Variables -->
<VARIABLE TYPE="nature">
    <NAME>node16</NAME>
    <OUTCOME>state0</OUTCOME>
    <OUTCOME>state1</OUTCOME>
    <OUTCOME>state2</OUTCOME>
    <PROPERTY>position = (1095, 164)</PROPERTY>
</VARIABLE>
<!-- Variables -->
<VARIABLE TYPE="nature">
    <NAME>node17</NAME>
    <OUTCOME>state0</OUTCOME>
    <OUTCOME>state1</OUTCOME>
    <PROPERTY>position = (165, 44)</PROPERTY>
</VARIABLE>
<!-- Variables -->
<VARIABLE TYPE="nature">
    <NAME>node18</NAME>
    <OUTCOME>state0</OUTCOME>
    <OUTCOME>state1</OUTCOME>
    <OUTCOME>state2</OUTCOME>
    <OUTCOME>state3</OUTCOME>
    <PROPERTY>position = (375, 375)</PROPERTY>
</VARIABLE>
<!-- Variables -->
<VARIABLE TYPE="nature">
    <NAME>node19</NAME>
    <OUTCOME>state0</OUTCOME>
    <OUTCOME>state1</OUTCOME>
    <PROPERTY>position = (1215, 150)</PROPERTY>
</VARIABLE>
<!-- Probability Distributions -->
 <DEFINITION>
      <FOR>node0</FOR>
      <GIVEN>node6</GIVEN>
     <TABLE>0.07394619 0.11763648 0.6392229 0.018139271 0.15105514 0.11506346 0.22488536 0.117031805 0.20507647 0.3379429 0.30438998 0.021957533 0.25509632 0.11299163 0.30556458 </TABLE>
 </DEFINITION>
 <DEFINITION>
      <FOR>node1</FOR>
      <GIVEN>node6</GIVEN>
     <TABLE>0.47777882 0.52222115 0.3282656 0.6717344 0.6034978 0.3965022 </TABLE>
 </DEFINITION>
 <DEFINITION>
      <FOR>node2</FOR>
      <GIVEN>node11</GIVEN>
      <GIVEN>node0</GIVEN>
      <GIVEN>node13</GIVEN>
     <TABLE>0.053888973 0.19853504 0.640218 0.1073579 0.049069773 0.1936929 0.378554 0.37868333 0.35505843 0.30712026 0.305285 0.032536298 0.15604468 0.33714396 0.2588778 0.24793354 0.09314133 0.1380023 0.61881745 0.15003894 0.24397801 0.19146638 0.32882428 0.23573127 0.19834119 0.14263968 0.42177084 0.23724829 0.27326348 0.14203013 0.4241319 0.16057445 0.04461366 0.56106526 0.3375007 0.05682044 0.18707807 0.28914142 0.33508173 0.18869883 0.20151293 0.30815288 0.22269373 0.2676405 0.37423298 0.20312844 0.06768269 0.35495588 0.036182664 0.56779015 0.37110397 0.024923146 0.053034365 0.16378026 0.3425587 0.44062665 0.0017112199 0.45727292 0.15243816 0.38857773 0.17537206 0.28602734 0.4884415 0.050159063 0.039002623 0.06725477 0.73045695 0.16328566 0.3543462 0.03662651 0.5557775 0.053249832 0.34743202 0.41945225 0.013187861 0.21992776 0.18937352 0.09387601 0.4854475 0.23130302 0.05068478 0.08556616 0.019870915 0.84387815 0.04005002 0.24904723 0.27964076 0.43126196 0.5705219 0.011344895 0.2417388 0.17639443 0.09099252 0.54805803 0.25572208 0.10522736 0.44660625 0.02554135 0.42592373 0.101928666 0.29027838 0.08666433 0.4629819 0.16007535 0.31544635 0.15914689 0.27093115 0.2544756 0.043564085 0.04831044 0.7775049 0.13062051 0.1286627 0.6134135 0.14370216 0.11422163 0.4801042 0.17422679 0.047648218 0.29802084 0.11837019 0.16835652 0.34745103 0.3658222 0.16733038 0.09502961 0.6467604 0.09087961 0.08578026 0.27720535 0.489982 0.14703241 0.10257457 0.50430065 0.048826657 0.34429818 0.21484038 0.5012259 0.05280844 0.23112528 0.22253369 0.491656 0.047855563 0.2379547 0.2640981 0.3268781 0.11431335 0.2947105 0.018809862 0.22085907 0.17751445 0.58281666 0.06976266 0.52249926 0.03334541 0.37439266 0.26354414 0.007528711 0.09401935 0.63490784 0.60183936 0.0456757 0.038569245 0.31391573 0.20619509 0.4180908 0.07188654 0.30382755 0.71058047 0.15102112 0.048294727 0.090103716 0.31332597 0.5739356 0.05754393 0.055194385 0.25437313 0.21465307 0.41622838 0.114745416 0.08352873 0.41239837 0.22892196 0.27515095 0.25286195 0.15403658 0.2888681 0.30423334 0.34286973 0.13404903 0.23001096 0.29307023 0.22344752 0.17037928 0.40985256 0.19632067 0.39158002 0.0117058875 0.4798531 0.116861016 0.039692212 0.28471196 0.3071313 0.3684645 0.5282772 0.14878096 0.08388729 0.23905455 0.036706213 0.1565844 0.39527014 0.41143924 0.42760414 0.41356754 0.12164587 0.037182428 0.1986442 0.2920783 0.08619619 0.42308128 0.130228 0.41777432 0.168271 0.2837267 0.046364766 0.26866278 0.3123363 0.3726362 0.72715926 0.18207714 0.026414111 0.06434951 0.2682332 0.07857339 0.35517824 0.29801524 0.22965316 0.09599226 0.047869228 0.62648535 0.07209907 0.6089403 0.09417586 0.22478467 0.12269464 0.19955531 0.41601655 0.26173356 0.14832078 0.47319606 0.034345545 0.3441376 0.35618353 0.34187737 0.26372495 0.03821411 0.12745504 0.8238361 0.034101836 0.014607018 0.053159997 0.2897416 0.040967062 0.61613137 0.024555866 0.87604403 0.09781122 0.0015888043 0.10360121 0.09164466 0.67778146 0.1269727 0.17418607 0.05247512 0.713069 0.06026975 0.048374142 0.24183631 0.2182856 0.49150392 0.07153619 0.5501147 0.3530128 0.02533631 0.38819715 0.27306774 0.23316045 0.105574645 0.36135024 0.50442517 0.12487996 0.009344724 0.41654465 0.114855506 0.23564418 0.23295568 0.38711742 0.20241316 0.111426555 0.29904288 </TABLE>
 </DEFINITION>
 <DEFINITION>
      <FOR>node3</FOR>
      <GIVEN>node12</GIVEN>
      <GIVEN>node1</GIVEN>
      <GIVEN>node9</GIVEN>
     <TABLE>0.40653995 0.19773614 0.090752356 0.2606465 0.04432516 0.12889965 0.024900129 0.23566973 0.28961918 0.32091135 0.07367729 0.1348276 0.12560616 0.5606311 0.10525787 0.17203663 0.22622275 0.22776474 0.04609352 0.32788238 0.19293198 0.03985371 0.094140716 0.066721685 0.6063519 0.29190013 0.08589125 0.14097579 0.47110915 0.010123663 0.09597769 0.18043047 0.110266924 0.06536633 0.5479587 0.04134017 0.28210467 0.05189524 0.33567148 0.28898847 0.18148112 0.46781802 0.046677053 0.0652206 0.23880315 0.12655984 0.49398112 0.12326953 0.052764017 0.20342544 0.01855729 0.094585724 0.40431204 0.21088015 0.27166483 0.18787524 0.0090946 0.53153116 0.23271018 0.038788877 </TABLE>
 </DEFINITION>
 <DEFINITION>
      <FOR>node4</FOR>
      <GIVEN>node5</GIVEN>
     <TABLE>0.053044315 0.9469556 0.72619647 0.27380353 0.15644787 0.8435521 </TABLE>
 </DEFINITION>
 <DEFINITION>
      <FOR>node5</FOR>
      <GIVEN>node15</GIVEN>
      <GIVEN>node17</GIVEN>
     <TABLE>0.08397934 0.31684136 0.59917927 0.41038373 0.12623364 0.46338263 0.82836896 0.0578086 0.113822445 0.6823532 0.16821824 0.14942859 0.157016 0.6375081 0.20547596 0.24241088 0.122724004 0.6348651 0.35470256 0.18820938 0.45708808 0.61277544 0.32258055 0.06464397 0.059183933 0.0562994 0.8845166 0.82473963 0.13217795 0.04308242 </TABLE>
 </DEFINITION>
 <DEFINITION>
      <FOR>node6</FOR>
     <TABLE>0.1463791 0.15468961 0.6989313 </TABLE>
 </DEFINITION>
 <DEFINITION>
      <FOR>node7</FOR>
      <GIVEN>node1</GIVEN>
     <TABLE>0.31161532 0.02761783 0.6607669 0.9535912 0.0063388404 0.040069964 </TABLE>
 </DEFINITION>
 <DEFINITION>
      <FOR>node8</FOR>
      <GIVEN>node6</GIVEN>
      <GIVEN>node4</GIVEN>
      <GIVEN>node16</GIVEN>
     <TABLE>0.48850015 0.5114999 0.686877 0.31312302 0.06631383 0.9336862 0.9397296 0.06027038 0.14449997 0.85550004 0.21872269 0.7812773 0.75452673 0.24547327 0.17118658 0.82881343 0.064214505 0.9357855 0.79199207 0.2080079 0.2573698 0.74263024 0.045985576 0.9540144 0.66991925 0.3300807 0.7331269 0.26687315 0.37462246 0.6253775 0.8944855 0.105514474 0.545782 0.45421794 0.27223623 0.7277638 </TABLE>
 </DEFINITION>
 <DEFINITION>
      <FOR>node9</FOR>
      <GIVEN>node10</GIVEN>
     <TABLE>0.6030469 0.3969531 0.73866963 0.2613304 0.85218674 0.14781329 0.09721751 0.9027825 </TABLE>
 </DEFINITION>
 <DEFINITION>
      <FOR>node10</FOR>
      <GIVEN>node19</GIVEN>
     <TABLE>0.26440546 0.24244712 0.011241573 0.4819058 0.100313924 0.6489617 0.19359608 0.057128295 </TABLE>
 </DEFINITION>
 <DEFINITION>
      <FOR>node11</FOR>
      <GIVEN>node17</GIVEN>
      <GIVEN>node19</GIVEN>
     <TABLE>0.21186844 0.09325363 0.06202618 0.6126148 0.02023694 0.2743571 0.30217266 0.05993428 0.3210777 0.04245822 0.15508571 0.052648596 0.24209926 0.18218352 0.36798292 0.41964817 0.057638336 0.28512704 0.0017252151 0.23586127 </TABLE>
 </DEFINITION>
 <DEFINITION>
      <FOR>node12</FOR>
      <GIVEN>node7</GIVEN>
     <TABLE>0.3082924 0.29931548 0.39239213 0.5062669 0.17728761 0.3164455 0.64938396 0.34934497 0.001271049 </TABLE>
 </DEFINITION>
 <DEFINITION>
      <FOR>node13</FOR>
      <GIVEN>node0</GIVEN>
     <TABLE>0.58681375 0.40829092 0.004895315 0.14118311 0.5695917 0.28922525 0.10848223 0.15222363 0.7392941 0.40375817 0.27890632 0.31733555 0.31956553 0.6254649 0.054969527 </TABLE>
 </DEFINITION>
 <DEFINITION>
      <FOR>node14</FOR>
      <GIVEN>node15</GIVEN>
      <GIVEN>node9</GIVEN>
     <TABLE>0.39273554 0.085073195 0.09741145 0.42477974 0.27668217 0.010394429 0.35199365 0.36092973 0.38903838 0.20905632 0.29250723 0.109398134 0.10118927 0.09918818 0.37760177 0.4220208 0.2154205 0.18606412 0.13591707 0.46259826 0.061384235 0.52430344 0.07908505 0.33522728 0.38344756 0.051795736 0.44532293 0.119433746 0.090553924 0.65875715 0.19418143 0.056507513 0.022100918 0.01372665 0.38541377 0.5787587 0.34548086 0.012263882 0.09306798 0.5491873 </TABLE>
 </DEFINITION>
 <DEFINITION>
      <FOR>node15</FOR>
      <GIVEN>node7</GIVEN>
     <TABLE>0.48550853 0.04423816 0.32587966 0.14107321 0.0033004826 0.23508376 0.11921323 0.34973502 0.051643576 0.24432446 0.054023758 0.18165497 0.23362869 0.49957958 0.031112995 </TABLE>
 </DEFINITION>
 <DEFINITION>
      <FOR>node16</FOR>
      <GIVEN>node17</GIVEN>
     <TABLE>0.108474776 0.82602865 0.065496586 0.20400663 0.7500714 0.04592199 </TABLE>
 </DEFINITION>
 <DEFINITION>
      <FOR>node17</FOR>
     <TABLE>0.88796586 0.11203418 </TABLE>
 </DEFINITION>
 <DEFINITION>
      <FOR>node18</FOR>
      <GIVEN>node16</GIVEN>
      <GIVEN>node12</GIVEN>
      <GIVEN>node14</GIVEN>
     <TABLE>0.2767313 0.16417453 0.19892314 0.360171 0.22384986 0.34340683 0.19877128 0.2339721 0.5431601 0.28018367 0.07662284 0.10003338 0.029336935 0.09056486 0.3098262 0.570272 0.5355194 0.03978383 0.19155586 0.23314081 0.47378725 0.009799119 0.08512941 0.4312842 0.31236297 0.4708259 0.016777012 0.20003407 0.066163406 0.16686572 0.32866308 0.43830782 0.020375384 0.44318745 0.47223678 0.06420043 0.058874823 0.15608592 0.47238928 0.31264997 0.57986313 0.1754617 0.16905226 0.07562287 0.028529665 0.85380656 0.055979054 0.061684743 0.013516465 0.6960179 0.18303657 0.10742904 0.07555169 0.009822988 0.009621976 0.9050033 0.47327256 0.13042624 0.035362404 0.36093882 0.21481395 0.46333003 0.10988914 0.21196684 0.53980917 0.1995226 0.25229388 0.0083744265 0.41096017 0.4534264 0.04553787 0.09007565 0.14260347 0.42565668 0.34255683 0.089183025 0.6185914 0.073001295 0.010736037 0.29767123 0.6894076 0.03612531 0.090676345 0.18379076 0.61662257 0.015461492 0.13515505 0.23276089 0.07225311 0.082257144 0.09814674 0.74734306 0.5996465 0.010951369 0.026937015 0.3624651 0.029575719 0.053877383 0.008330281 0.9082166 0.25665388 0.052323226 0.46333086 0.22769196 0.10942079 0.13454807 0.35867447 0.39735666 0.24844772 0.055894893 0.21454373 0.48111364 0.28630012 0.087028965 0.14243889 0.48423195 0.011137768 0.26298752 0.15066561 0.57520914 0.17087173 0.0380965 0.7579268 0.033104934 0.18937656 0.2330087 0.41311735 0.16449739 0.3443625 0.19967164 0.07529796 0.38066795 0.2300597 0.3961581 0.31659448 0.05718773 0.06036506 0.23988582 0.6176791 0.082069956 0.35483688 0.19361271 0.060855467 0.39069486 </TABLE>
 </DEFINITION>
 <DEFINITION>
      <FOR>node19</FOR>
      <GIVEN>node4</GIVEN>
     <TABLE>0.42873088 0.57126915 0.3006046 0.6993953 </TABLE>
 </DEFINITION>
</NETWORK>
</BIF>
