<?xml version="1.0" encoding="US-ASCII"?>


<!--
	Bayesian network in XMLBIF v0.3 (BayesNet Interchange Format)
	Produced by JavaBayes (http://www.cs.cmu.edu/~javabayes/
	Number of nodes:20
	Output created Mon Oct 09 18:59:00 EDT 2006
-->



<BIF VERSION="0.3">
<NETWORK>
<NAME>example3</NAME>
<!-- Variables -->
<VARIABLE TYPE="nature">
    <NAME>node0</NAME>
    <OUTCOME>state0</OUTCOME>
    <OUTCOME>state1</OUTCOME>
    <OUTCOME>state2</OUTCOME>
    <OUTCOME>state3</OUTCOME>
    <OUTCOME>state4</OUTCOME>
    <PROPERTY>position = (45, 30)</PROPERTY>
</VARIABLE>
<!-- Variables -->
<VARIABLE TYPE="nature">
    <NAME>node1</NAME>
    <OUTCOME>state0</OUTCOME>
    <OUTCOME>state1</OUTCOME>
    <OUTCOME>state2</OUTCOME>
    <OUTCOME>state3</OUTCOME>
    <PROPERTY>position = (15, 150)</PROPERTY>
</VARIABLE>
<!-- Variables -->
<VARIABLE TYPE="nature">
    <NAME>node2</NAME>
    <OUTCOME>state0</OUTCOME>
    <OUTCOME>state1</OUTCOME>
    <OUTCOME>state2</OUTCOME>
    <OUTCOME>state3</OUTCOME>
    <OUTCOME>state4</OUTCOME>
    <PROPERTY>position = (135, 164)</PROPERTY>
</VARIABLE>
<!-- Variables -->
<VARIABLE TYPE="nature">
    <NAME>node3</NAME>
    <OUTCOME>state0</OUTCOME>
    <OUTCOME>state1</OUTCOME>
    <OUTCOME>state2</OUTCOME>
    <OUTCOME>state3</OUTCOME>
    <OUTCOME>state4</OUTCOME>
    <PROPERTY>position = (165, 44)</PROPERTY>
</VARIABLE>
<!-- Variables -->
<VARIABLE TYPE="nature">
    <NAME>node4</NAME>
    <OUTCOME>state0</OUTCOME>
    <OUTCOME>state1</OUTCOME>
    <OUTCOME>state2</OUTCOME>
    <PROPERTY>position = (44, 270)</PROPERTY>
</VARIABLE>
<!-- Variables -->
<VARIABLE TYPE="nature">
    <NAME>node5</NAME>
    <OUTCOME>state0</OUTCOME>
    <OUTCOME>state1</OUTCOME>
    <PROPERTY>position = (255, 150)</PROPERTY>
</VARIABLE>
<!-- Variables -->
<VARIABLE TYPE="nature">
    <NAME>node6</NAME>
    <OUTCOME>state0</OUTCOME>
    <OUTCOME>state1</OUTCOME>
    <OUTCOME>state2</OUTCOME>
    <OUTCOME>state3</OUTCOME>
    <PROPERTY>position = (375, 135)</PROPERTY>
</VARIABLE>
<!-- Variables -->
<VARIABLE TYPE="nature">
    <NAME>node7</NAME>
    <OUTCOME>state0</OUTCOME>
    <OUTCOME>state1</OUTCOME>
    <OUTCOME>state2</OUTCOME>
    <PROPERTY>position = (164, 284)</PROPERTY>
</VARIABLE>
<!-- Variables -->
<VARIABLE TYPE="nature">
    <NAME>node8</NAME>
    <OUTCOME>state0</OUTCOME>
    <OUTCOME>state1</OUTCOME>
    <OUTCOME>state2</OUTCOME>
    <OUTCOME>state3</OUTCOME>
    <OUTCOME>state4</OUTCOME>
    <PROPERTY>position = (495, 149)</PROPERTY>
</VARIABLE>
<!-- Variables -->
<VARIABLE TYPE="nature">
    <NAME>node9</NAME>
    <OUTCOME>state0</OUTCOME>
    <OUTCOME>state1</OUTCOME>
    <OUTCOME>state2</OUTCOME>
    <OUTCOME>state3</OUTCOME>
    <PROPERTY>position = (284, 270)</PROPERTY>
</VARIABLE>
<!-- Variables -->
<VARIABLE TYPE="nature">
    <NAME>node10</NAME>
    <OUTCOME>state0</OUTCOME>
    <OUTCOME>state1</OUTCOME>
    <OUTCOME>state2</OUTCOME>
    <PROPERTY>position = (615, 164)</PROPERTY>
</VARIABLE>
<!-- Variables -->
<VARIABLE TYPE="nature">
    <NAME>node11</NAME>
    <OUTCOME>state0</OUTCOME>
    <OUTCOME>state1</OUTCOME>
    <PROPERTY>position = (735, 150)</PROPERTY>
</VARIABLE>
<!-- Variables -->
<VARIABLE TYPE="nature">
    <NAME>node12</NAME>
    <OUTCOME>state0</OUTCOME>
    <OUTCOME>state1</OUTCOME>
    <PROPERTY>position = (15, 390)</PROPERTY>
</VARIABLE>
<!-- Variables -->
<VARIABLE TYPE="nature">
    <NAME>node13</NAME>
    <OUTCOME>state0</OUTCOME>
    <OUTCOME>state1</OUTCOME>
    <OUTCOME>state2</OUTCOME>
    <OUTCOME>state3</OUTCOME>
    <OUTCOME>state4</OUTCOME>
    <PROPERTY>position = (404, 255)</PROPERTY>
</VARIABLE>
<!-- Variables -->
<VARIABLE TYPE="nature">
    <NAME>node14</NAME>
    <OUTCOME>state0</OUTCOME>
    <OUTCOME>state1</OUTCOME>
    <OUTCOME>state2</OUTCOME>
    <PROPERTY>position = (135, 404)</PROPERTY>
</VARIABLE>
<!-- Variables -->
<VARIABLE TYPE="nature">
    <NAME>node15</NAME>
    <OUTCOME>state0</OUTCOME>
    <OUTCOME>state1</OUTCOME>
    <PROPERTY>position = (524, 269)</PROPERTY>
</VARIABLE>
<!-- Variables -->
<VARIABLE TYPE="nature">
    <NAME>node16</NAME>
    <OUTCOME>state0</OUTCOME>
    <OUTCOME>state1</OUTCOME>
    <OUTCOME>state2</OUTCOME>
    <PROPERTY>position = (855, 135)</PROPERTY>
</VARIABLE>
<!-- Variables -->
<VARIABLE TYPE="nature">
    <NAME>node17</NAME>
    <OUTCOME>state0</OUTCOME>
    <OUTCOME>state1</OUTCOME>
    <OUTCOME>state2</OUTCOME>
    <OUTCOME>state3</OUTCOME>
    <PROPERTY>position = (975, 149)</PROPERTY>
</VARIABLE>
<!-- Variables -->
<VARIABLE TYPE="nature">
    <NAME>node18</NAME>
    <OUTCOME>state0</OUTCOME>
    <OUTCOME>state1</OUTCOME>
    <PROPERTY>position = (285, 30)</PROPERTY>
</VARIABLE>
<!-- Variables -->
<VARIABLE TYPE="nature">
    <NAME>node19</NAME>
    <OUTCOME>state0</OUTCOME>
    <OUTCOME>state1</OUTCOME>
    <OUTCOME>state2</OUTCOME>
    <OUTCOME>state3</OUTCOME>
    <PROPERTY>position = (1095, 164)</PROPERTY>
</VARIABLE>
<!-- Probability Distributions -->
 <DEFINITION>
      <FOR>node0</FOR>
     <TABLE>0.107268766 0.48918566 0.0057527544 0.32387185 0.07392098 </TABLE>
 </DEFINITION>
 <DEFINITION>
      <FOR>node1</FOR>
      <GIVEN>node0</GIVEN>
     <TABLE>0.33212945 0.15075687 0.2953905 0.22172323 0.4871139 0.41790518 0.0051751123 0.08980583 0.05098369 0.7200565 0.1350115 0.093948364 0.07975721 0.053406503 0.80903876 0.057797585 0.2434977 0.18690678 0.24055344 0.32904205 </TABLE>
 </DEFINITION>
 <DEFINITION>
      <FOR>node2</FOR>
      <GIVEN>node5</GIVEN>
     <TABLE>0.10938999 0.08838351 0.6433765 0.017486047 0.1413639 0.24814615 0.21532919 0.0074415784 0.02457109 0.504512 </TABLE>
 </DEFINITION>
 <DEFINITION>
      <FOR>node3</FOR>
     <TABLE>0.035522476 0.2811786 0.1776153 0.087320276 0.4183633 </TABLE>
 </DEFINITION>
 <DEFINITION>
      <FOR>node4</FOR>
      <GIVEN>node11</GIVEN>
      <GIVEN>node15</GIVEN>
     <TABLE>0.61363584 0.33951285 0.04685132 0.17534456 0.5774597 0.24719577 0.3695675 0.5483561 0.08207632 0.25137222 0.08835989 0.66026783 </TABLE>
 </DEFINITION>
 <DEFINITION>
      <FOR>node5</FOR>
      <GIVEN>node8</GIVEN>
     <TABLE>0.19376267 0.80623734 0.053344533 0.9466555 0.12781216 0.87218785 0.21895964 0.7810403 0.7219045 0.2780955 </TABLE>
 </DEFINITION>
 <DEFINITION>
      <FOR>node6</FOR>
      <GIVEN>node10</GIVEN>
     <TABLE>0.027934285 0.6837721 0.23959254 0.048701074 0.13048214 0.25162023 0.1100065 0.5078912 0.04623783 0.5706708 0.32710764 0.055983737 </TABLE>
 </DEFINITION>
 <DEFINITION>
      <FOR>node7</FOR>
      <GIVEN>node1</GIVEN>
      <GIVEN>node18</GIVEN>
     <TABLE>0.50736177 0.018250378 0.4743879 0.10562421 0.6292211 0.26515472 0.39225143 0.06470464 0.5430439 0.37193808 0.015769927 0.61229205 0.18284306 0.40160167 0.4155553 0.1149917 0.36512104 0.51988727 0.44123662 0.41039068 0.14837268 0.1655565 0.07188037 0.7625631 </TABLE>
 </DEFINITION>
 <DEFINITION>
      <FOR>node8</FOR>
      <GIVEN>node3</GIVEN>
     <TABLE>0.5175358 0.015106811 0.2522433 0.0041707843 0.21094327 0.07389224 0.052350845 0.61365306 0.08459255 0.17551126 0.12451229 0.13272981 0.05725031 0.0037194332 0.6817882 0.3321404 0.18792832 0.043870505 0.35941353 0.07664731 0.24029188 0.043281738 0.06975516 0.14252461 0.50414664 </TABLE>
 </DEFINITION>
 <DEFINITION>
      <FOR>node9</FOR>
      <GIVEN>node6</GIVEN>
      <GIVEN>node5</GIVEN>
     <TABLE>0.3550685 0.014983681 0.33121 0.2987379 0.10776362 0.083141014 0.2536077 0.5554877 0.31400126 0.081509426 0.23714535 0.36734396 0.23918948 0.37024006 0.13952996 0.25104046 0.12915532 0.06575442 0.73431265 0.07077762 0.3653025 0.25658208 0.36008406 0.018031333 0.54973274 0.1548282 0.029399997 0.266039 0.19424324 0.0627441 0.34293452 0.40007815 </TABLE>
 </DEFINITION>
 <DEFINITION>
      <FOR>node10</FOR>
      <GIVEN>node7</GIVEN>
     <TABLE>0.16342653 0.24060352 0.5959699 0.107546076 0.35395524 0.5384987 0.29419932 0.6854505 0.020350205 </TABLE>
 </DEFINITION>
 <DEFINITION>
      <FOR>node11</FOR>
      <GIVEN>node13</GIVEN>
     <TABLE>0.26449838 0.7355016 0.70294785 0.2970522 0.34394765 0.65605235 0.9020444 0.09795562 0.41645652 0.5835435 </TABLE>
 </DEFINITION>
 <DEFINITION>
      <FOR>node12</FOR>
      <GIVEN>node3</GIVEN>
      <GIVEN>node0</GIVEN>
      <GIVEN>node16</GIVEN>
     <TABLE>0.7802396 0.21976042 0.51981014 0.4801899 0.6248702 0.37512976 0.50404495 0.49595505 0.38631928 0.6136807 0.76689285 0.2331072 0.8135445 0.18645549 0.009293124 0.99070686 0.5420208 0.45797917 0.972063 0.02793694 0.015906714 0.98409325 0.3997591 0.6002409 0.23952067 0.7604794 0.2087849 0.7912151 0.7426537 0.25734627 0.40555176 0.5944482 0.06775892 0.93224114 0.16109832 0.8389017 0.84712195 0.15287808 0.68144715 0.31855285 0.58888936 0.4111106 0.60338223 0.39661777 0.07291636 0.9270837 0.17989077 0.82010925 0.91523457 0.084765434 0.3851101 0.61488986 0.007853306 0.99214673 0.9076116 0.09238836 0.6080874 0.3919126 0.4222423 0.57775766 0.6703517 0.32964823 0.41177884 0.58822113 0.80212224 0.19787778 0.81027824 0.18972176 0.9087416 0.09125846 0.5162938 0.48370624 0.6238826 0.3761174 0.646798 0.353202 0.6433751 0.35662496 0.121556066 0.8784439 0.738131 0.26186904 0.1897891 0.81021094 0.4204891 0.57951087 0.37548196 0.6245181 0.23005272 0.7699473 0.0056452155 0.9943548 0.93845457 0.061545417 0.7511069 0.2488931 0.7107576 0.28924245 0.34911796 0.65088207 0.7492067 0.2507933 0.9971447 0.0028553337 0.045805022 0.954195 0.7697713 0.23022872 0.046928346 0.95307165 0.36938804 0.63061196 0.033688664 0.96631134 0.17305052 0.8269495 0.6618406 0.33815938 0.5113816 0.48861837 0.6784396 0.3215604 0.83257383 0.16742623 0.09225147 0.9077485 0.8545366 0.14546345 0.32163647 0.6783635 0.5049025 0.49509755 0.35850024 0.64149976 0.78726596 0.2127341 0.21227434 0.7877257 0.38715103 0.612849 0.5774367 0.42256328 0.36903593 0.63096404 0.6478627 0.35213736 0.85972995 0.1402701 0.33815524 0.6618448 </TABLE>
 </DEFINITION>
 <DEFINITION>
      <FOR>node13</FOR>
      <GIVEN>node17</GIVEN>
      <GIVEN>node8</GIVEN>
     <TABLE>0.043457787 0.0622474 0.4974356 0.26801896 0.12884033 0.2889145 0.3144747 0.3614047 0.026293596 0.008912442 0.21208775 0.15625513 0.0026046245 0.40865752 0.22039501 0.119249664 0.41894877 0.13028271 0.26445952 0.06705935 0.43441415 0.015847757 0.13507202 0.17481416 0.2398519 0.020199861 0.22912534 0.35005784 0.30213907 0.09847785 0.17292419 0.368932 0.015073544 0.2674547 0.17561552 0.074036814 0.046371695 0.4677864 0.07574422 0.33606088 0.11959592 0.16232564 0.46363223 0.0034038562 0.2510423 0.017576838 0.17735472 0.2816506 0.3610212 0.16239664 0.15057853 0.06469843 0.010494266 0.34165606 0.4325727 0.10918073 0.47853878 0.1689294 0.10847468 0.13487642 0.18222845 0.43425983 0.1634612 0.1159107 0.104139775 0.26371977 0.1357 0.4256436 0.138683 0.0362536 0.04509726 0.2438551 0.45104003 0.10012705 0.15988052 0.5064116 0.037325826 0.09204252 0.14537601 0.218844 0.25982168 0.036180478 0.6165723 0.0751358 0.012289698 0.029297335 0.20967597 0.05190462 0.33887294 0.37024912 0.15083449 0.17060538 0.26295343 0.23369126 0.18191549 0.062359784 0.14087848 0.13351487 0.24435392 0.41889286 </TABLE>
 </DEFINITION>
 <DEFINITION>
      <FOR>node14</FOR>
      <GIVEN>node4</GIVEN>
      <GIVEN>node18</GIVEN>
      <GIVEN>node11</GIVEN>
     <TABLE>0.51585835 0.39166096 0.09248075 0.42092067 0.22809646 0.35098287 0.12939997 0.34222665 0.5283735 0.5666053 0.36323634 0.07015838 0.0032978072 0.010217722 0.98648447 0.16029194 0.07470475 0.7650033 0.07337725 0.4788279 0.4477948 0.48812342 0.25508592 0.25679064 0.5391508 0.2967457 0.16410346 0.50448114 8.7993866E-4 0.49463898 0.8516209 0.14313556 0.005243462 0.32568094 0.4884802 0.1858388 </TABLE>
 </DEFINITION>
 <DEFINITION>
      <FOR>node15</FOR>
      <GIVEN>node19</GIVEN>
      <GIVEN>node2</GIVEN>
     <TABLE>0.47949293 0.52050704 0.6832386 0.31676137 0.42074716 0.57925284 0.7560929 0.24390705 0.52488065 0.4751193 0.45521423 0.54478574 0.59552133 0.40447873 0.22979401 0.770206 0.39394617 0.6060538 0.9774918 0.02250821 0.019612152 0.98038787 0.6149922 0.38500783 0.33893484 0.66106516 0.5471363 0.45286372 0.25150582 0.74849415 0.048819717 0.95118034 0.83466816 0.16533186 0.6876633 0.3123367 0.048137866 0.9518621 0.8135203 0.18647973 </TABLE>
 </DEFINITION>
 <DEFINITION>
      <FOR>node16</FOR>
      <GIVEN>node17</GIVEN>
     <TABLE>0.10653596 0.85504717 0.0384169 0.50325364 0.44829765 0.04844873 0.09519442 9.343659E-5 0.90471214 0.73351777 0.2546964 0.011785793 </TABLE>
 </DEFINITION>
 <DEFINITION>
      <FOR>node17</FOR>
      <GIVEN>node3</GIVEN>
     <TABLE>0.49835455 0.22183056 0.05811891 0.221696 0.13032809 0.2314613 0.24144956 0.39676097 0.0012798641 0.34572375 0.15720105 0.49579525 0.55333227 0.09836144 0.34160453 0.0067018038 0.51064384 0.16317122 0.20729524 0.11888968 </TABLE>
 </DEFINITION>
 <DEFINITION>
      <FOR>node18</FOR>
     <TABLE>0.73108274 0.26891726 </TABLE>
 </DEFINITION>
 <DEFINITION>
      <FOR>node19</FOR>
      <GIVEN>node2</GIVEN>
     <TABLE>0.74654746 0.041206803 0.090950415 0.12129529 0.008689014 0.3192983 0.6087559 0.0632568 0.23250234 0.12433068 0.18519342 0.45797357 0.05447434 0.479041 0.2354492 0.23103553 0.06813736 0.23959416 0.6785437 0.013724832 </TABLE>
 </DEFINITION>
</NETWORK>
</BIF>
