<?xml version="1.0" encoding="US-ASCII"?>


<!--
	Bayesian network in XMLBIF v0.3 (BayesNet Interchange Format)
	Produced by JavaBayes (http://www.cs.cmu.edu/~javabayes/
	Number of nodes:20
	Output created Mon Oct 09 18:58:59 EDT 2006
-->



<BIF VERSION="0.3">
<NETWORK>
<NAME>example1</NAME>
<!-- Variables -->
<VARIABLE TYPE="nature">
    <NAME>node0</NAME>
    <OUTCOME>state0</OUTCOME>
    <OUTCOME>state1</OUTCOME>
    <OUTCOME>state2</OUTCOME>
    <PROPERTY>position = (45, 30)</PROPERTY>
</VARIABLE>
<!-- Variables -->
<VARIABLE TYPE="nature">
    <NAME>node1</NAME>
    <OUTCOME>state0</OUTCOME>
    <OUTCOME>state1</OUTCOME>
    <OUTCOME>state2</OUTCOME>
    <PROPERTY>position = (44, 270)</PROPERTY>
</VARIABLE>
<!-- Variables -->
<VARIABLE TYPE="nature">
    <NAME>node2</NAME>
    <OUTCOME>state0</OUTCOME>
    <OUTCOME>state1</OUTCOME>
    <PROPERTY>position = (15, 150)</PROPERTY>
</VARIABLE>
<!-- Variables -->
<VARIABLE TYPE="nature">
    <NAME>node3</NAME>
    <OUTCOME>state0</OUTCOME>
    <OUTCOME>state1</OUTCOME>
    <OUTCOME>state2</OUTCOME>
    <OUTCOME>state3</OUTCOME>
    <OUTCOME>state4</OUTCOME>
    <PROPERTY>position = (135, 164)</PROPERTY>
</VARIABLE>
<!-- Variables -->
<VARIABLE TYPE="nature">
    <NAME>node4</NAME>
    <OUTCOME>state0</OUTCOME>
    <OUTCOME>state1</OUTCOME>
    <PROPERTY>position = (255, 150)</PROPERTY>
</VARIABLE>
<!-- Variables -->
<VARIABLE TYPE="nature">
    <NAME>node5</NAME>
    <OUTCOME>state0</OUTCOME>
    <OUTCOME>state1</OUTCOME>
    <OUTCOME>state2</OUTCOME>
    <OUTCOME>state3</OUTCOME>
    <PROPERTY>position = (375, 135)</PROPERTY>
</VARIABLE>
<!-- Variables -->
<VARIABLE TYPE="nature">
    <NAME>node6</NAME>
    <OUTCOME>state0</OUTCOME>
    <OUTCOME>state1</OUTCOME>
    <OUTCOME>state2</OUTCOME>
    <OUTCOME>state3</OUTCOME>
    <OUTCOME>state4</OUTCOME>
    <PROPERTY>position = (495, 149)</PROPERTY>
</VARIABLE>
<!-- Variables -->
<VARIABLE TYPE="nature">
    <NAME>node7</NAME>
    <OUTCOME>state0</OUTCOME>
    <OUTCOME>state1</OUTCOME>
    <OUTCOME>state2</OUTCOME>
    <PROPERTY>position = (164, 284)</PROPERTY>
</VARIABLE>
<!-- Variables -->
<VARIABLE TYPE="nature">
    <NAME>node8</NAME>
    <OUTCOME>state0</OUTCOME>
    <OUTCOME>state1</OUTCOME>
    <OUTCOME>state2</OUTCOME>
    <PROPERTY>position = (615, 164)</PROPERTY>
</VARIABLE>
<!-- Variables -->
<VARIABLE TYPE="nature">
    <NAME>node9</NAME>
    <OUTCOME>state0</OUTCOME>
    <OUTCOME>state1</OUTCOME>
    <PROPERTY>position = (15, 390)</PROPERTY>
</VARIABLE>
<!-- Variables -->
<VARIABLE TYPE="nature">
    <NAME>node10</NAME>
    <OUTCOME>state0</OUTCOME>
    <OUTCOME>state1</OUTCOME>
    <PROPERTY>position = (735, 150)</PROPERTY>
</VARIABLE>
<!-- Variables -->
<VARIABLE TYPE="nature">
    <NAME>node11</NAME>
    <OUTCOME>state0</OUTCOME>
    <OUTCOME>state1</OUTCOME>
    <OUTCOME>state2</OUTCOME>
    <OUTCOME>state3</OUTCOME>
    <OUTCOME>state4</OUTCOME>
    <PROPERTY>position = (284, 270)</PROPERTY>
</VARIABLE>
<!-- Variables -->
<VARIABLE TYPE="nature">
    <NAME>node12</NAME>
    <OUTCOME>state0</OUTCOME>
    <OUTCOME>state1</OUTCOME>
    <OUTCOME>state2</OUTCOME>
    <PROPERTY>position = (855, 135)</PROPERTY>
</VARIABLE>
<!-- Variables -->
<VARIABLE TYPE="nature">
    <NAME>node13</NAME>
    <OUTCOME>state0</OUTCOME>
    <OUTCOME>state1</OUTCOME>
    <OUTCOME>state2</OUTCOME>
    <OUTCOME>state3</OUTCOME>
    <PROPERTY>position = (404, 255)</PROPERTY>
</VARIABLE>
<!-- Variables -->
<VARIABLE TYPE="nature">
    <NAME>node14</NAME>
    <OUTCOME>state0</OUTCOME>
    <OUTCOME>state1</OUTCOME>
    <OUTCOME>state2</OUTCOME>
    <PROPERTY>position = (975, 149)</PROPERTY>
</VARIABLE>
<!-- Variables -->
<VARIABLE TYPE="nature">
    <NAME>node15</NAME>
    <OUTCOME>state0</OUTCOME>
    <OUTCOME>state1</OUTCOME>
    <OUTCOME>state2</OUTCOME>
    <PROPERTY>position = (135, 404)</PROPERTY>
</VARIABLE>
<!-- Variables -->
<VARIABLE TYPE="nature">
    <NAME>node16</NAME>
    <OUTCOME>state0</OUTCOME>
    <OUTCOME>state1</OUTCOME>
    <OUTCOME>state2</OUTCOME>
    <OUTCOME>state3</OUTCOME>
    <OUTCOME>state4</OUTCOME>
    <PROPERTY>position = (165, 44)</PROPERTY>
</VARIABLE>
<!-- Variables -->
<VARIABLE TYPE="nature">
    <NAME>node17</NAME>
    <OUTCOME>state0</OUTCOME>
    <OUTCOME>state1</OUTCOME>
    <OUTCOME>state2</OUTCOME>
    <PROPERTY>position = (524, 269)</PROPERTY>
</VARIABLE>
<!-- Variables -->
<VARIABLE TYPE="nature">
    <NAME>node18</NAME>
    <OUTCOME>state0</OUTCOME>
    <OUTCOME>state1</OUTCOME>
    <OUTCOME>state2</OUTCOME>
    <PROPERTY>position = (644, 284)</PROPERTY>
</VARIABLE>
<!-- Variables -->
<VARIABLE TYPE="nature">
    <NAME>node19</NAME>
    <OUTCOME>state0</OUTCOME>
    <OUTCOME>state1</OUTCOME>
    <OUTCOME>state2</OUTCOME>
    <OUTCOME>state3</OUTCOME>
    <PROPERTY>position = (1095, 164)</PROPERTY>
</VARIABLE>
<!-- Probability Distributions -->
 <DEFINITION>
      <FOR>node0</FOR>
     <TABLE>0.6622274 0.100978725 0.23679386 </TABLE>
 </DEFINITION>
 <DEFINITION>
      <FOR>node1</FOR>
      <GIVEN>node4</GIVEN>
      <GIVEN>node19</GIVEN>
     <TABLE>0.5500229 0.3748641 0.07511301 0.14619562 0.20861433 0.64519 0.73472786 0.042469937 0.22280219 0.2216298 0.0030465862 0.77532357 0.6115685 0.16249421 0.2259373 0.28771237 0.66521364 0.047073983 0.028784357 0.72204614 0.24916956 0.62709564 0.27515632 0.09774808 </TABLE>
 </DEFINITION>
 <DEFINITION>
      <FOR>node2</FOR>
      <GIVEN>node19</GIVEN>
     <TABLE>0.27595192 0.7240481 0.5435217 0.45647833 0.1435537 0.85644627 0.28343582 0.7165642 </TABLE>
 </DEFINITION>
 <DEFINITION>
      <FOR>node3</FOR>
      <GIVEN>node6</GIVEN>
     <TABLE>0.17848104 0.6651974 0.034841582 0.11283688 0.008643113 0.33745867 0.05279611 0.048340257 0.35824397 0.20316105 0.10157251 0.3992235 0.22811578 0.21472482 0.056363378 0.04750527 0.2668897 0.11724452 0.3433912 0.22496931 0.6005131 0.17565991 0.13586263 0.05059956 0.037364766 </TABLE>
 </DEFINITION>
 <DEFINITION>
      <FOR>node4</FOR>
      <GIVEN>node5</GIVEN>
     <TABLE>0.10543318 0.8945668 0.93721956 0.06278048 0.97722566 0.022774363 0.95882094 0.04117908 </TABLE>
 </DEFINITION>
 <DEFINITION>
      <FOR>node5</FOR>
      <GIVEN>node2</GIVEN>
     <TABLE>0.32119268 0.036307227 0.2618265 0.38067362 0.23782447 0.20838785 0.09671472 0.45707297 </TABLE>
 </DEFINITION>
 <DEFINITION>
      <FOR>node6</FOR>
      <GIVEN>node8</GIVEN>
     <TABLE>0.07335749 0.4667412 0.07021136 0.019689659 0.37000027 0.14348361 0.04149276 0.23377165 0.06461583 0.51663613 0.012471781 0.22517662 0.4134257 0.022608597 0.32631725 </TABLE>
 </DEFINITION>
 <DEFINITION>
      <FOR>node7</FOR>
      <GIVEN>node4</GIVEN>
      <GIVEN>node0</GIVEN>
     <TABLE>0.7099279 0.2090771 0.08099506 0.57467496 0.4177099 0.007615098 0.34504622 0.07622294 0.5787308 0.7272362 0.25139847 0.021365337 0.14586811 0.6450435 0.20908844 0.5273943 0.1406879 0.33191773 </TABLE>
 </DEFINITION>
 <DEFINITION>
      <FOR>node8</FOR>
      <GIVEN>node7</GIVEN>
     <TABLE>0.5665078 0.011255314 0.4222368 0.025551887 0.95645547 0.017992653 0.5301715 0.21570541 0.25412303 </TABLE>
 </DEFINITION>
 <DEFINITION>
      <FOR>node9</FOR>
      <GIVEN>node13</GIVEN>
      <GIVEN>node17</GIVEN>
      <GIVEN>node0</GIVEN>
     <TABLE>0.6895336 0.31046644 0.31808755 0.6819125 0.449607 0.550393 0.4485424 0.5514577 0.44283 0.55717003 0.30418202 0.69581795 0.32397878 0.6760212 0.5885785 0.41142148 0.86005574 0.13994429 0.50828487 0.49171507 0.22632563 0.77367437 0.10737333 0.8926267 0.41335526 0.5866447 0.4912096 0.50879043 0.47412586 0.5258742 0.9762463 0.0237537 0.27940843 0.7205916 0.100180805 0.8998192 0.98193604 0.018064018 0.5079737 0.49202636 0.19015749 0.8098425 0.46926343 0.53073657 0.9866074 0.01339261 0.8934574 0.10654259 0.5131191 0.48688093 0.8518038 0.14819624 0.77063626 0.22936374 0.5486576 0.45134237 0.43732965 0.5626704 0.8989464 0.10105357 0.8807026 0.119297355 0.8657266 0.13427344 0.38768694 0.61231303 0.14174438 0.8582556 0.6470273 0.3529727 0.1079642 0.8920358 </TABLE>
 </DEFINITION>
 <DEFINITION>
      <FOR>node10</FOR>
      <GIVEN>node16</GIVEN>
     <TABLE>0.5523735 0.4476265 0.47306436 0.52693564 0.48325217 0.51674783 0.66725266 0.3327473 0.104511596 0.8954884 </TABLE>
 </DEFINITION>
 <DEFINITION>
      <FOR>node11</FOR>
      <GIVEN>node3</GIVEN>
      <GIVEN>node10</GIVEN>
     <TABLE>0.2621747 0.25605756 0.18182157 0.04614799 0.25379822 0.11150167 0.0935385 0.595139 0.03733893 0.1624818 0.15206993 0.16634601 0.05796901 0.62108755 0.002527449 0.18124618 0.029540183 0.47676465 0.29665208 0.015796905 0.09270075 0.2426601 0.016123757 0.46455327 0.18396217 0.22391698 0.12628381 0.15917109 0.43774098 0.052887097 0.2430817 0.3588534 0.025542198 0.094896205 0.27762645 0.33603022 0.19662516 0.166052 0.041113123 0.26017952 0.13380793 0.4553161 0.011598379 0.171045 0.22823258 0.036060445 0.07773206 0.45521718 0.19242914 0.23856114 </TABLE>
 </DEFINITION>
 <DEFINITION>
      <FOR>node12</FOR>
      <GIVEN>node0</GIVEN>
     <TABLE>0.6288376 0.024774784 0.3463876 0.059285574 0.5279976 0.4127168 0.5231868 0.459547 0.017266208 </TABLE>
 </DEFINITION>
 <DEFINITION>
      <FOR>node13</FOR>
      <GIVEN>node12</GIVEN>
      <GIVEN>node6</GIVEN>
     <TABLE>0.337229 0.022910185 0.506501 0.13335967 0.061058346 0.46855852 0.1670317 0.3033514 0.08814833 0.30671677 0.2660388 0.33909604 0.011561029 0.03567424 0.26304868 0.6897161 0.08001561 0.023965403 0.6557313 0.24028768 0.27039045 0.68375516 0.042088833 0.0037655942 0.47059336 0.17391409 0.19725211 0.1582404 0.14296265 0.48794562 0.094224446 0.27486733 0.41530907 0.16570714 0.25718105 0.16180275 0.05572816 0.19001292 0.46837482 0.2858841 0.22599459 0.18738697 0.3636112 0.22300717 0.526936 0.02820221 0.06700233 0.37785944 0.7667003 0.10849011 0.12328887 0.0015206498 0.1977895 0.28656468 0.50027585 0.015369847 0.44348353 0.045603953 0.02109782 0.48981467 </TABLE>
 </DEFINITION>
 <DEFINITION>
      <FOR>node14</FOR>
      <GIVEN>node5</GIVEN>
     <TABLE>0.5651133 0.028748149 0.40613857 0.19594847 0.18350632 0.6205452 0.7899344 0.18100275 0.029062824 0.042394247 0.8794414 0.078164294 </TABLE>
 </DEFINITION>
 <DEFINITION>
      <FOR>node15</FOR>
      <GIVEN>node1</GIVEN>
      <GIVEN>node11</GIVEN>
      <GIVEN>node3</GIVEN>
     <TABLE>0.7337995 0.21622762 0.04997277 0.25374585 0.29473782 0.45151633 0.18192624 0.81059307 0.0074807047 0.19298163 0.32209817 0.48492023 0.27013275 0.13755192 0.5923153 0.67525667 0.06401448 0.26072878 0.62917864 0.18536907 0.18545225 0.16171972 0.5895349 0.24874541 0.33533123 0.4263509 0.23831788 0.58232033 0.12902114 0.28865853 0.31946376 0.32690322 0.35363305 0.0513027 0.54239655 0.40630075 0.015851665 0.38405368 0.6000946 0.3359468 0.4688697 0.19518355 0.08259266 0.8518887 0.065518565 0.08663778 0.7944698 0.11889244 0.13289091 0.63845634 0.22865275 0.39315316 0.0055255033 0.60132134 0.14462276 0.50006473 0.3553125 0.7609855 0.004236184 0.2347783 0.2947096 0.7007185 0.004571777 0.51958406 0.38194305 0.0984729 0.39155477 0.13715908 0.47128615 0.41047472 0.24687913 0.34264618 0.5621995 0.24826334 0.18953714 0.23691383 0.6345987 0.12848744 0.69209975 0.16134834 0.14655189 0.59278446 0.3900136 0.01720194 0.11159978 0.27061805 0.6177821 0.26186717 0.11932353 0.6188093 0.6811814 0.24631831 0.07250022 0.015384975 0.54439884 0.44021618 0.36978218 0.57330596 0.05691187 0.6715506 0.12358581 0.20486356 0.65292263 0.1632206 0.1838568 0.5313602 0.032084838 0.4365549 0.29909107 0.17132477 0.5295841 0.4353655 0.40475222 0.15988225 0.18153596 0.60123456 0.21722949 0.5636044 0.30832687 0.1280687 0.2450327 0.13703237 0.61793494 0.40277538 0.49517843 0.10204617 0.0370797 0.60051703 0.36240324 0.83015585 0.020904383 0.14893974 0.4867964 0.4211768 0.092026785 0.37693435 0.043550882 0.5795148 0.006065493 0.77328026 0.22065428 0.29848516 0.42381725 0.2776976 0.26234144 0.27192187 0.4657367 0.9189171 0.012637055 0.06844575 0.17967744 0.6692793 0.15104336 0.09728919 0.010988349 0.89172244 0.17423637 0.6916941 0.1340696 0.07592304 0.6095658 0.31451115 0.047461625 0.21988818 0.7326502 0.33868483 0.22513674 0.43617842 0.06310982 0.501474 0.43541616 0.16182609 0.20004258 0.6381313 0.22521602 0.30547848 0.46930557 0.054581214 0.717694 0.22772485 0.09748435 0.17203139 0.73048425 0.5256746 0.21594521 0.25838017 0.23249738 0.34582496 0.42167765 0.1913333 0.03954552 0.7691212 0.602785 0.24025978 0.15695521 0.749389 0.24446853 0.006142559 0.19926721 0.649015 0.15171775 0.13123733 0.7659239 0.10283875 0.4400936 0.09755687 0.4623495 0.021065863 0.9216321 0.057302102 0.039703377 0.41526055 0.5450361 0.09499024 0.19239546 0.71261436 0.089356616 0.4036048 0.5070386 0.43382055 0.429735 0.13644446 0.43916848 0.22064841 0.3401831 </TABLE>
 </DEFINITION>
 <DEFINITION>
      <FOR>node16</FOR>
     <TABLE>0.0342054 0.032814268 0.78694195 0.08362064 0.062417805 </TABLE>
 </DEFINITION>
 <DEFINITION>
      <FOR>node17</FOR>
      <GIVEN>node8</GIVEN>
      <GIVEN>node10</GIVEN>
     <TABLE>0.56000656 0.09418742 0.34580603 0.6760154 0.14228304 0.18170169 0.17498124 0.7053778 0.11964094 0.7653696 0.008088382 0.22654209 0.42186448 0.028112669 0.5500229 0.8601927 0.010307488 0.1294998 </TABLE>
 </DEFINITION>
 <DEFINITION>
      <FOR>node18</FOR>
      <GIVEN>node2</GIVEN>
      <GIVEN>node14</GIVEN>
     <TABLE>0.6652209 0.21949704 0.115282044 0.11268365 0.7993701 0.087946214 0.64567286 0.05496794 0.29935926 0.15302402 0.55922335 0.28775266 0.3976493 0.41108823 0.19126247 0.120010145 0.5123308 0.3676591 </TABLE>
 </DEFINITION>
 <DEFINITION>
      <FOR>node19</FOR>
      <GIVEN>node12</GIVEN>
     <TABLE>0.0048730015 0.49350452 0.3205814 0.18104109 0.08107112 0.56015056 5.4263964E-4 0.35823572 0.21468173 0.21451303 0.34625912 0.22454609 </TABLE>
 </DEFINITION>
</NETWORK>
</BIF>
